#ifndef __FASTGRNN_FC_PARAMS__
#define __FASTGRNN_FC_PARAMS__

#define FC_IN_DIM (32)
#define FC_OUT_DIM (6)

// clang-format off

const float FC_W[6][32] = {
   { 4.51464772e-01,  4.17504102e-01,  3.81734043e-01,  3.81209552e-01, -2.19695300e-01,  7.04109907e-01,  5.98288357e-01,  2.47752815e-01,
     2.37010837e-01, -5.92492223e-01,  5.48511565e-01, -1.60120368e-01, -1.13941228e+00, -4.09505755e-01,  4.87529159e-01, -2.45377854e-01,
     2.28002176e-01,  1.62241733e+00, -2.99339384e-01, -3.10344696e-01,  1.88742495e+00, -5.01763999e-01,  1.57736635e+00,  5.55371284e-01,
     1.35993034e-01, -6.69412494e-01,  2.31389451e+00, -5.47161222e-01, -5.85441589e-01, -1.46824718e-01,  1.48910329e-01,  4.94196802e-01},
   { 5.76172829e-01,  4.31943715e-01, -9.86564696e-01, -1.39833510e-01,  2.65038401e-01, -8.53647053e-01, -1.59645045e+00,  7.11627305e-01,
     6.03805250e-03,  1.85384369e+00, -7.80808330e-01, -8.49696696e-01,  8.73157918e-01,  6.21740997e-01,  7.89930463e-01,  6.38918638e-01,
     2.40396569e-03, -4.12952930e-01,  7.24008322e-01, -6.12442434e-01, -3.74607831e-01, -5.16091943e-01, -5.58581412e-01, -4.75177288e-01,
    -7.26856768e-01,  1.79347408e+00, -3.17202032e-01, -7.46869206e-01,  5.93246639e-01,  3.78038973e-01,  2.32154772e-01,  2.59778172e-01},
   { 3.66546839e-01,  7.94695735e-01,  6.35565937e-01, -3.99297804e-01, -6.04578733e-01,  1.06665409e+00, -1.34060144e+00,  7.15620339e-01,
    -5.08653998e-01, -1.16517043e+00,  5.40898502e-01, -5.24685621e-01,  8.36648226e-01,  7.50793576e-01, -1.07482100e+00,  5.49908996e-01,
     5.08760549e-02, -4.06068921e-01,  8.39020371e-01, -5.84691703e-01, -4.61811125e-01, -5.16601384e-01, -3.67187083e-01,  1.06652153e+00,
    -1.05956829e+00, -1.08405960e+00, -5.72570384e-01,  9.25638258e-01,  1.41421819e+00, -2.24355727e-01, -1.30335614e-01, -9.79658246e-01},
   {-1.49321854e+00,  7.97931731e-01, -9.58741665e-01,  1.42975524e-01,  8.33232403e-01, -1.30919886e+00,  7.49527216e-01, -7.44374931e-01,
    -5.41937828e-01,  8.10031950e-01, -2.04872322e+00,  1.23694932e+00,  5.01369715e-01,  8.22001576e-01, -8.26929569e-01, -3.20239663e-01,
     4.86603439e-01, -4.08756405e-01, -3.76986563e-01,  1.19641161e+00, -3.68096888e-01,  7.64730275e-01, -2.14717358e-01, -7.06655800e-01,
     6.41806945e-02,  9.29096401e-01, -3.28044653e-01, -6.08639956e-01,  1.12269723e+00,  2.12949403e-02, -5.20984292e-01,  7.76111265e-04},
   { 6.33709490e-01, -1.98900378e+00,  8.01606715e-01, -2.82246977e-01,  5.06483376e-01, -1.34764397e+00,  8.41267288e-01, -6.07080162e-01,
     4.97198135e-01, -9.44736540e-01, -1.29291999e+00, -7.92155504e-01,  9.73692656e-01, -5.19631863e-01,  8.94064367e-01, -2.20755056e-01,
    -2.39844844e-01, -4.35755312e-01, -3.26927781e-01,  1.24687541e+00, -4.14658785e-01,  7.75316000e-01, -1.90099955e-01, -1.24701202e+00,
    -6.20564997e-01, -9.68723834e-01, -5.39530456e-01,  6.48359537e-01, -1.08562946e+00,  2.50976183e-04,  1.62232950e-01, -9.31348026e-01},
   {-1.37530935e+00, -1.48192441e+00, -8.11110795e-01, -3.32261831e-01, -6.04474664e-01, -6.93453431e-01,  8.77485216e-01, -6.82258964e-01,
     2.97404706e-01,  1.55194426e+00,  6.05102420e-01,  1.43672478e+00, -1.20117509e+00, -5.37564218e-01, -9.62660909e-01, -2.51541525e-01,
    -9.70194161e-01, -3.96280199e-01, -4.50532526e-01, -4.93441612e-01, -3.38266134e-01,  7.81645119e-01, -5.70771575e-01, -5.12925267e-01,
     1.04873693e+00,  1.65567052e+00, -1.44993305e-01,  8.18163991e-01, -7.91234732e-01,  4.17180121e-01, -3.73386323e-01,  3.45084906e-01},
};

const float FC_B[6] = 
   { 1.20238304e+00, -4.90454108e-01, -9.43190992e-01, -1.64893772e-02, -5.04492164e-01, -8.03879738e-01};

// clang-format on


#endif // __FASTGRNN_FC_PARAMS__

