#ifndef __FASTGRNN_GRNN0_PARAMS__
#define __FASTGRNN_GRNN0_PARAMS__

#define GRNN0_HIDD_DIM0 (32)
#define GRNN0_HIDD_DIM1 (64)

// clang-format off

const float GRNN0_ZETA = (-3.775446e-01);
const float GRNN0_NU = (-6.178452e+00);

const float GRNN0_BIAS_UPDATE[64] = 
   { 1.10493898e+00,  1.43673372e+00,  8.63888025e-01,  9.97380733e-01,  4.72895026e-01,  5.69816291e-01,  1.86135471e+00,  1.19553840e+00,
     1.33872056e+00,  4.58600782e-02,  7.88582504e-01,  1.30159125e-01,  9.98403192e-01,  1.32653940e+00,  1.97038376e+00,  7.36130834e-01,
     7.99961984e-01,  9.48812962e-01, -1.32399619e+00,  8.01697195e-01,  1.45568192e+00,  6.00253582e-01,  1.32956636e+00,  2.45399639e-01,
     9.68779027e-01,  4.61672813e-01,  1.88500476e+00,  3.25459927e-01,  2.78504682e+00,  2.97909093e+00,  7.62612522e-01,  1.25763905e+00,
     1.49369109e+00, -1.26332358e-01,  2.11118197e+00,  2.62579393e+00, -4.23318986e-03,  5.84884942e-01,  3.11077404e+00,  3.94654304e-01,
     1.15446901e+00,  2.91841197e+00,  1.13545978e+00,  5.62525749e-01,  3.70342791e-01,  1.12570465e+00,  1.49059355e+00,  7.57206142e-01,
     1.27382088e+00,  2.10059285e+00,  1.08264208e+00,  2.31324816e+00,  1.17690670e+00,  8.67457211e-01,  8.59769821e-01, -3.50725889e-01,
     2.07861710e+00,  1.21539843e+00,  9.89471257e-01,  1.76794493e+00,  2.09623170e+00,  4.00971800e-01,  7.71009862e-01,  1.05101311e+00};

const float GRNN0_BIAS_GATE[64] = 
   { 1.22249925e+00,  1.46288049e+00,  1.85535884e+00,  2.11901689e+00,  2.56406665e+00,  8.76629591e-01,  1.17924273e+00,  1.88714540e+00,
     3.11820984e+00,  2.61548591e+00,  2.10169649e+00,  3.94160891e+00,  2.32950830e+00,  1.64096808e+00,  1.78145206e+00,  2.92264009e+00,
     2.36424947e+00,  2.61287451e+00,  2.34953833e+00,  2.14183235e+00,  3.17233586e+00,  1.92811155e+00,  9.24006999e-01,  3.16947484e+00,
     1.02773619e+00,  1.80801082e+00,  6.97579026e-01,  3.40768814e+00,  2.43429446e+00,  7.05890000e-01,  1.77372599e+00,  2.47204208e+00,
     2.42469096e+00,  3.05950105e-01,  1.47937834e+00,  2.13336110e+00,  1.24793649e+00,  2.21637797e+00,  8.32036972e-01,  2.18300486e+00,
     3.07247233e+00,  2.05769062e+00,  2.67414498e+00,  2.61061835e+00,  5.15700161e-01,  1.76601219e+00,  1.48894405e+00,  2.29666901e+00,
     1.51459929e-02,  1.23324573e+00,  3.30646348e+00,  1.53855920e+00,  3.88537073e+00,  2.12872076e+00,  7.33846188e-01,  1.08477926e+00,
     2.77857471e+00,  1.91967392e+00,  2.87900996e+00,  3.31028318e+00,  2.11159492e+00,  1.93766725e+00,  2.91591501e+00,  2.39603424e+00};

const float GRNN0_W[64][32] = {
   {-2.13424698e-01,  1.93424076e-01,  1.23915769e-01,  6.47648871e-01,  2.31884256e-01,  1.86019599e-01,  5.00008538e-02, -5.83196104e-01,
     7.07327351e-02, -3.33505981e-02, -2.39640266e-01, -5.53461134e-01,  1.37128636e-01, -1.95367429e-02,  3.36037159e-01,  9.16736051e-02,
     8.63879025e-02,  4.13547307e-01,  1.89497501e-01,  4.33684230e-01,  3.61301422e-01, -4.29487564e-02,  3.11647832e-01,  1.10094033e-01,
     5.51769808e-02,  1.96639419e-01, -5.80792762e-02,  2.49723089e-03, -5.50403111e-02,  4.23664421e-01, -4.38575119e-01, -8.66870210e-02},
   { 6.29234612e-02,  2.04470158e-01,  3.97846073e-01,  1.00706466e-01, -1.22287489e-01,  3.08560487e-03, -1.13340601e-01,  3.20550591e-01,
     2.26507574e-01, -1.19056724e-01, -1.69612274e-01,  6.51378185e-02,  1.42299920e-01,  5.76765127e-02,  2.70305663e-01,  7.43661672e-02,
     1.38444006e-01,  1.34085312e-01, -2.75184140e-02,  1.28380135e-01, -1.49514079e-01, -4.86786216e-01, -2.19995379e-02, -2.89037496e-01,
    -3.65943402e-01, -3.77609074e-01, -1.30455837e-01, -2.24294290e-01, -2.72977889e-01, -5.85464835e-01,  6.64341509e-01, -4.82859552e-01},
   { 4.97128479e-02, -3.52674067e-01, -4.33584958e-01, -8.87534842e-02, -6.66614398e-02, -2.54894465e-01,  7.61121958e-02, -1.42973348e-01,
     2.62490004e-01,  3.89731497e-01,  6.49655104e-01,  4.58854675e-01,  6.48021460e-01,  2.86320597e-01, -1.05168499e-01, -6.19301200e-01,
    -3.51587981e-01, -1.50715187e-01, -1.10589378e-02, -2.71593481e-01, -1.89765785e-02,  2.51741707e-01, -1.37239203e-01,  3.53936523e-01,
     1.87971089e-02,  4.30559218e-02,  3.57370079e-02,  1.33566543e-01, -8.27111527e-02,  9.57327187e-02, -5.12073100e-01,  4.68148500e-01},
   { 4.73997220e-02, -1.48674622e-01, -1.43058464e-01,  1.39094949e-01, -1.28536060e-01, -5.56084037e-01, -4.55929995e-01, -2.47988001e-01,
     6.60679163e-03, -4.18467879e-01, -6.30897284e-01, -2.42914960e-01, -1.66988403e-01, -6.63307369e-01, -4.97943252e-01, -2.29366660e-01,
     6.06680870e-01,  9.43862736e-01,  5.99542081e-01,  1.97178617e-01,  4.05680358e-01,  1.47518560e-01,  1.60753518e-01, -2.50205141e-03,
    -4.07083660e-01, -2.47630283e-01,  4.99255359e-02,  1.74519971e-01,  3.18840921e-01, -1.85226486e-03, -2.44840220e-01,  2.47816458e-01},
   { 1.25555471e-02,  3.48568738e-01, -3.21340680e-01,  1.42485097e-01,  2.63232082e-01, -1.57823078e-02, -1.38294801e-01, -4.08067167e-01,
    -2.65635699e-01, -4.13993776e-01, -7.31697083e-01, -6.91629291e-01,  2.00366348e-01,  8.55974257e-01,  8.06033134e-01,  1.00259566e+00,
     5.62186897e-01,  1.81306124e-01, -1.77764162e-01, -5.93798347e-02, -1.86690599e-01, -1.12212807e-01,  1.73780844e-02, -1.52748823e-01,
    -3.41702789e-01, -5.94873652e-02, -2.55855888e-01, -4.91991490e-02,  1.12228535e-01, -1.78399459e-01, -1.50092617e-01,  3.83440815e-02},
   { 2.21318994e-02,  1.00928485e-01, -1.38351163e-02, -1.52018622e-01, -1.80999443e-01,  7.22185224e-02,  1.83932781e-01,  8.22217017e-02,
    -1.76408470e-01,  3.61173763e-03,  9.27776620e-02,  1.50274381e-01, -1.12483405e-01,  3.29565495e-01, -1.61188707e-01, -1.51060950e-02,
    -3.47210169e-02, -2.56482363e-01, -1.94494024e-01,  1.06943540e-01, -2.20769793e-01, -6.03375174e-02,  3.13310564e-01,  1.25122160e-01,
    -2.21403256e-01, -2.36286402e-01,  1.41729698e-01, -4.41595614e-02,  2.28301324e-02,  1.00224294e-01, -3.27372432e-01,  3.18033665e-01},
   { 5.11936247e-01, -2.98611909e-01,  7.62088537e-01,  8.80555093e-01,  5.84992349e-01,  6.28054082e-01,  6.19723499e-01,  2.04213858e-01,
     3.11991662e-01,  8.69231150e-02, -1.20741561e-01, -6.96499944e-01, -8.82674381e-02,  1.80039287e-01,  3.04342568e-01, -1.68036833e-01,
    -1.12697944e-01, -1.60466418e-01,  3.55201274e-01,  1.72512531e-01, -2.97752153e-02, -1.41450390e-01, -1.63684919e-01, -1.35051638e-01,
     2.73999184e-01,  5.55811286e-01,  1.18808068e-01, -3.14811558e-01,  2.90578902e-01,  8.43746513e-02, -2.59476136e-02, -6.47980124e-02},
   { 2.07332090e-01,  4.12548572e-01,  3.41984481e-01,  1.74112171e-02,  1.26081198e-01,  6.22751653e-01,  5.87718010e-01,  1.83255211e-01,
    -2.21596971e-01,  6.69585913e-02,  1.52993724e-01,  3.91465537e-02, -1.02908529e-01, -2.14593187e-01, -1.79050118e-01, -6.63513765e-02,
     1.30061924e-01, -7.81064779e-02, -1.12692714e-01, -1.14954822e-01, -1.19227879e-01,  1.06990390e-01,  2.12648705e-01, -1.18737608e-01,
     2.49011386e-02,  1.57218009e-01,  5.54681662e-03,  1.19482085e-01, -1.19096367e-02,  3.66644919e-01,  7.94773281e-01, -1.05296731e+00},
   { 1.66641921e-01, -1.21943146e-01,  1.03665151e-01,  3.38109642e-01,  2.51013339e-01, -3.98052424e-01, -6.84400320e-01, -9.15209949e-01,
    -3.38055372e-01, -1.16443351e-01,  3.71320218e-01,  4.16418225e-01,  4.20099705e-01,  3.37010026e-01,  3.40138912e-01,  7.01977089e-02,
     1.94056824e-01,  3.34679544e-01, -1.93760678e-01, -4.09721255e-01,  3.92901525e-02, -2.11942364e-02, -1.92935079e-01, -1.24494731e-01,
    -1.69669822e-01, -1.70130521e-01, -4.35493179e-02, -9.31778848e-02, -2.60744572e-01,  2.68957913e-02, -3.50619018e-01,  4.18057702e-02},
   { 1.88757956e-01, -3.10583830e-01, -4.65617329e-01,  2.53713071e-01,  5.13644159e-01,  1.11496180e-01,  3.54177833e-01, -5.26686490e-01,
    -3.39566022e-01, -8.94764960e-02, -4.82463002e-01, -5.29219568e-01, -2.82741547e-01, -3.50010812e-01, -1.36617362e-01, -3.32555681e-01,
    -3.33484828e-01, -5.29943764e-01, -3.14311117e-01,  4.42110226e-02,  1.71958711e-02, -4.16221768e-02,  3.03959697e-01,  6.39358938e-01,
     3.80005121e-01,  3.06925744e-01,  3.96686435e-01,  3.52541119e-01, -1.66086495e-01,  4.74136472e-01, -4.85714138e-01,  3.85682166e-01},
   { 2.64712814e-02,  3.47721949e-02,  7.63669759e-02, -2.33976617e-02,  9.34378505e-02,  7.77500495e-02,  3.30094248e-01,  4.92888123e-01,
     4.80938166e-01,  5.06014466e-01,  3.89331520e-01,  2.59404421e-01, -6.64790750e-01, -9.28785920e-01, -6.88192487e-01, -4.88053620e-01,
    -3.93118203e-01, -5.54602332e-02,  4.93420124e-01,  2.49698684e-01,  1.86500177e-01,  2.41875291e-01,  4.46798295e-01,  3.72603536e-01,
    -1.69896841e-01,  1.37012839e-01,  1.90716431e-01, -1.39334291e-01,  3.81177366e-01,  3.08453977e-01, -3.83358151e-01,  1.87844887e-01},
   { 8.11910108e-02,  6.03530034e-02,  1.05892956e-01, -5.92774510e-01, -6.20617151e-01, -3.52702051e-01, -3.35518092e-01,  1.80862278e-01,
     9.77961659e-01,  2.37218533e-02, -1.38005078e-01, -3.47725838e-01, -6.44012094e-01, -6.00771248e-01, -3.18685502e-01,  2.99333483e-01,
     5.12546301e-01,  8.78946036e-02,  2.05395475e-01,  2.74276555e-01, -1.63002521e-01, -8.99179280e-02, -2.22417060e-04,  2.17806384e-01,
    -2.38204509e-01,  2.95733005e-01,  1.49925470e-01, -5.08252569e-02,  2.95349121e-01,  1.33162841e-01, -1.02360427e-01, -2.44859964e-01},
   { 1.70058295e-01,  2.11647525e-01, -1.86433688e-01, -4.49302569e-02,  1.17036439e-01,  5.45518279e-01,  4.66726363e-01,  4.34329122e-01,
    -1.16059840e-01, -5.27576745e-01, -5.76692700e-01, -1.14117116e-01,  3.19424957e-01,  8.96108568e-01,  9.92158771e-01,  1.74485505e-01,
    -7.46267021e-01, -3.19327772e-01, -2.04599202e-01,  4.01350781e-02,  1.99547000e-02, -3.44808608e-01,  5.60463779e-02,  9.89286453e-02,
     1.89279497e-01, -2.19926819e-01,  1.84768245e-01,  5.95620461e-02, -2.07521580e-02, -1.11895436e-02,  7.35967278e-01, -1.20920205e+00},
   {-1.03775986e-01,  5.78277372e-02, -5.63119411e-01, -5.68906479e-02,  5.73105514e-01,  4.07643676e-01,  9.46612731e-02, -6.14117458e-02,
     7.74422381e-03, -5.08041978e-01, -5.29323459e-01, -5.66954255e-01,  3.14440787e-01,  2.52545834e-01, -1.35945097e-01, -2.97293693e-01,
    -4.53252941e-01, -2.40499705e-01,  1.28062600e-02,  2.27166906e-01, -1.80350654e-02,  2.82592982e-01, -7.03597963e-02,  3.06791496e-02,
     3.36557269e-01, -5.46954051e-02,  3.19336742e-01,  1.30741581e-01,  1.44825112e-02, -9.42127556e-02,  7.33267516e-02,  1.59751922e-01},
   {-2.77932603e-02,  2.51632128e-02, -8.03623199e-02, -9.03701410e-02,  7.34319448e-01,  2.35110864e-01, -5.47744274e-01, -1.44400084e+00,
    -8.36524427e-01,  8.68088067e-01,  3.20443809e-01, -4.03679252e-01, -8.27195823e-01,  9.15645599e-01,  1.82482779e+00,  4.54110086e-01,
    -4.29151893e-01, -3.22739124e-01, -3.57940525e-01, -2.83622265e-01,  1.94342911e-01,  1.02662139e-01,  1.79099083e-01, -1.52418867e-01,
     2.11079910e-01,  7.32754590e-03,  1.70792788e-01, -5.65829650e-02,  2.21579924e-01, -3.21635008e-01,  6.24135613e-01,  1.58559531e-01},
   { 1.84410259e-01,  6.77240342e-02, -2.95178562e-01,  2.12016940e-01, -3.70741636e-02, -7.55382925e-02, -1.61139637e-01, -3.70763779e-01,
    -1.83551908e-02,  4.46704179e-02, -2.51566637e-02, -3.06005448e-01, -1.99441537e-01, -7.32862297e-03,  3.54318410e-01,  1.48608238e-01,
     9.71877649e-02,  1.80699661e-01, -2.69764215e-01, -2.71167427e-01, -2.94004679e-01, -3.99189144e-01, -1.30701646e-01,  5.89928739e-02,
    -7.98197165e-02,  2.65705109e-01,  2.27254167e-01,  7.60962591e-02,  1.39631674e-01,  5.56585491e-01, -5.42549491e-01,  4.83797759e-01},
   {-7.23123848e-01,  6.40676737e-01,  5.53558946e-01, -3.05401057e-01, -3.29615355e-01,  3.91775697e-01, -2.30986699e-02, -8.20455924e-02,
    -6.29594326e-02, -1.92733809e-01, -1.01559758e-01,  2.05020048e-03,  3.94122452e-01,  3.47059906e-01,  1.80841014e-01, -6.51750028e-01,
    -2.13763118e-01,  1.96149647e-01, -9.87189710e-02,  1.33727580e-01,  2.23787114e-01,  5.41648827e-02, -5.22859916e-02, -1.62019268e-01,
     4.43817914e-01,  1.48249164e-01, -6.52164072e-02,  1.50295362e-01, -1.54107390e-03,  2.97121078e-01, -1.61203086e-01, -2.93536186e-01},
   { 8.91429931e-02, -1.08822830e-01,  1.79469027e-02,  2.59003878e-01,  2.93840230e-01,  4.10030484e-01, -4.11502242e-01, -8.09946299e-01,
    -1.94028124e-01,  2.21184433e-01,  1.04964507e+00,  7.35156834e-01,  3.88598949e-01, -3.21596771e-01, -9.86425698e-01, -8.45652282e-01,
    -4.66781497e-01, -3.74352753e-01, -2.34336153e-01, -5.67378521e-01, -1.41089763e-02,  9.16970611e-01, -3.65815639e-01,  6.09523416e-01,
    -2.45406777e-02, -1.76538393e-01,  2.83684701e-01,  3.33926827e-01, -3.30237262e-02,  4.30195987e-01, -5.75087488e-01,  1.93710774e-01},
   {-3.37922335e-01,  1.95866525e-01,  6.98990405e-01, -2.46845528e-01, -5.08876145e-01,  6.08948231e-01,  4.89821553e-01,  1.00542806e-01,
     1.72008023e-01,  7.44852901e-01,  2.62951870e-02,  2.48838127e-01,  3.57832015e-01, -1.13584913e-01,  7.36429095e-01,  4.23348933e-01,
     4.14266169e-01, -2.63820458e-02,  2.03107730e-01, -2.16551870e-01,  2.64497399e-01, -4.10124540e-01, -8.96535218e-02, -8.97525474e-02,
     2.89166868e-01,  1.21348470e-01,  2.06453934e-01, -1.13182411e-01,  1.56908929e-01,  6.89007938e-01,  9.03851569e-01, -8.42625260e-01},
   {-4.79328245e-01,  7.54355311e-01,  5.23482561e-01, -1.39715597e-01,  2.44499460e-01,  5.18808067e-02,  7.67074078e-02,  5.41534483e-01,
     4.22276139e-01,  3.82592887e-01,  2.51190841e-01,  1.93666786e-01,  3.57570755e-03,  1.44062847e-01,  2.14896366e-01,  1.46748368e-02,
    -4.85505968e-01, -7.71792173e-01, -1.61967590e-01, -5.56590319e-01, -5.63418269e-01,  1.81223780e-01,  8.96649435e-03,  2.95115858e-02,
     3.34991872e-01, -2.07837582e-01, -1.35298431e-01, -7.61441216e-02,  3.85488182e-01, -1.62673175e-01, -2.80693956e-02, -2.59263158e-01},
   {-2.69787423e-02, -5.47292531e-01, -5.89061558e-01, -3.46144140e-01,  1.10939175e-01,  8.43411744e-01,  9.74735260e-01,  5.53752296e-02,
    -8.52778137e-01, -5.40977895e-01, -1.47690177e-01,  2.22956613e-01, -1.04692087e-01, -3.05045843e-01, -5.06073423e-02, -1.07508175e-01,
     4.57197502e-02, -2.43682534e-01, -1.12361200e-01, -2.05138952e-01,  1.02192879e-01,  3.59786451e-02,  4.51768786e-02,  7.39976168e-02,
     1.86782852e-01, -1.40105605e-01, -8.89783055e-02,  7.44422376e-02, -1.08544394e-01, -2.08631039e-01,  3.02631110e-01, -7.54336566e-02},
   {-6.53085411e-02, -3.68802607e-01,  4.60185975e-01,  3.95284355e-01, -1.88696645e-02, -5.62614083e-01, -1.16550350e+00, -8.10846210e-01,
     3.95005554e-01,  8.45356882e-01,  9.15206075e-01,  1.85230225e-01, -8.18789661e-01, -6.62160575e-01, -1.71948835e-01,  1.52509967e-02,
    -1.13480859e-01,  5.70781171e-01,  6.08403504e-01,  3.09449192e-02, -2.53610015e-01,  1.94364890e-01,  1.63420781e-01,  3.96517143e-02,
    -1.97583139e-01,  3.78054418e-02,  1.80064753e-01, -7.00518340e-02,  8.92858952e-02, -4.38536167e-01, -2.56940555e-02,  4.33558494e-01},
   {-3.62989828e-02,  3.44791889e-01,  1.08849376e-01, -2.82730579e-01, -3.13694537e-01,  7.45938197e-02, -3.62311564e-02,  1.13302505e+00,
     9.05045271e-01, -1.14082731e-01, -6.27181828e-01, -2.04167947e-01,  5.89563847e-01,  6.26460135e-01, -7.90757358e-01, -9.69439209e-01,
    -4.93178368e-01,  9.12709534e-02,  4.03040618e-01,  8.77734542e-01,  6.27088368e-01, -8.81416351e-03, -1.51473805e-01,  6.37863725e-02,
     2.24703744e-01, -1.27577484e-01, -2.94174701e-02, -2.70455424e-02, -8.70450810e-02,  3.69183242e-01, -3.61952335e-01, -6.15279615e-01},
   {-1.26131009e-02, -1.47458628e-01,  7.08737552e-01,  3.72329742e-01, -2.16599822e-01, -2.03765526e-01, -5.47249973e-01, -2.95434445e-01,
    -2.67754309e-02,  2.57411689e-01,  4.31567013e-01,  3.84560198e-01,  4.51498508e-01,  2.79756784e-01, -5.33020012e-02, -6.21097945e-02,
    -2.22346827e-01, -1.90539643e-01, -2.01082602e-01, -5.25776446e-01, -2.99632307e-02, -1.54939608e-03, -2.43576378e-01, -2.57599890e-01,
     4.59094085e-02, -5.05301096e-02,  1.59669239e-02, -2.27498651e-01, -3.60524297e-01, -1.46486893e-01,  9.18212414e-01, -3.63975614e-01},
   { 7.44475052e-02, -1.38623565e-01, -1.87964469e-01, -8.50111842e-01, -4.02696759e-01,  7.05437874e-03, -3.71958911e-02,  8.17671493e-02,
     5.61154913e-03,  1.28877446e-01, -2.71582723e-01, -3.23599815e-01, -1.21801041e-01, -1.35921016e-01, -8.93282294e-02, -9.86600444e-02,
     3.01700830e-01,  5.56462212e-03,  5.17090023e-01,  4.90797341e-01,  2.06066191e-01,  2.64811590e-02,  2.99660683e-01,  3.13347131e-01,
     1.33909374e-01,  2.56752521e-02,  4.54510339e-02, -6.42831251e-02,  2.42980450e-01,  9.84349623e-02, -2.87911415e-01,  9.14594065e-03},
   {-1.69863254e-01, -3.77480626e-01, -4.38423336e-01, -4.75316435e-01, -7.71759227e-02,  2.83093512e-01,  5.22720993e-01,  7.88632691e-01,
     2.89319992e-01,  2.80669957e-01,  3.20183367e-01,  1.23981275e-01,  1.13560230e-01,  3.07264924e-01,  3.24480701e-03, -1.05781712e-01,
    -6.38544440e-01, -8.11104536e-01, -3.03898454e-01, -1.25741825e-01, -2.66707897e-01, -8.74639153e-02,  4.37989682e-01,  1.80304199e-01,
     1.58515990e-01, -8.49827677e-02,  8.63955319e-02, -8.43434185e-02,  3.13403875e-01, -2.40708925e-02, -6.17999494e-01, -5.04690170e-01},
   { 1.05750691e-02,  7.17190504e-02,  3.63378040e-02, -1.32285744e-01, -2.11278815e-02,  1.96257457e-01,  9.06661078e-02, -3.65790725e-02,
    -3.75359356e-01, -4.72858787e-01, -3.56291920e-01, -3.93736869e-01, -3.06412846e-01, -3.69413406e-01, -4.25766170e-01, -7.67939091e-02,
    -2.09375307e-01, -3.22484076e-01, -1.64544880e-01,  1.56888694e-01,  6.94025084e-02,  1.86575025e-01,  1.31258562e-01,  1.90022498e-01,
    -1.20270289e-01, -3.41056213e-02, -5.73173761e-02, -9.19419304e-02,  5.42112365e-02,  2.27760807e-01,  4.43130791e-01,  1.87454462e-01},
   { 7.57662654e-02,  3.98240477e-01,  5.90521216e-01,  1.53532892e-01, -1.59129754e-01, -1.58016860e-01, -8.70481491e-01, -8.45068514e-01,
    -2.51830608e-01, -8.98416042e-02,  1.87430009e-01,  1.74450606e-01,  1.78911090e-01,  4.62400585e-01, -5.76000214e-02, -2.17212588e-01,
    -4.36405450e-01, -2.77500480e-01, -1.34609729e-01,  1.58810660e-01,  2.32542902e-01,  2.67820302e-02,  1.79127097e-01,  2.81999588e-01,
    -1.86888762e-02, -1.90027785e-02,  1.44196346e-01,  2.64983326e-01,  2.75156438e-01,  6.37779385e-02, -3.75546962e-01,  9.79670137e-02},
   { 1.10688750e-02, -5.48505604e-01, -7.90248513e-01, -9.09777939e-01, -7.55857110e-01,  7.42760599e-01,  3.43216091e-01,  3.52687895e-01,
     4.24494863e-01, -5.70770651e-02,  5.09098694e-02,  8.02203774e-01,  3.53483289e-01,  3.57395440e-01, -8.90677329e-04, -1.02305666e-01,
    -7.10945204e-02,  6.22177005e-01,  6.35780811e-01,  4.81490254e-01,  2.97595710e-01, -1.54481962e-01, -1.40078098e-01, -5.19968234e-02,
    -8.19265246e-02, -1.67104363e-01,  2.74002492e-01,  1.80290028e-01, -8.10350291e-03,  9.85616520e-02, -6.42179608e-01, -4.13788974e-01},
   {-5.74064814e-02, -6.62274435e-02, -6.40367195e-02,  8.31302702e-02,  5.11644036e-02, -2.80817244e-02, -3.76789033e-01,  1.35400847e-01,
     4.26276535e-01, -9.86739546e-02,  2.81638592e-01,  2.46508315e-01, -5.41340709e-02,  3.17058235e-01, -4.84620780e-02, -3.04629564e-01,
    -1.32442163e-02,  4.45316404e-01,  8.99835080e-02,  1.62930876e-01,  3.98364455e-01,  3.32248747e-01,  2.14934558e-01,  2.95941442e-01,
    -8.43893662e-02, -3.51130098e-01, -4.38688099e-01, -6.60754383e-01, -9.18524742e-01, -3.57204825e-01, -2.99457133e-01, -2.70366371e-01},
   { 1.77216023e-01, -3.24440151e-01, -1.27964780e-01,  5.06832004e-01,  2.59425074e-01,  3.21814984e-01,  2.49951333e-01,  3.31253767e-01,
     5.83196998e-01,  5.86241841e-01,  3.35590482e-01,  3.38330328e-01,  2.36426726e-01,  1.52786940e-01,  3.84677857e-01,  7.08146906e-03,
     5.41911982e-02,  5.43979645e-01,  1.02364711e-01,  1.99671865e-01,  1.06111109e-01,  9.24406722e-02, -3.42239924e-02, -5.22934377e-01,
    -4.57871079e-01, -5.84888220e-01, -5.07624388e-01, -4.07443017e-01, -3.13387513e-01, -6.49660885e-01,  4.74683076e-01, -1.02435923e+00},
   { 1.79639325e-01, -5.73208928e-01, -3.85821611e-01, -3.66110831e-01,  5.74300945e-01,  9.87859726e-01,  7.53093064e-01,  1.95425496e-01,
    -1.14021754e+00, -7.75005281e-01, -5.67948282e-01, -1.29052430e-01, -2.73567110e-01,  1.53360128e-01,  1.40428960e-01,  3.14667165e-01,
     8.18081275e-02, -2.68830478e-01, -5.45564964e-02, -1.43848762e-01,  2.11824834e-01, -6.17595995e-03, -2.25674644e-01, -7.64013687e-03,
     3.01040828e-01, -2.11660817e-01,  1.27949968e-01, -1.46333665e-01,  2.99210370e-01,  1.00800477e-01, -3.92256171e-01,  3.69495600e-01},
   {-3.19114149e-01, -4.06227112e-01,  4.77030128e-01,  3.25979769e-01,  1.01668380e-01, -5.05685031e-01, -5.36417961e-02,  1.62044764e-01,
    -1.86589882e-01, -5.63820183e-01, -1.05018640e+00, -1.52276015e+00, -2.50086963e-01,  8.71015370e-01,  7.19878197e-01,  5.40349543e-01,
     4.86175388e-01,  3.52100044e-01, -4.74159084e-02, -1.99137166e-01,  1.37476236e-01, -1.35338917e-01, -1.88374758e-01,  3.27437557e-02,
     2.56012112e-01, -6.36889115e-02,  2.02003911e-01, -5.43455705e-02, -1.18072806e-02,  3.18256944e-01, -3.07208151e-01,  4.47502643e-01},
   {-2.57222086e-01, -3.37137461e-01,  1.33434013e-01,  4.93355185e-01,  4.59798634e-01,  3.57467294e-01,  3.47237527e-01,  5.03276885e-01,
     5.51639080e-01,  5.37883103e-01, -3.94352138e-01, -1.20958067e-01,  1.58412755e-01,  2.20874235e-01, -7.05802798e-01, -1.92017376e-01,
     1.07948862e-01,  7.36858398e-02,  2.47704368e-02, -2.03302771e-01,  5.42803444e-02,  3.07295211e-02,  1.00890234e-01,  9.67179537e-02,
    -1.89976424e-01,  1.85986593e-01,  4.01673932e-03,  6.92907944e-02, -1.06101967e-01, -2.00772077e-01, -5.42510906e-03, -1.54467270e-01},
   { 8.15948099e-02, -1.39908940e-01,  5.75400054e-01,  1.61871433e-01,  6.31243467e-01, -3.02428871e-01, -8.92431319e-01, -4.99630809e-01,
     7.80652344e-01, -2.21956018e-02, -1.71771622e+00, -2.34392166e-01,  2.47356033e+00,  1.11634588e+00,  2.00231150e-01, -3.01498115e-01,
    -6.53502524e-01, -3.56467634e-01,  6.82743415e-02, -1.93089798e-01, -2.62899935e-01,  3.07663139e-02, -1.09801553e-01, -1.15700185e-01,
     9.47598889e-02, -9.26370621e-02, -5.63133927e-03, -2.07691342e-02,  7.06847906e-02, -5.11652291e-01,  7.72192895e-01,  1.61927044e-01},
   {-4.18633789e-01,  6.06545746e-01,  8.22384298e-01,  3.17301393e-01, -1.31907821e-01, -3.77403706e-01, -1.56738088e-01,  1.84246585e-01,
    -1.49468735e-01,  5.47671542e-02,  3.33966315e-01,  2.20572978e-01, -2.11390480e-01, -9.21291709e-02,  7.87220523e-02,  3.77295047e-01,
     7.10646451e-01,  4.95197773e-01,  1.07159220e-01, -1.72473833e-01,  2.74189711e-01,  9.19655383e-01,  8.95576537e-01,  3.97539079e-01,
     6.38181150e-01,  4.22196448e-01,  2.67235994e-01, -3.92894298e-01, -5.76364577e-01, -7.18014419e-01, -6.13599658e-01, -2.62515354e+00},
   { 4.04085666e-01,  2.41522223e-01,  8.22422922e-01,  3.67583603e-01,  1.44980818e-01, -7.17192367e-02, -1.65412933e-01, -5.21243289e-02,
    -2.10463554e-01, -2.99115241e-01, -1.30238965e-01,  1.77486673e-01,  9.90540013e-02, -3.26361246e-02, -1.48275390e-01, -3.13521624e-02,
    -4.58483011e-01, -1.60719201e-01, -3.94050814e-02, -1.99855953e-01, -6.57395506e-03, -2.92523324e-01,  1.91521153e-01, -2.00250879e-01,
    -8.06688517e-02,  2.33921465e-02, -2.44732305e-01,  1.92737728e-02, -7.41378441e-02,  4.60993089e-02,  8.24882612e-02,  2.06017226e-01},
   {-8.75919089e-02,  1.70528308e-01,  2.90988147e-01, -1.21465493e-02,  7.29080662e-02,  2.86088884e-01,  4.17885393e-01,  2.81324625e-01,
    -1.65493302e-02,  1.83648244e-01, -7.18839914e-02, -1.22638540e-02,  1.06320381e-01, -2.36738876e-01,  3.12773913e-01,  2.88987607e-01,
     3.23986143e-01,  2.58722246e-01,  1.97177440e-01,  3.19501340e-01,  1.18885078e-01,  1.23091914e-01,  1.03747182e-01, -2.18899921e-01,
    -3.53197195e-02, -2.31267154e-01, -1.55448750e-01, -2.07146093e-01, -4.07477975e-01, -5.09584606e-01,  5.29234707e-01, -1.76871732e-01},
   {-8.04735124e-02, -3.56306851e-01, -4.15345937e-01, -2.28039831e-01,  9.71003249e-02, -2.51026005e-01, -2.78047889e-01, -9.23996925e-01,
    -3.92246731e-02, -4.60902035e-01, -2.85992056e-01, -1.52111024e-01, -8.05637687e-02, -1.95850074e-01, -4.39735860e-01, -3.94055039e-01,
    -2.02884793e-01,  1.83919415e-01,  1.50379594e-02,  1.65212695e-02,  5.50651513e-02, -1.70931786e-01, -2.04125978e-02,  7.26684257e-02,
    -6.22935742e-02,  1.49507567e-01,  1.28356338e-01,  2.02181444e-01,  4.98857349e-01,  7.32072592e-02, -2.85879135e-01, -9.64530259e-02},
   { 2.25410983e-01,  2.86104023e-01, -2.62319386e-01, -1.65719464e-01, -2.61713434e-02, -8.17544833e-02, -1.81452006e-01, -4.76399779e-01,
    -3.94442379e-01, -1.19491413e-01,  1.90286934e-01,  1.78616151e-01,  1.47721037e-01,  3.38362128e-01,  2.11714819e-01,  2.33535454e-01,
    -3.29866596e-02,  6.32091761e-02,  9.52575877e-02,  6.32640496e-02,  4.61669005e-02, -2.41435230e-01, -2.91331887e-01, -7.29341358e-02,
    -2.02394083e-01, -1.24236129e-01, -3.93797792e-02, -4.65470403e-02, -3.82298976e-02, -1.50566399e-01,  9.70363542e-02, -9.21225001e-05},
   {-1.25218451e-01,  7.51757920e-02,  6.12992704e-01, -3.87985520e-02, -6.20257184e-02, -5.86457625e-02, -1.64102629e-01, -5.03320932e-01,
    -2.00928092e-01, -5.42299151e-02,  4.24410433e-01,  3.66857052e-01,  3.47539812e-01,  1.61906764e-01, -2.77426749e-01, -2.55276054e-01,
    -3.29713166e-01, -2.11506531e-01, -1.65294155e-01,  1.35050923e-01,  6.47329390e-02, -1.80364892e-01, -1.46498859e-01,  4.57997769e-02,
     4.01189998e-02, -3.48050296e-02, -5.77803254e-02, -7.29992893e-03,  8.35415944e-02,  2.36633286e-01,  9.00316611e-03,  2.21835658e-01},
   {-9.94454995e-02, -1.20748773e-01,  2.80450523e-01,  1.08223967e-01,  1.29061386e-01,  4.68227178e-01,  2.86847889e-01,  1.79500133e-01,
    -5.54887243e-02, -2.40875274e-01, -2.59616494e-01, -2.34039798e-01,  2.96325944e-02, -2.92519391e-01, -1.52539536e-01,  7.67692784e-03,
    -1.32514536e-01, -1.25342816e-01, -1.16070457e-01, -1.74657583e-01, -1.77181922e-02, -2.18087039e-03,  2.28171006e-01,  1.47211984e-01,
     9.55984175e-01,  1.25452983e+00,  1.03832591e+00,  9.58840370e-01,  5.85913301e-01,  1.57175407e-01, -1.16035807e+00, -2.23617268e+00},
   {-9.76030752e-02,  1.27796993e-01,  4.55317467e-01,  9.03637484e-02, -2.88947642e-01, -7.13285208e-01, -9.74229932e-01, -3.95069748e-01,
     3.11170757e-01,  5.34832597e-01,  6.22122824e-01,  4.34657007e-01,  3.35590303e-01,  8.70425850e-02,  3.92073505e-02, -2.85264313e-01,
    -5.16997427e-02, -7.20622540e-02,  4.55559552e-01, -1.83659777e-01, -1.52300924e-01, -3.57198924e-01, -7.69318402e-01, -4.60778236e-01,
    -1.62309736e-01, -2.24198788e-01, -9.68823284e-02,  1.89785391e-01,  2.36515909e-01,  6.19139433e-01, -5.00196517e-01,  5.14141619e-01},
   {-1.48261651e-01, -2.59085149e-01,  1.20587647e-01,  3.94546360e-01,  2.44820461e-01, -1.60433888e-01,  3.31327394e-02, -4.07714427e-01,
    -1.42727382e-02, -1.94715440e-01, -2.75239915e-01, -3.44473451e-01, -2.52597928e-01, -8.69148672e-02, -2.30876267e-01, -5.65963626e-01,
    -4.42154050e-01,  2.32607305e-01, -9.92985368e-02,  2.79600143e-01,  3.01041484e-01,  2.03199878e-01,  6.00644529e-01,  3.61097425e-01,
     3.43974859e-01,  1.04343370e-01,  2.65756637e-01,  1.60966173e-01, -6.75841281e-03,  3.93579394e-01, -3.57429206e-01,  1.35623440e-01},
   {-1.63211197e-01,  2.95177609e-01, -5.27448207e-02, -7.54636109e-01, -1.07424080e+00, -6.08706176e-01, -2.48110369e-01,  6.13567173e-01,
     1.05335855e+00,  5.51763952e-01,  6.39431655e-01,  5.26599169e-01,  2.42810220e-01, -3.13417166e-02,  1.64147280e-02, -3.22404802e-01,
    -3.50912064e-01, -3.88435274e-01, -5.22534773e-02,  2.09292844e-02,  4.01762649e-02, -5.96389100e-02,  2.63492286e-01,  4.68073100e-01,
    -4.14554894e-01, -1.71857730e-01,  6.89966977e-02,  2.33194038e-01, -1.88548435e-02,  6.79903269e-01, -6.15932643e-01,  2.81963795e-01},
   {-4.85396743e-01, -3.68869334e-01,  3.54173541e-01,  4.75363225e-01,  7.48555779e-01,  6.22903943e-01,  2.01840118e-01,  5.46363056e-01,
     7.59785473e-01,  2.49255762e-01, -2.33056128e-01, -5.16252279e-01, -3.16352993e-01, -2.09289119e-01,  1.08625367e-02, -2.75069833e-01,
    -2.41926789e-01, -2.38647521e-01,  1.52222082e-01,  4.23162952e-02,  4.22179140e-02,  5.49281538e-02,  9.73302498e-02, -3.61369818e-01,
    -1.13660507e-01,  6.72424734e-02, -1.68630667e-02, -7.96457380e-02,  1.21715628e-02, -5.02117313e-02, -2.09023803e-01, -1.73839610e-02},
   { 9.79021713e-02, -2.35636532e-02,  4.27938789e-01,  3.83073360e-01,  3.91285837e-01,  1.62124902e-01,  3.07764322e-01,  1.67191550e-01,
    -1.85978681e-01, -8.86945948e-02, -1.41811371e-01,  5.13088610e-03,  6.04828447e-02, -1.54110128e-02,  1.52817175e-01, -2.70940453e-01,
    -2.39144921e-01, -4.41444099e-01, -6.23486817e-01, -3.35934639e-01, -6.86578900e-02, -2.15386420e-01, -1.19433574e-01,  1.65109299e-02,
     1.94787771e-01, -1.97959095e-01,  3.23272534e-02,  8.92992169e-02, -1.07465781e-01, -7.98333436e-03,  2.32916668e-01, -4.46160557e-03},
   { 2.23748088e-02, -1.09128565e-01, -2.49647498e-01,  2.48492047e-01,  2.88852632e-01,  6.56011581e-01,  7.21407115e-01, -1.36936963e-01,
    -6.04780614e-01, -1.91549748e-01, -1.03815489e-01, -2.93895036e-01, -4.05833840e-01, -3.01543295e-01, -3.67298156e-01, -1.78798303e-01,
    -1.30898818e-01, -2.44304478e-01, -1.85930431e-01, -2.08709717e-01,  1.89977989e-01, -1.76789358e-01,  7.23243356e-02, -7.50123616e-03,
     2.23616004e-01,  4.50073034e-02, -1.52837172e-01,  1.67132616e-01,  7.23108575e-02,  8.94689783e-02, -1.88857257e-01,  2.62045175e-01},
   { 7.05626160e-02, -1.27307549e-01, -2.20808804e-01,  4.86843102e-02,  6.29581809e-02, -4.98114564e-02, -3.27686876e-01, -5.87341428e-01,
    -3.05485986e-02,  1.68695435e-01, -4.71825451e-02,  2.66079605e-01,  2.94986427e-01,  1.76637873e-01, -2.34483421e-01, -5.19737840e-01,
    -1.01652704e-01,  1.48861587e-01,  5.42946067e-03, -8.75474587e-02, -2.17435390e-01,  2.89655849e-02, -1.40868381e-01, -1.76629514e-01,
    -4.34968740e-01, -1.60411932e-02, -2.54700691e-01, -3.29750508e-01, -5.14996588e-01,  6.97824955e-01, -1.12502885e+00,  5.72857976e-01},
   {-1.62419811e-01,  2.38895357e-01,  8.66894200e-02, -5.55740118e-01, -2.71113247e-01,  4.00814354e-01,  1.86992824e-01,  3.91407847e-01,
     4.34335351e-01,  4.59716201e-01,  3.57646525e-01,  1.24547109e-01, -9.50242206e-02, -2.55019367e-02, -6.03767745e-02, -1.31665850e-02,
     3.62995863e-02,  1.07199818e-01, -1.83858216e-01,  3.13358635e-01, -1.44532248e-02, -1.09933622e-01,  3.96395296e-01,  8.07987973e-02,
     2.57764429e-01,  4.88851279e-01,  1.64290115e-01,  9.09097120e-02,  1.60839394e-01, -3.95275727e-02,  1.76695502e+00, -9.70987260e-01},
   {-2.43789822e-01, -1.67138517e-01, -2.17970684e-01, -3.69682349e-02, -1.03967845e-01, -5.15496314e-01, -6.03646517e-01, -5.13461053e-01,
    -2.10987523e-01, -2.07390897e-02,  1.32249936e-01, -2.98321284e-02,  2.21771836e-01,  7.06293061e-02,  1.78135168e-02, -1.56594098e-01,
    -3.30199637e-02, -2.76980251e-01, -2.78933614e-01, -3.53862792e-02,  1.29322723e-01,  9.14759263e-02, -8.15386400e-02,  6.28222898e-02,
    -8.13541710e-02, -1.80350348e-01,  2.00987458e-01, -1.37361974e-01,  8.47834498e-02, -6.27024518e-03,  9.34874937e-02, -1.88071191e-01},
   {-7.23827109e-02,  6.00867152e-01,  1.56639844e-01,  1.44365892e-01,  3.26248795e-01,  2.65297949e-01,  4.39018756e-01,  2.12637767e-01,
     7.74678662e-02,  3.05939376e-01,  5.07461846e-01,  3.69426250e-01,  2.69350857e-01,  2.63898015e-01,  2.94037342e-01, -7.69900307e-02,
    -1.50855735e-01, -5.28877750e-02, -7.49306604e-02, -3.63384075e-02, -2.87699513e-02,  1.18707053e-01, -3.44633907e-01, -3.88625741e-01,
    -6.65981770e-02, -5.93907721e-02,  1.64996192e-01,  7.21590742e-02,  1.32290265e-02,  4.55536246e-01,  6.16430640e-01, -1.67264152e+00},
   { 8.67381543e-02, -5.06924808e-01,  2.57965066e-02,  7.59502888e-01,  2.92113960e-01,  3.82991284e-01,  2.77584612e-01, -1.05220294e+00,
    -1.05929649e+00, -3.08061391e-01,  5.64821780e-01,  6.28438234e-01, -3.07388995e-02, -3.46269727e-01, -4.53189701e-01, -1.44350812e-01,
     5.32807484e-02,  4.96473134e-01,  4.40003276e-02, -2.52065510e-01, -9.98749807e-02,  1.72793001e-01,  2.67270841e-02, -1.41318545e-01,
     2.19772592e-01, -1.64173827e-01,  5.47238067e-02, -1.71770364e-01,  1.07100837e-01, -3.12609643e-01, -1.26817394e-02, -2.05598712e-01},
   {-1.12698814e-02, -9.27326679e-02, -4.97746542e-02, -1.91627368e-01, -1.08073995e-01, -2.37685233e-01, -5.37647843e-01,  3.85923833e-02,
    -2.44579807e-01, -4.82593268e-01, -3.19139123e-01,  4.11014795e-01,  9.33067739e-01,  7.92715490e-01,  7.10223317e-01,  2.87005574e-01,
     2.33803377e-01, -4.68653888e-01, -7.81922698e-01, -4.75510359e-01, -3.85883570e-01, -1.61492378e-01, -2.20344305e-01,  7.14105815e-02,
     4.41554338e-01,  1.21766977e-01,  4.24769163e-01,  2.66516097e-02,  1.52420372e-01, -2.07143590e-01, -2.17783302e-01,  1.85690358e-01},
   { 1.08150817e-01, -3.64534229e-01,  8.30655470e-02, -6.46824479e-01, -8.25535506e-02,  5.40056646e-01,  5.87063253e-01,  2.29035795e-01,
     4.67256367e-01,  5.22117138e-01,  4.50367689e-01,  1.76391661e-01, -1.75443292e-01, -2.00464979e-01, -7.83001930e-02,  1.81053132e-01,
     8.00302029e-02,  2.56411463e-01, -1.68438077e-01,  4.81328338e-01,  2.95107216e-02, -4.27321866e-02, -1.89556986e-01,  5.12355268e-02,
    -1.22820601e-01,  4.08954509e-02, -4.52834275e-03,  2.59196609e-01,  3.42587173e-01,  1.54761478e-01,  6.97366357e-01, -1.66804224e-01},
   { 3.31121206e-01,  1.54762566e-01,  2.25268379e-01,  8.95019546e-02,  6.05023742e-01,  5.22469819e-01,  3.26093316e-01, -2.70318896e-01,
    -4.76672828e-01, -3.09902370e-01, -1.86281741e-01,  4.76926677e-02, -1.97290406e-01, -1.41946778e-01, -5.90947747e-01, -1.20929770e-01,
     5.50097227e-01, -1.17100865e-01,  3.91365826e-01,  1.63381845e-01,  3.39910299e-01, -9.23039541e-02,  7.46712610e-02,  5.36254607e-02,
     4.79397886e-02,  1.66924044e-01,  3.97191226e-01,  2.59614646e-01, -1.63894277e-02,  2.63935775e-01,  1.70866966e-01, -2.74028718e-01},
   {-1.98156014e-01, -1.88439582e-02,  6.44787401e-02,  3.74031365e-01, -3.33477035e-02, -3.83260787e-01, -3.84281844e-01,  7.13890046e-02,
     3.79021794e-01,  3.29893082e-01,  1.87183157e-01, -2.16409802e-01,  1.36473536e-01, -2.91700959e-01,  2.57907901e-02,  4.14377123e-01,
    -1.24943234e-01, -2.37812892e-01, -3.64913233e-02, -1.02080993e-01, -7.81503916e-02, -1.98880881e-01, -8.39741249e-03,  5.44875786e-02,
     1.44808322e-01, -1.27925128e-01, -5.03623560e-02, -9.34062228e-02, -6.95138037e-01,  5.27138889e-01,  2.79837441e+00,  4.05039042e-01},
   { 4.55875136e-02, -1.03441589e-02, -1.31060213e-01,  8.20798147e-03, -3.30480754e-01, -3.15691292e-01, -5.54520130e-01, -4.17628765e-01,
     2.49943674e-01,  8.50708127e-01,  3.48020494e-01,  2.27627918e-01, -2.16343716e-01,  2.14928575e-02,  2.32725143e-01,  1.24531984e-01,
    -2.03061819e-01, -3.39258671e-01,  1.16224915e-01, -3.71462494e-01, -3.60826105e-01, -4.05078642e-02,  3.49166334e-01, -2.83615053e-01,
    -2.10014954e-01,  9.28163603e-02,  2.46394239e-02, -1.55190468e-01,  7.43671879e-02, -1.11811854e-01,  1.83285624e-01, -3.18753272e-01},
   { 3.71709540e-02,  2.09669396e-01,  2.18382224e-01,  1.62052974e-01,  3.69332820e-01,  3.66229147e-01, -1.92493036e-01, -6.29590392e-01,
    -8.32568228e-01, -5.95834792e-01, -6.20209277e-01, -3.19978714e-01, -2.02807903e-01, -1.86822891e-01,  4.49173182e-01,  1.39020950e-01,
     2.34146133e-01,  1.90293849e-01,  3.64849955e-01, -2.29226556e-02, -1.72094613e-01,  2.13611554e-02,  1.68102250e-01, -2.72062451e-01,
    -2.43376121e-01, -3.01021244e-02,  1.62466139e-01, -1.12989932e-01, -2.09448580e-03,  1.21944316e-01,  6.50873661e-01, -4.38884407e-01},
   { 2.00160503e-01,  2.19158873e-01, -3.15311521e-01, -4.50055927e-01,  3.02789181e-01,  6.19577229e-01,  1.07927752e+00,  1.05760586e+00,
     1.19270608e-01, -6.02977097e-01, -1.41800690e+00, -9.01996553e-01, -6.94730163e-01, -1.38310507e-01,  6.13574944e-02,  6.03193901e-02,
     1.01743445e-01, -1.49363661e-02,  7.83984363e-03,  7.56250024e-02, -2.59081364e-01,  9.32843685e-02,  7.52439797e-02, -2.54010290e-01,
     6.86524212e-02, -8.45529437e-02,  6.49942234e-02, -6.58571124e-02,  8.06767195e-02,  5.36891520e-01, -5.36897302e-01,  2.78205127e-01},
   {-7.43604526e-02,  2.31776342e-01, -3.86423379e-01, -4.78501171e-01, -3.91603619e-01, -4.44883764e-01, -7.93359131e-02, -1.67255357e-01,
    -3.34579796e-02,  5.82145154e-02,  3.15071493e-01,  1.87113255e-01,  3.48476738e-01,  1.31773658e-03,  3.67321856e-02,  5.22599593e-02,
    -1.25877872e-01,  1.40414014e-01, -4.77819070e-02,  9.53775868e-02, -4.02405411e-01, -1.83047250e-01,  2.93413937e-01, -6.44099489e-02,
    -6.01795614e-02,  3.12702656e-01,  1.32154003e-01, -2.60368407e-01,  1.23062357e-01,  1.01422943e-01, -1.94732323e-01,  1.87631160e-01},
   {-1.63105562e-01,  1.69793189e-01, -1.59799233e-01, -8.00533414e-01, -1.09234333e+00, -7.86947846e-01, -5.01475811e-01,  3.48485202e-01,
     5.27455986e-01, -5.70849590e-02, -1.65218860e-01, -1.82377696e-01, -1.58717541e-03,  2.30345443e-01, -8.69746059e-02,  4.06592131e-01,
     4.37560588e-01,  1.36408791e-01, -8.41984451e-02,  5.93512475e-01, -2.86874361e-04,  6.79091960e-02, -3.36152837e-02,  9.53086168e-02,
    -3.59772444e-01,  2.67127424e-01,  5.98077513e-02,  6.31616786e-02,  1.01852044e-01,  1.94567561e-01, -1.43211305e-01,  5.40041588e-02},
   { 1.87281728e-01, -1.87041909e-01, -4.77183908e-01, -9.94063199e-01, -7.52354383e-01, -2.30436310e-01,  4.85311151e-01,  1.22055626e+00,
     6.93803072e-01,  4.78695869e-01,  7.42982328e-01,  3.82746369e-01,  2.29430810e-01, -5.28758280e-02,  1.19684778e-01,  5.03307819e-01,
     1.84549138e-01, -5.29716074e-01, -3.43366027e-01, -4.72345978e-01, -6.01904929e-01, -3.30611795e-01, -6.42514825e-02, -1.88003227e-01,
    -1.40605241e-01, -2.28240624e-01,  3.14702868e-01,  5.30856609e-01, -2.72496998e-01,  1.75426289e-01,  2.31876448e-01, -2.21179590e-01},
   {-1.75446600e-01, -3.27527784e-02,  2.77825803e-01, -3.83793674e-02, -4.36887741e-01, -4.22419071e-01, -2.12340519e-01, -1.13360055e-01,
    -2.42482230e-01,  3.55613202e-01,  2.16718554e-01,  8.64376724e-01,  4.32120889e-01,  4.50897396e-01,  6.58844173e-01,  3.25572848e-01,
     2.41811797e-01, -6.62655979e-02, -2.69333482e-01, -3.62323284e-01, -3.87449861e-01,  1.74338259e-02,  6.50046170e-02,  1.16662107e-01,
     1.77383825e-01,  6.10865876e-02,  2.75773704e-01,  7.26821050e-02, -3.57144594e-01,  2.83393636e-03,  1.15098071e+00, -1.60412371e+00},
};

const float GRNN0_U[64][64] = {
   {-3.47240305e+00, -1.04641032e+00, -1.79092944e-01,  1.73078227e+00,  5.45510948e-02,  5.92936754e-01,  4.88287568e-01, -9.27724957e-01,
     1.40598118e+00,  1.13806570e+00,  1.32693446e+00,  5.87886237e-02, -1.91252756e+00, -1.58344433e-01, -1.87766582e-01,  2.26703787e+00,
    -1.40971601e-01, -3.45445096e-01, -5.97195923e-01, -9.37002838e-01, -5.34607351e-01, -1.26196969e+00, -1.37634963e-01, -3.91654778e+00,
    -5.51397324e-01, -6.54105186e-01,  4.92379069e-01,  1.42781472e+00,  1.44465491e-01, -1.50915849e+00, -2.56565380e+00,  1.35648191e+00,
     9.94364202e-01,  7.59046257e-01,  1.08150840e+00, -4.99191701e-01,  1.17614567e+00, -1.96162403e+00, -2.28166550e-01,  1.99644554e+00,
     8.86245608e-01,  5.50360084e-01, -1.87440968e+00, -2.21920776e+00,  8.64845097e-01,  1.22873187e+00,  5.78080304e-02,  2.58562756e+00,
    -1.96700573e-01,  6.32754087e-01,  3.87951875e+00,  1.59876847e+00,  7.87328184e-01,  3.37177217e-01, -3.45676631e-01, -1.96327344e-01,
    -1.23880827e+00, -5.51180959e-01,  1.19714603e-01,  3.80116329e-02, -2.00886324e-01,  4.10122909e-02, -2.22938943e+00, -4.97963637e-01},
   {-7.64396191e-01, -3.25317478e+00,  4.02492374e-01, -1.33044124e+00,  5.88127792e-01, -3.15728307e-01, -1.05871521e-01,  5.39054513e-01,
    -2.00052404e+00,  1.24462567e-01, -2.05054983e-01, -8.23672295e-01,  3.80523540e-02,  9.51376021e-01, -1.28270662e+00, -1.90200841e+00,
    -4.53873664e-01, -5.52072167e-01,  5.13580739e-02, -1.18467188e+00, -8.29648495e-01,  3.16566139e-01,  8.04625452e-03, -2.01374722e+00,
    -2.19193295e-01, -4.71056134e-01, -1.63586974e+00, -1.83572829e+00,  2.80757159e-01, -8.94450918e-02,  6.13842487e-01, -2.14483276e-01,
    -1.78674710e+00,  2.56425530e-01, -7.39065170e-01,  1.56690627e-01,  6.26550317e-01, -1.75043404e-01,  6.81722090e-02, -2.16301367e-01,
    -1.26029229e+00, -1.31998932e+00, -1.62308848e+00,  2.02462578e+00, -5.38847625e-01, -1.66800690e+00,  6.28790796e-01,  4.50221062e-01,
    -5.88050902e-01, -1.25428712e+00, -1.49817693e+00, -5.66897571e-01, -6.56706035e-01,  1.88654929e-01,  7.86479354e-01,  8.61322224e-01,
     5.63223302e-01, -1.06979549e+00,  7.07390845e-01, -3.29975456e-01, -1.88186496e-01,  5.41610539e-01,  8.12374473e-01,  5.28110743e-01},
   {-6.97160587e-02,  1.96894575e-02, -3.51559472e+00, -7.76072085e-01, -4.16167796e-01, -1.17141283e+00,  3.35376821e-02, -4.48305041e-01,
     6.59547329e-01,  8.16553652e-01, -9.14713383e-01, -5.79120278e-01,  2.21319294e+00, -6.65145934e-01, -1.17048514e+00,  9.43636775e-01,
    -4.36618686e-01, -8.86198804e-02, -1.34218407e+00, -4.49900657e-01, -6.92932308e-01,  1.99597981e-03, -6.80954218e-01,  1.18463254e+00,
     5.67458510e-01, -4.75563079e-01, -2.12735906e-01, -3.73550832e-01,  4.66218352e-01, -2.19766006e-01,  8.25930119e-01,  3.54535997e-01,
    -2.30252886e+00, -4.53626812e-01, -8.13776374e-01, -5.60901642e-01,  1.16223581e-01,  2.96109039e-02, -3.01422715e-01,  1.07530057e-01,
     2.31882501e+00,  1.27049112e+00,  4.08487231e-01,  2.11959743e+00,  1.38718665e-01,  7.07884014e-01,  3.73083889e-01, -8.36287141e-02,
    -1.61761093e+00,  2.26271138e-01,  1.61850107e+00, -1.31387925e+00,  1.99170148e+00, -8.26238096e-01,  6.13961160e-01, -1.18692350e+00,
     4.50148642e-01, -1.76576638e+00,  4.50343788e-01,  1.73762023e-01, -1.26430953e+00, -2.77895749e-01, -1.20731997e+00, -1.66514051e+00},
   {-5.91884553e-01, -1.22923426e-01,  8.50234687e-01, -1.94437480e+00, -1.79912829e+00, -9.63886440e-01, -9.15129662e-01, -1.37239850e+00,
    -7.73765564e-01,  5.35616994e-01,  1.32047939e+00, -1.48869956e+00, -5.72881043e-01, -1.93578631e-01,  1.60844553e+00, -6.96588755e-02,
     8.26204717e-02, -6.25734925e-01,  2.04245520e+00,  4.67702895e-02, -1.99782085e+00, -4.37254339e-01,  2.81683588e+00,  5.65567851e-01,
    -3.76947761e-01, -1.31632233e+00,  3.57935458e-01,  1.33763492e-01, -5.87066114e-01, -1.55675814e-01,  2.40167171e-01, -1.21528816e+00,
     1.56229699e+00, -6.93216085e-01,  1.92281556e+00,  1.23855881e-01,  4.99021411e-01,  1.05054951e+00,  4.83224928e-01, -2.59967476e-01,
    -1.39859605e+00,  9.70681608e-01,  4.34550762e-01, -9.98436213e-01,  1.17558897e+00, -1.51402533e-01, -1.28377771e+00,  1.19101977e+00,
     1.79006606e-01, -8.09807628e-02, -2.35843182e-01, -2.78381467e-01,  4.85232882e-02,  4.93641555e-01, -1.42220855e+00, -7.09544420e-01,
    -8.06567132e-01,  8.10479581e-01,  7.67289579e-01,  4.68721986e-01, -1.34475395e-01, -2.18877196e-01, -6.85714185e-02, -1.96978390e-01},
   { 1.56697762e+00, -3.07109714e-01,  1.40747797e+00, -4.21659976e-01, -4.23159790e+00, -2.37092435e-01, -3.06678146e-01,  1.40689683e+00,
    -1.37083304e+00, -9.48310852e-01,  2.76670051e+00, -1.11346352e+00, -1.12857115e+00, -3.26110929e-01, -9.77377057e-01, -7.78307676e-01,
     5.76301754e-01,  2.30437160e+00, -7.42328763e-01,  7.57532418e-02, -4.85227346e-01, -2.33275443e-01,  7.75827646e-01, -1.47279656e+00,
     1.60620821e+00,  4.08506900e-01, -2.37915382e-01,  8.01062465e-01,  1.71025246e-01, -2.71641791e-01, -4.84054446e-01, -2.92577100e+00,
    -4.72374946e-01, -7.27214873e-01, -6.78436399e-01,  5.33327818e-01, -4.90005374e-01,  6.53873801e-01,  2.95475751e-01, -3.85263473e-01,
     5.31556249e-01,  2.86073864e-01, -1.86296856e+00,  1.07932520e+00,  7.72870600e-01, -4.58292030e-02, -1.39520502e+00, -6.94638073e-01,
    -7.88046420e-01,  9.50557664e-02,  5.43153919e-02, -6.93432868e-01, -1.65802702e-01,  1.30659807e+00,  4.09001529e-01, -2.70344317e-01,
    -1.51596022e+00,  1.43206286e+00, -1.86780721e-01, -1.09724998e+00,  7.32375503e-01,  1.48197627e+00,  1.75846553e+00, -3.23187560e-01},
   {-6.04072869e-01, -4.23449092e-02, -6.14474654e-01,  1.00531971e+00, -2.56177783e-01, -3.64633584e+00,  9.57722068e-01, -6.13597572e-01,
    -1.92477715e+00,  5.32250583e-01, -8.00922036e-01,  2.73903441e+00, -2.26824808e+00,  7.11477250e-02,  5.46447396e-01,  2.99716294e-01,
    -5.62518895e-01, -5.77724755e-01,  5.42829633e-01,  7.86563993e-01,  7.28662431e-01, -1.54292619e+00, -3.36828344e-02, -1.50215733e+00,
     4.21915740e-01,  3.63197178e-01,  5.10190167e-02,  2.27082565e-01, -5.08653402e-01,  1.13316643e+00, -1.93515146e+00,  9.54007447e-01,
     6.22052848e-01,  4.75506783e-01,  1.42787504e+00, -5.74825823e-01, -6.61476612e-01, -5.70596457e-01, -1.05705991e-01, -1.50353476e-01,
    -2.06740522e+00, -5.57777107e-01, -1.79720974e+00,  2.55089211e+00, -3.78733456e-01,  4.62190837e-01,  1.81743935e-01,  1.50136739e-01,
    -9.12424028e-02, -1.48308897e+00, -1.57993364e+00, -7.78433442e-01, -5.85914791e-01,  8.09762418e-01, -1.10665727e+00,  4.13434386e-01,
    -2.13795376e+00,  4.97617722e-01,  9.24091160e-01,  2.61652041e-02, -4.44488287e-01, -6.89119920e-02,  7.08551586e-01, -1.17165363e+00},
   { 2.17228368e-01,  5.37023544e-01,  8.47638786e-01, -1.10031009e+00,  9.96536613e-01, -1.41291487e+00, -2.14647865e+00, -5.61792731e-01,
     9.81994987e-01, -1.41380346e+00,  6.43268898e-02, -2.43964696e+00,  8.36618304e-01,  2.95705977e-05,  1.63838303e+00, -1.78890139e-01,
     9.31946158e-01,  2.97051013e-01, -8.57701421e-01,  1.50688100e+00, -2.81218171e-01,  4.29890633e-01,  5.73925495e-01,  2.24966979e+00,
     6.35130405e-01, -3.12471777e-01, -1.08720437e-01,  1.81922412e+00,  9.68147874e-01, -3.69221002e-01,  5.96379459e-01, -3.05247784e-01,
    -6.16076142e-02,  1.79307020e+00,  9.73781347e-01,  3.56991142e-01, -1.20401666e-01, -6.88427567e-01, -1.27096689e+00, -5.25104105e-01,
    -7.54940733e-02, -8.66334856e-01,  5.09698391e-02,  7.83516169e-01, -9.17506278e-01,  7.88084090e-01,  9.78304625e-01, -1.16472220e+00,
     6.52652323e-01,  3.65493208e-01,  1.11292768e+00, -1.77105412e-01, -3.34469825e-01,  1.21872699e+00, -1.78406447e-01,  7.43052304e-01,
     6.96993649e-01,  1.67487991e+00, -1.44032097e+00, -8.34717005e-02, -4.50191289e-01, -3.25027943e-01, -1.01384461e+00,  1.91495314e-01},
   { 6.89108312e-01, -7.87819564e-01,  5.56166410e-01,  1.20350647e+00, -7.27990210e-01,  7.78413832e-01,  6.09190047e-01, -1.47676480e+00,
     7.17137575e-01,  7.47476816e-01, -1.07984507e+00,  1.63941115e-01, -1.31668998e-02, -5.13601065e-01,  7.81320214e-01,  1.11471891e+00,
    -1.44091749e+00, -5.66215873e-01, -1.29358172e+00, -1.50526147e-02,  1.97408116e+00, -1.28156388e+00,  3.95917356e-01, -2.45633543e-01,
    -5.80975592e-01, -1.07723391e+00, -4.29966271e-01,  6.39642030e-02, -6.09935880e-01, -1.43322670e+00,  7.18841612e-01,  2.53502250e+00,
     7.98455179e-01,  1.00190885e-01,  3.72457474e-01,  2.84717888e-01,  1.74888045e-01, -1.54365730e+00, -1.95273888e+00,  4.49693978e-01,
     6.72425389e-01, -8.99587452e-01, -1.20421159e+00,  3.29187125e-01, -1.28989264e-01,  9.09347594e-01,  8.25739443e-01, -8.79793465e-01,
     8.57188851e-02,  6.29559875e-01,  2.64144731e+00,  1.81652308e+00,  1.28810871e+00, -4.68528390e-01, -5.36866784e-01, -7.91449845e-01,
    -4.26696807e-01,  1.19651504e-01,  1.15735137e+00,  7.96118081e-02, -8.54061306e-01, -2.63894916e-01, -1.42265248e+00,  1.05782461e+00},
   {-7.64481902e-01,  1.27941132e+00, -1.30232751e-01,  2.28939623e-01,  7.35309303e-01,  7.68062711e-01, -6.95429146e-01, -9.46068913e-02,
    -2.48284674e+00, -3.11563581e-01,  7.28576124e-01, -7.63005435e-01, -3.24125260e-01, -4.07628357e-01, -1.64489016e-01, -6.10637441e-02,
     2.84014344e-01, -1.46559024e+00,  1.29123199e+00,  6.13482654e-01, -7.49374926e-02,  1.85136180e-02,  1.23380280e+00, -1.95363581e+00,
    -1.35577604e-01,  5.69461882e-01,  5.34633338e-01, -2.64893150e+00, -4.96121198e-01,  5.48527002e-01, -1.64213061e-01,  4.22637731e-01,
    -9.54829931e-01, -3.20016682e-01,  4.37713295e-01, -1.49898767e-01, -2.49922082e-01, -9.69322979e-01,  7.16398001e-01, -1.71242309e+00,
    -2.94497479e-02, -1.34810895e-01, -1.03285146e+00,  1.75183272e+00, -3.59495848e-01,  3.31903934e-01, -1.80929273e-01,  1.48527861e+00,
     7.25024700e-01, -2.60458767e-01, -2.09781265e+00, -7.77800143e-01, -8.65231872e-01, -1.26893848e-01,  7.38604963e-01,  9.45247710e-01,
    -1.12552226e+00,  9.84463841e-02,  1.77121472e+00,  1.31960905e+00,  1.07628226e+00, -2.71120191e-01,  2.32568696e-01, -4.25282896e-01},
   {-1.15329236e-01,  5.47127664e-01, -1.04303747e-01, -4.06171054e-01,  4.08903927e-01, -1.09716594e+00, -1.00965917e-01,  5.63289285e-01,
     8.02396059e-01, -3.07294190e-01,  5.50267577e-01, -2.17012906e+00,  6.50040805e-01,  5.33657610e-01,  1.96705043e+00,  4.25222307e-01,
     1.25531065e+00,  1.99820852e+00,  1.46681026e-01,  1.63953710e+00, -1.18347692e+00, -4.43893313e-01,  1.44541001e+00,  6.66162193e-01,
    -6.07342422e-01,  1.02840173e+00,  6.67342663e-01, -9.62722823e-02,  1.96379885e-01, -4.44718957e-01, -6.25847161e-01,  3.02015450e-02,
     8.20077300e-01, -5.86060405e-01,  4.67522711e-01, -1.51992336e-01, -4.03129533e-02,  2.28208280e+00,  5.14779985e-01, -4.78011996e-01,
    -2.53439951e+00, -1.19294643e-01,  2.76806593e-01, -5.88919520e-01,  8.08394551e-01,  2.85562268e-03,  2.61373371e-01,  2.50940013e+00,
    -3.91027868e-01,  2.73884565e-01,  1.67063403e+00, -3.20060402e-01, -8.67742598e-01,  1.77169693e+00, -1.24084151e+00, -1.11099219e+00,
    -3.51804867e-02, -9.31455661e-03,  1.44250131e+00,  7.98958421e-01,  3.23249906e-01, -2.45045996e+00, -1.84160268e+00,  1.29364562e+00},
   {-5.56776822e-01, -3.37316632e-01,  1.74264574e+00,  1.48817590e-02,  3.38699293e+00,  3.00704509e-01, -2.42264960e-02, -3.82628411e-01,
    -7.19243109e-01,  2.35726029e-01, -2.70198393e+00, -6.35424674e-01,  2.79585600e-01,  5.64833224e-01,  7.26750195e-01,  3.32810789e-01,
     1.57332689e-01,  7.94671357e-01, -1.89405680e+00, -1.05001807e+00,  3.57933879e-01, -2.04925442e+00,  1.46893993e-01,  2.51777500e-01,
    -1.74789822e+00, -1.28478542e-01,  3.69603902e-01,  1.70336992e-01,  1.03723955e+00, -8.35395381e-02, -4.71610159e-01,  2.40522727e-01,
    -7.09964216e-01, -1.37845314e+00,  2.00328946e+00, -5.64410508e-01,  5.98520756e-01, -8.73654187e-01,  1.02068925e+00,  1.48600817e-01,
     1.06197739e+00,  6.70250595e-01, -5.76592922e-01, -1.60242510e+00,  1.38973129e+00,  2.57353306e-01,  1.96743846e-01,  2.06943583e+00,
     2.92956352e-01,  1.29230845e+00,  1.96417272e+00, -6.50731623e-01,  1.73501253e-01,  9.18911219e-01,  5.88631928e-01, -1.28485763e+00,
    -3.32441211e-01, -6.38974369e-01, -1.19453575e-02,  1.05023301e+00,  2.52122469e-02, -4.90667880e-01, -8.77932906e-01, -4.18845087e-01},
   { 6.21094286e-01, -4.09088969e-01,  1.40956327e-01,  1.33701444e+00, -5.28508902e-01, -5.10533392e-01,  3.66085559e-01,  6.53354824e-01,
    -1.13486290e+00, -9.60316136e-02,  1.41496927e-01, -2.57905841e+00,  5.47794029e-02,  5.02179384e-01,  2.51274277e-02,  3.96722198e-01,
     7.68331647e-01, -3.70681323e-02,  1.33231506e-01,  1.52583763e-01, -1.47731423e+00, -4.59849656e-01, -7.81578481e-01,  1.02450001e+00,
     2.09819172e-02, -1.97408783e+00,  7.98001736e-02, -1.46599412e-01, -2.81450570e-01,  3.83063734e-01,  5.57553828e-01, -7.23557293e-01,
     2.40262890e+00, -6.25974119e-01, -2.05564022e-01,  6.05376244e-01, -1.03755069e+00,  3.36371392e-01,  8.05430472e-01, -3.17342579e-02,
    -2.95557809e+00, -1.40151411e-01, -8.28027666e-01, -1.06650317e+00, -6.36629879e-01,  1.21629763e+00, -2.60759401e+00, -8.07128727e-01,
    -4.64499444e-01,  6.51400745e-01,  4.52524930e-01,  1.65146625e+00, -2.30084157e+00,  1.14401169e-01, -1.15583968e+00, -5.63437939e-01,
    -1.11073911e+00,  5.04389107e-01, -5.36540508e-01, -1.98741138e+00, -5.02789617e-01,  1.15107432e-01, -6.49623573e-01,  3.38808924e-01},
   {-5.49147904e-01, -2.04178423e-01,  6.01457357e-01, -6.89504921e-01, -4.63021919e-02,  8.98990810e-01,  3.21161211e-01, -1.22995831e-01,
     1.14069307e+00,  3.95988971e-02,  2.48300284e-01, -1.21773219e+00, -1.93419683e+00,  9.20650601e-01, -7.46344686e-01,  5.99901199e-01,
     3.27326477e-01, -5.62306464e-01, -8.05791557e-01,  5.25702298e-01, -4.78979051e-01, -4.77209747e-01, -9.22947347e-01,  7.79663742e-01,
    -2.54961729e-01, -4.39832211e-01, -7.37596080e-02,  1.23105025e+00, -7.27401078e-01, -5.99220634e-01,  9.23922136e-02,  2.98358470e-01,
    -1.41430569e+00,  2.45578393e-01, -3.77569318e-01,  6.07173443e-01, -6.19152226e-02,  7.57494420e-02, -8.35168362e-01,  1.86271048e+00,
    -2.35154673e-01,  3.73918504e-01,  7.62956381e-01,  1.88470805e+00, -1.46288538e+00,  1.48725048e-01, -2.93025941e-01,  7.15934694e-01,
     5.76277614e-01,  2.06724262e+00,  1.58662856e+00,  1.01976633e-01, -4.60002907e-02,  5.88856578e-01, -7.25403786e-01,  2.29936138e-01,
    -2.66913962e+00, -4.60503370e-01,  6.91168830e-02,  8.42836648e-02,  3.31101269e-01,  5.35374165e-01, -9.43738639e-01, -3.06754112e-01},
   { 1.38026059e+00, -9.38283950e-02,  7.09830999e-01, -5.10824025e-01,  2.71539378e+00, -2.46949270e-01, -3.54975700e-01,  1.77567542e-01,
    -1.20774865e+00, -7.42755055e-01,  7.59365857e-02, -1.39801931e-02,  3.08452565e-02, -2.31498098e+00, -4.74996030e-01,  2.98968345e-01,
    -3.26300681e-01,  7.61578977e-02,  1.92113239e-02,  3.94543372e-02, -6.76297963e-01,  7.56906569e-01, -1.41464233e+00,  2.11032718e-01,
    -4.70480561e-01,  1.39666796e+00,  1.47214964e-01,  5.79146981e-01, -1.71240747e+00, -7.94580638e-01, -8.34774971e-01, -4.15505707e-01,
     1.68230683e-01, -7.64946282e-01, -1.36402714e+00, -1.92340910e-01, -1.56702983e+00, -1.79231071e+00,  1.00376308e+00,  2.02919769e+00,
    -1.07430732e+00,  5.06687820e-01, -1.14694202e+00, -1.58001494e+00,  5.74747145e-01,  8.86158720e-02, -1.66415107e+00, -9.11077738e-01,
    -8.33742380e-01, -7.34323919e-01,  6.55801773e-01, -1.10235405e+00, -1.10447657e+00,  7.87520707e-01,  4.92122501e-01, -9.26774442e-01,
    -8.77900243e-01,  7.36741483e-01, -5.29963017e-01, -5.17141044e-01,  5.51346123e-01, -1.71850368e-01,  2.41971448e-01, -8.59914243e-01},
   {-2.64000893e-01,  4.24114525e-01, -2.21120104e-01, -4.03892249e-01, -1.00946188e+00, -1.37134939e-01,  4.12840635e-01,  4.08287644e-01,
     1.59091902e+00, -1.37702644e-01,  1.32257417e-01,  2.04640433e-01, -2.94738078e+00, -9.30503532e-02, -2.30612445e+00,  8.85726273e-01,
     1.46134809e-01, -8.59227419e-01, -1.15039408e+00, -1.35995066e+00,  8.64470422e-01,  1.42359912e+00, -8.93124938e-02, -7.80819833e-01,
    -5.48156977e-01,  2.91098386e-01,  3.31734419e-01,  7.05659151e-01,  1.68821621e+00, -2.25698218e-01, -6.41782463e-01,  8.37825835e-01,
     1.44625747e+00, -8.09427559e-01,  2.34874010e+00, -1.00426793e-01,  1.83825985e-01, -1.16507840e+00, -3.93641442e-01,  6.94778085e-01,
    -2.00482104e-02,  1.01977742e+00, -3.36846411e-01, -1.98944792e-01, -1.02687273e-02, -4.58898157e-01,  5.10985851e-01,  6.45906448e-01,
    -5.17124593e-01, -7.98801780e-01,  5.12178123e-01,  8.65467608e-01,  1.05104160e+00, -1.04892528e+00, -1.76501069e-02,  1.00109196e+00,
     2.35002255e+00, -1.07576579e-01, -4.39234257e-01, -1.65496373e+00,  2.32141480e-01,  2.46319383e-01, -1.00228751e+00,  1.35933757e-01},
   { 3.30061972e-01,  7.63013244e-01,  2.39039287e-01, -3.00853014e-01,  8.67767215e-01, -9.65962708e-01,  2.84768909e-01, -2.96974778e-01,
     1.72507751e+00, -3.93866062e-01,  1.53814167e-01, -1.78097808e+00, -1.26582295e-01,  4.09807116e-01,  7.78650567e-02, -4.78151768e-01,
     2.04820156e+00,  7.59364247e-01, -1.03668499e+00,  9.70316827e-01, -4.30905730e-01, -6.15132868e-01,  1.37102932e-01, -1.11361325e+00,
    -1.10404789e+00,  1.82493961e+00,  1.65755951e+00, -8.01648140e-01,  7.76757956e-01, -6.25904977e-01,  8.19935143e-01, -1.98665425e-01,
     6.03383899e-01,  3.53012830e-01, -1.77661836e-01,  9.82792228e-02,  2.00389326e-01,  5.76268673e-01,  1.43487835e+00, -5.62603414e-01,
     5.72652137e-03,  4.54809189e-01, -5.84622204e-01, -5.11351585e-01,  1.03079975e+00,  8.00709248e-01, -2.59362519e-01,  2.49073458e+00,
    -3.08038685e-02,  1.30035996e+00,  1.93169141e+00,  2.91051239e-01,  4.50588524e-01, -2.84594238e-01,  1.26741421e+00, -1.43659961e+00,
    -7.67867982e-01,  1.15089524e+00,  5.56322992e-01,  6.81428611e-01, -5.03217399e-01,  8.00560534e-01,  6.17745996e-01,  5.96641153e-02},
   {-1.72521815e-01,  8.36139023e-02,  1.52198744e+00, -1.10278761e+00,  8.69990408e-01,  8.23887289e-02, -1.29437792e+00,  5.60252845e-01,
     7.77011752e-01, -7.70113409e-01,  1.79063246e-01, -2.07545653e-01, -7.07493246e-01, -1.76810634e+00, -1.69413134e-01, -7.86850154e-01,
    -3.83137655e+00, -8.62640083e-01,  1.67937231e+00, -3.35648358e-01, -1.54412460e+00,  3.63895983e-01, -1.55659688e+00,  5.63379645e-01,
     6.06891692e-01,  7.51966953e-01, -3.29171509e-01, -6.60474896e-01,  7.94775903e-01, -1.20886385e+00,  3.90216202e-01, -8.92967165e-01,
    -3.72059882e-01, -6.12248003e-01,  6.63848579e-01, -4.45391268e-01,  5.66497564e-01, -9.58490431e-01, -5.76405764e-01, -1.25294757e+00,
    -1.43527651e+00, -2.10412011e-01, -2.77286172e-01,  9.98327956e-02,  9.36632827e-02, -8.86112869e-01,  7.72087693e-01,  9.70109880e-01,
     5.53581538e-03, -1.01426125e+00,  4.40561175e-01, -5.63813031e-01, -1.66942394e+00, -9.75312531e-01, -8.39557171e-01,  2.02635789e+00,
    -1.45636058e+00,  1.67908633e+00, -1.03584397e+00, -8.43173087e-01, -3.66568744e-01, -5.24182618e-01, -1.06820750e+00, -6.59330845e-01},
   { 6.74115658e-01, -7.75348365e-01,  1.32443690e+00,  1.95553347e-01,  1.02584207e+00,  1.21626295e-01,  4.37707976e-02,  5.65880656e-01,
     2.26580828e-01, -5.43309808e-01, -4.13510650e-01,  1.40186584e+00, -2.66724527e-01,  2.59962976e-01, -1.21674049e+00, -2.47220248e-02,
     2.98951477e-01, -1.84641421e+00,  7.60842681e-01,  1.29400694e+00, -3.01343203e-01,  3.28182817e+00,  7.50621259e-02, -1.56857860e+00,
     1.73660815e-01, -2.94329990e-02,  1.17264485e+00, -6.52573824e-01, -8.98206651e-01, -2.05539420e-01,  1.04520929e+00,  8.26094747e-01,
     5.03694341e-02, -9.98890519e-01, -3.14030260e-01,  2.34197304e-02, -1.18166196e+00,  1.25339341e+00,  6.62650689e-02, -3.23436409e-02,
    -7.97065914e-01,  7.92496324e-01, -2.51364887e-01,  3.12473536e-01,  4.34935316e-02,  1.40849069e-01, -2.36850798e-01, -1.11142397e+00,
     2.94105798e-01,  1.20678568e+00, -5.06893218e-01,  1.20094955e+00,  1.28545746e-01, -9.72586751e-01, -1.46495759e+00, -5.71891010e-01,
     4.98218030e-01,  1.33956921e+00, -8.10521364e-01, -5.82244754e-01, -4.71553624e-01,  1.83420253e+00, -3.05527627e-01, -1.20375371e+00},
   { 1.55433679e+00, -2.87206590e-01, -8.17273974e-01,  1.91733277e+00, -9.48689342e-01,  8.04577649e-01,  2.67308474e-01,  1.35601056e+00,
     3.30264974e+00, -8.75590503e-01,  5.83047211e-01,  2.03487873e-01,  2.22863052e-02, -2.62933731e+00,  2.32730651e+00,  4.25437629e-01,
    -9.33371186e-02, -3.81859988e-01, -4.49283504e+00,  2.05230355e+00,  1.79642749e+00, -2.11836243e+00,  4.27210331e-02, -1.52953434e+00,
     2.79082417e+00,  1.36219299e+00,  1.19054353e+00, -3.70478964e+00,  4.92740721e-01, -1.44368911e+00,  1.79732454e+00, -5.87156773e-01,
     9.00973156e-02,  4.06590402e-01,  2.89213943e+00,  1.55157655e-01, -1.99769616e-01,  4.08540100e-01,  1.23458052e+00,  5.88206947e-01,
     8.37889850e-01,  7.54778981e-01, -1.92551875e+00,  7.12207496e-01, -6.35079980e-01,  1.90477943e+00,  1.28768206e+00,  8.73964876e-02,
    -1.83889472e+00,  3.47298622e+00,  3.24026871e+00,  1.14607215e+00,  1.69119191e+00,  3.73177588e-01,  1.43039012e+00, -6.62658155e-01,
    -1.09349802e-01, -7.75348961e-01,  4.31990057e-01, -6.97547555e-01, -1.41696560e+00, -1.64269224e-01,  7.07292333e-02, -5.56989789e-01},
   {-2.47598767e-01,  4.16004032e-01, -8.93615782e-01, -6.45916045e-01,  1.31929290e+00,  6.09247684e-01,  2.50588030e-01,  1.67776787e+00,
     3.91627192e-01, -3.33162332e+00,  1.26231432e+00, -2.90560752e-01, -1.98548651e+00,  9.36079144e-01,  2.38947496e-01, -1.13070481e-01,
    -2.82262594e-01, -2.30653310e+00,  1.58753291e-01, -2.68853784e+00,  9.43214372e-02,  2.33081087e-01,  5.73698163e-01,  1.26238137e-01,
     9.84205246e-01,  3.49059165e-01, -3.11492026e-01, -9.29665267e-01, -4.28344369e-01,  1.08788621e+00,  9.97933209e-01, -5.98748922e-01,
    -1.30559278e+00,  2.17487782e-01,  8.14313889e-01, -1.07851160e+00,  2.36062512e-01,  1.41276515e+00, -3.10163647e-01, -1.18245825e-01,
    -6.37597382e-01,  8.24895382e-01,  1.65896070e+00,  2.35058475e+00, -1.14378059e+00,  9.59961414e-01,  1.09667432e+00, -6.90897763e-01,
     3.14062774e-01, -1.23617053e-03,  1.61093307e+00,  5.48575640e-01,  1.24604475e+00,  1.49311554e+00, -1.83750010e+00, -7.18139768e-01,
    -1.84513912e-01,  2.45115566e+00, -5.63527882e-01, -2.77979088e+00,  1.39249504e+00,  2.12743664e+00,  1.15233922e+00, -3.33959371e-01},
   {-6.23582840e-01,  1.27249777e+00,  2.74715960e-01,  4.64165926e-01,  8.40797544e-01, -2.99741954e-01, -9.95963156e-01, -1.77889884e-01,
    -1.85879990e-01, -1.58699405e+00, -5.27103484e-01,  5.06628335e-01,  3.52611303e-01,  3.52459431e-01,  1.98107272e-01, -1.02919328e+00,
    -5.97332371e-04, -2.45627835e-01,  1.32570612e+00, -1.55390716e+00, -2.97223473e+00,  3.58938265e+00,  8.90358448e-01,  1.58829653e+00,
    -1.16827857e+00, -3.10192657e+00,  3.85948002e-01,  1.77892566e+00, -5.34103513e-01,  1.89159170e-01,  5.48657060e-01, -8.54002059e-01,
    -2.63158679e+00, -1.25117373e+00,  2.07351595e-01,  1.07099724e+00, -8.53953958e-02,  6.05605125e-01, -6.56539083e-01, -5.84924757e-01,
    -7.91724324e-01, -1.35376558e-01,  4.82565016e-01,  7.79018044e-01, -8.80253077e-01, -1.12548983e+00,  8.44172835e-01, -7.00812280e-01,
    -6.29888296e-01, -2.01780319e+00, -1.30003107e+00,  1.22412324e+00, -5.87662756e-01,  1.73277810e-01,  6.63985133e-01,  1.05883229e+00,
     2.78796268e+00,  2.45941353e+00,  1.17879820e+00, -2.47763813e-01,  5.00736415e-01, -5.44850647e-01, -1.30179393e+00,  4.08185482e-01},
   { 6.45527124e-01,  3.83975118e-01,  8.50299537e-01,  2.25335080e-02,  1.96600020e-01,  2.24552691e-01,  2.76275516e-01,  1.15816379e+00,
    -6.49058120e-03, -1.16961169e+00, -6.74668074e-01, -1.47232145e-01, -8.08092654e-01, -4.38854903e-01,  1.06285846e+00,  3.84859145e-01,
     8.66217375e-01, -1.35072613e+00,  1.12737310e+00,  3.95556912e-02, -9.98168230e-01, -3.35455370e+00, -5.20714112e-02, -6.57052636e-01,
     1.88674629e-01,  8.49643946e-01, -9.73830000e-02, -2.38059592e+00,  3.37259948e-01,  1.09579563e+00,  1.12427735e+00, -6.75779939e-01,
     1.60774362e+00,  4.74699587e-01, -4.14493203e-01, -1.32909134e-01,  7.11584091e-01,  1.61983669e-01,  1.02207494e+00, -1.87661365e-01,
     7.48814940e-01,  7.83803701e-01,  9.40917611e-01, -1.09822071e+00,  5.29815555e-01, -7.80253530e-01,  6.95600152e-01,  7.36387372e-01,
    -3.23612720e-01, -5.91060758e-01, -1.14259887e+00, -7.37686038e-01, -3.90375400e+00, -4.35340464e-01, -5.06408811e-01,  9.45707858e-01,
     2.37675929e+00,  1.73840821e-01, -1.43977284e+00,  1.47459144e-02,  4.31868643e-01,  1.58238262e-01,  5.98366916e-01, -1.06018353e+00},
   { 4.49634254e-01,  1.00617178e-01,  1.38316250e+00,  2.06939146e-01,  7.66317487e-01, -3.31510693e-01,  7.02611744e-01,  9.15378556e-02,
    -4.20379162e-01,  1.04879487e+00,  5.13830125e-01, -1.73732901e+00,  1.53159940e+00,  1.45076585e+00, -4.10486430e-01,  9.06118572e-01,
    -6.34000301e-01, -7.89933622e-01, -1.64656609e-01, -1.09060860e+00, -6.04453623e-01, -2.03758883e+00, -1.31142116e+00, -1.29056716e+00,
    -7.97500849e-01,  3.79979551e-01,  6.68980896e-01, -4.83182609e-01, -6.16058111e-01, -9.50873196e-01, -4.88041282e-01,  1.05907357e+00,
    -1.61734417e-01, -9.91789252e-02, -3.11815166e+00,  1.95124298e-01,  1.39326394e+00, -2.85895854e-01,  7.58194745e-01, -5.04291177e-01,
     6.45668924e-01,  6.69818342e-01, -6.69331908e-01, -1.75264585e+00, -5.86675107e-01,  7.10507989e-01,  9.97673869e-02, -5.88252366e-01,
     1.27590561e+00,  1.08449471e+00,  1.16582942e+00,  1.74201235e-01,  2.33645827e-01,  9.66192603e-01, -2.59218454e-01, -3.91534120e-01,
    -2.05852437e+00,  4.47812751e-02, -9.69013631e-01,  6.75773144e-01,  5.97217605e-02, -2.83733785e-01, -1.50749302e+00,  4.37917829e-01},
   { 1.43867001e-01,  1.05945456e+00, -4.99733925e-01, -5.48858821e-01,  1.16710997e+00,  5.15985489e-01, -1.16972053e+00,  1.71541297e+00,
     1.75164878e+00, -1.98815370e+00,  6.70254469e-01, -1.10381389e+00,  1.30459726e+00, -6.28677309e-01, -2.84118980e-01, -1.06756115e+00,
     6.03658482e-02, -1.92484438e-01, -5.63105822e-01,  1.39428329e+00, -1.07601672e-01, -8.50613356e-01, -3.31106544e-01, -1.62105215e+00,
     1.88281149e-01,  5.87810516e-01, -1.13032937e+00, -8.23507726e-01,  5.73614001e-01, -5.69418371e-01,  1.47236180e+00, -2.01902077e-01,
    -4.07829046e-01, -9.51905772e-02, -3.72459203e-01,  7.60600209e-01,  8.14898551e-01,  1.04227984e+00, -1.01203275e+00, -6.61498308e-01,
    -2.53568196e+00, -1.47733748e+00,  5.40274382e-01,  1.94391036e+00, -2.03484699e-01,  2.90220201e-01, -1.37392235e+00,  1.02631176e+00,
     6.61571681e-01,  8.28789651e-01,  8.82057071e-01,  9.87130702e-01, -4.64911491e-01,  1.05266857e+00,  3.43373477e-01,  1.67879779e-02,
     1.70737624e-01, -5.03552675e-01,  2.48784706e-01, -5.30905187e-01, -3.04901034e-01, -4.64968204e-01,  4.75417286e-01,  4.11452919e-01},
   {-8.44319403e-01, -1.64802179e-01, -1.79164302e+00,  5.26018560e-01, -4.30005121e+00, -7.52065003e-01, -6.47929668e-01, -5.60070097e-01,
     6.98683113e-02,  5.40616870e-01,  3.43058318e-01, -1.48352551e+00, -2.35896254e+00, -5.74975550e-01,  1.08366740e+00,  4.40064043e-01,
    -7.90690854e-02, -1.40645480e+00,  1.12051642e+00, -3.55994225e-01,  1.71409512e+00, -1.46280622e+00,  4.46900010e-01,  1.59552884e+00,
    -2.50023627e+00,  6.88147128e-01,  4.11035031e-01, -6.40908182e-01,  1.42913854e+00, -1.03968787e+00, -7.71539032e-01,  1.26479566e-01,
    -1.36727989e-01,  9.04267609e-01,  1.05076528e+00, -5.56622505e-01,  2.47035551e+00,  7.50647128e-01, -3.97584319e-01, -6.37267113e-01,
     3.54734927e-01,  6.89589381e-02,  1.41276181e-01, -1.82372546e+00, -5.38751900e-01, -9.02522326e-01,  3.58206123e-01, -3.27051394e-02,
    -3.63733262e-01, -6.63066566e-01,  5.67743838e-01, -9.10229802e-01, -8.95030797e-03, -2.85073519e-01,  4.85015213e-01, -2.64662951e-01,
     2.38618076e-01, -8.83153617e-01,  1.03667009e+00, -4.29073781e-01, -4.64265496e-01, -3.90573311e+00,  3.03667009e-01,  1.52050400e+00},
   { 1.15325117e+00,  1.32623780e+00, -5.84130764e-01, -1.12911105e+00,  1.54340887e+00,  5.29329956e-01,  8.47249269e-01, -1.84344006e+00,
    -7.50645936e-01, -1.05781889e+00, -2.34204248e-01,  1.33093810e+00, -8.58321428e-01, -1.17117977e+00, -3.75056893e-01, -1.79690790e+00,
    -7.37078965e-01, -2.91098714e+00,  2.30803207e-01, -1.51973569e+00, -3.81004333e-01,  4.75860447e-01, -4.04643506e-01, -1.40452802e+00,
     5.03078997e-01, -3.62796831e+00, -7.69591153e-01, -1.13300037e+00,  4.58894432e-01,  1.05274355e+00, -4.83755678e-01, -1.23193264e+00,
    -7.62899518e-02,  1.35679400e+00,  4.91780370e-01, -7.60236621e-01, -1.77541316e-01, -1.25730658e+00, -1.67781055e-01, -7.37226784e-01,
    -1.78748918e+00,  8.39633405e-01, -1.04265964e+00,  3.88289690e-01, -1.21085787e+00,  1.39659989e+00,  1.17813244e-01, -7.04339504e-01,
    -7.42799975e-03,  8.59918296e-01, -8.48907411e-01, -7.73233891e-01,  1.41102731e-01,  5.72344005e-01,  1.48562059e-01,  2.14065433e-01,
     1.24072082e-01,  1.15105283e+00, -1.26772738e+00, -1.04243243e+00,  5.10833681e-01,  1.12873733e+00,  4.53878909e-01,  1.10002406e-01},
   {-8.24257553e-01,  1.54190159e+00, -2.84625441e-01, -6.81200922e-01,  7.39607811e-02, -8.32940221e-01, -8.67737651e-01,  7.66959071e-01,
    -8.49446952e-01, -1.55234468e+00, -5.32672226e-01, -2.29025364e+00,  4.60160673e-01,  2.30822906e-01, -1.82390019e-01, -1.56330979e+00,
     1.02265131e+00, -1.27150071e+00,  2.45165896e+00, -1.51252985e+00, -6.09903693e-01,  2.28379250e+00,  6.97460949e-01,  2.32749009e+00,
     6.98317826e-01, -3.64000648e-01, -2.07070565e+00, -5.03919005e-01, -2.28075281e-01, -9.40716982e-01, -7.31198847e-01,  2.57570475e-01,
     1.81873262e-01, -6.22178674e-01, -3.57012689e-01, -9.67684537e-02,  8.79336596e-01, -3.29018801e-01, -9.47772339e-02,  1.85574257e+00,
    -5.06225049e-01,  2.72508021e-02, -3.01263571e-01, -3.88419658e-01, -5.91750145e-01,  5.85618198e-01,  4.57719028e-01, -1.28223836e+00,
     3.80975544e-01, -6.93816364e-01, -5.72400510e-01,  5.95934354e-02,  9.54071701e-01,  5.58794200e-01, -9.31864381e-02,  4.51875091e-01,
     7.82996356e-01,  2.02081466e+00, -9.45380926e-01,  1.14795655e-01,  2.17875525e-01, -3.36876243e-01, -1.19786072e+00, -5.60620785e-01},
   { 1.02362350e-01,  2.45793179e-01, -2.63500273e-01,  5.91843188e-01, -1.30497205e+00, -4.64172900e-01, -1.16294277e+00,  1.53417557e-01,
     9.78479922e-01, -8.83830488e-01,  1.98242515e-01,  5.21200776e-01,  8.08219433e-01, -5.48561573e-01, -1.59821141e+00,  6.17350280e-01,
     6.22648932e-02,  9.75916028e-01,  3.59034568e-01, -9.38524127e-01, -6.50245965e-01,  2.33860111e+00, -9.42226052e-01,  1.13587081e+00,
     2.57505149e-01, -5.58078706e-01,  1.54351735e+00, -2.22220540e+00,  1.63002878e-01, -4.99259561e-01, -3.54172677e-01, -1.77063251e+00,
    -1.17665529e+00, -1.79097533e+00, -3.68377507e-01, -1.62393615e-01,  1.49899438e-01,  1.07428110e+00,  4.60783951e-02,  2.62219965e-01,
    -9.88225996e-01,  7.28151679e-01,  2.13394672e-01,  1.57485473e+00, -9.04245794e-01, -4.89651740e-01, -8.53768408e-01, -1.57643723e+00,
     3.55436385e-01,  1.80937183e+00,  4.17022169e-01,  5.99189222e-01,  8.02155510e-02,  5.55414140e-01, -1.30932355e+00, -4.87375297e-02,
    -1.35681844e+00,  7.12269247e-01, -8.98863852e-01, -2.25951242e+00,  8.70013893e-01,  7.24109232e-01, -1.53855276e+00, -1.44540668e+00},
   { 8.68240476e-01,  1.25964022e+00,  3.18309993e-01,  5.16062140e-01, -1.44900811e+00,  6.34627044e-01, -1.67035794e+00,  4.58500028e-01,
    -8.29987645e-01, -2.55955386e+00,  1.14587712e+00, -9.49879646e-01,  1.31153786e+00,  6.09795034e-01,  8.03155482e-01, -6.10092759e-01,
    -1.50986743e+00, -4.12515104e-02, -1.37390375e+00,  3.33886176e-01, -2.39547700e-01, -4.89046305e-01,  1.28494596e+00, -9.67618704e-01,
     9.55534577e-01, -1.29111850e+00,  2.91548109e+00, -3.68276715e-01, -1.73258519e+00,  9.64908898e-01,  4.48890477e-01, -2.07229495e+00,
     6.04262173e-01, -8.94407272e-01,  5.70126593e-01,  1.95079684e+00, -1.74490774e+00,  1.57340229e+00,  7.21327007e-01, -1.68332052e+00,
     1.77384806e+00,  9.08503830e-01, -2.77869105e-01, -1.89281791e-01, -3.04623276e-01,  3.31033885e-01,  1.06218159e+00,  1.59274089e+00,
    -3.50307673e-01,  9.74811673e-01, -2.57332420e+00,  3.64827728e+00, -3.38313127e+00,  6.88094735e-01, -1.52731919e+00, -1.85819650e+00,
    -7.73627400e-01, -8.81602526e-01,  6.01853907e-01, -1.92910218e+00,  1.36377299e+00,  1.21048486e+00, -8.56828839e-02,  5.67327201e-01},
   { 1.62625992e+00,  3.29147428e-01, -7.72158325e-01, -1.70710111e+00, -1.64699125e+00,  7.44643390e-01, -2.70665854e-01, -4.00336444e-01,
    -6.58702075e-01, -3.08250904e+00, -1.25276530e-02, -3.07944387e-01, -8.86067986e-01, -2.42231682e-01, -9.64103162e-01, -8.21344137e-01,
     1.37500155e+00, -1.97293890e+00, -1.21685302e+00, -2.14071608e+00,  5.94666779e-01,  4.38048661e-01,  2.38493419e+00,  3.54389161e-01,
    -5.65172672e-01,  8.68660390e-01,  1.22727919e+00, -1.33327246e+00,  9.85751271e-01, -1.51424813e+00,  1.44907832e+00,  6.71819076e-02,
    -9.97102499e-01,  2.90185392e-01,  1.55415332e+00,  3.00531602e+00, -1.41545057e+00, -4.71512109e-01,  6.62443280e-01, -1.72736675e-01,
    -8.34296525e-01,  4.25148344e+00,  1.91811192e+00,  6.87321961e-01, -1.38270867e+00, -5.59476852e-01, -5.17750502e-01, -9.11994040e-01,
    -1.48814946e-01,  1.27606034e+00, -2.39821434e-01, -1.80804804e-01, -8.94794405e-01,  6.79072499e-01, -7.28026390e-01, -1.43627024e+00,
     6.42391965e-02,  6.10311270e-01, -1.33156359e-01, -2.20205164e+00,  6.93766713e-01, -1.21413946e+00,  1.85506016e-01,  1.28231823e+00},
   {-3.18516940e-01,  1.57004905e+00, -9.69816983e-01, -5.86342454e-01, -1.57087600e+00,  1.05389380e+00, -1.71343490e-01,  5.55452526e-01,
    -2.16469002e+00,  1.81910670e+00, -2.27826640e-01,  5.86968362e-01, -9.04182494e-01, -1.92568779e-01, -7.62322307e-01,  1.08460963e+00,
    -1.24972141e+00,  1.37256014e+00,  9.09414962e-02, -9.77271348e-02,  4.84206945e-01,  1.53018737e+00,  1.49005032e+00, -1.68217182e+00,
    -2.87478507e-01, -7.18972683e-01, -7.81658068e-02,  1.16507709e+00,  8.43668640e-01,  2.63660240e+00, -2.39501929e+00,  1.65091026e+00,
    -4.95001704e-01, -8.52417231e-01,  2.08482623e-01,  1.58563244e+00,  4.02867287e-01, -1.91180229e-01, -1.63126981e+00, -9.08433199e-01,
     3.40238988e-01,  1.17398393e+00,  6.68974519e-01,  2.52207661e+00, -2.05014014e+00, -1.30748793e-01,  1.33361030e+00,  2.52914518e-01,
     8.73988494e-02,  1.84643060e-01,  2.08910203e+00,  1.03638613e+00, -8.82542133e-01, -8.38095605e-01,  1.07574351e-01, -8.25053036e-01,
     2.90522552e+00,  1.16336954e+00, -1.29134035e+00, -1.70331180e+00, -6.56892061e-01,  1.03476882e+00, -1.16319513e+00, -9.48754907e-01},
   { 1.11629749e-02, -5.67312241e-01,  2.50252575e-01,  5.15922725e-01, -6.11380816e-01, -7.09060371e-01,  5.50611556e-01, -1.48531365e+00,
     1.00060689e+00,  2.26857141e-02,  5.38748026e-01, -6.74644113e-01,  8.32121193e-01,  5.43634236e-01,  8.29901993e-01,  4.28911477e-01,
    -3.49586725e-01,  4.76829857e-01,  2.73612022e-01, -4.60285842e-01,  6.03582859e-01,  2.14315748e+00,  1.33603644e+00,  8.25234711e-01,
     7.30644524e-01, -1.32667780e+00,  7.47406185e-01,  1.81791806e+00, -1.29462615e-01,  4.78757799e-01, -5.14700055e-01, -2.17067122e+00,
    -1.91911471e+00,  1.99329942e-01,  8.78488660e-01,  6.13046169e-01, -7.32558072e-01, -7.71915317e-02,  1.01953816e+00,  1.25449204e+00,
     8.19644570e-01,  6.68985188e-01,  1.11676478e+00, -1.22321308e+00, -8.17475677e-01, -5.82953915e-03, -1.12391520e+00, -8.92374694e-01,
     2.57540867e-02,  1.85188502e-01, -4.18267131e-01,  1.27084899e+00,  7.84741044e-01,  4.43713069e-01, -2.96583652e-01, -1.36278129e+00,
     1.03105581e+00,  1.43213725e+00,  6.03405118e-01,  9.40294638e-02,  1.51584506e+00,  3.19960892e-01, -9.56821203e-01,  1.41033933e-01},
   { 9.27100182e-02, -5.66993713e-01,  5.92070580e-01, -2.81546831e-01, -4.40920115e-01, -4.73631695e-02,  2.18518898e-01,  9.12854016e-01,
     1.13768399e+00, -1.24053752e+00,  5.20127565e-02,  1.79585293e-01, -2.77248311e+00, -2.46846050e-01, -4.23437864e-01, -1.67710885e-01,
    -8.31009924e-01, -1.21404752e-01,  2.96978891e-01,  6.53214514e-01,  4.16188598e-01, -1.23120618e+00, -1.61021507e+00,  5.18724680e-01,
     7.40666926e-01,  3.09420824e-01, -1.95499584e-01,  2.97891237e-02, -7.02342033e-01, -7.33933270e-01, -1.57772660e-01,  7.08164752e-01,
    -1.29092538e+00, -2.60202199e-01,  1.49354911e+00,  4.19078797e-01, -4.96690810e-01, -4.91748482e-01, -5.23466468e-02,  2.08023369e-01,
    -1.66415125e-02,  1.46584940e+00, -1.56979054e-01, -1.53651750e+00,  4.89292234e-01, -6.87696099e-01, -7.88142562e-01,  1.52140945e-01,
    -2.33970150e-01, -1.45038092e+00,  8.61675918e-01,  1.11394942e+00,  3.66870821e-01, -3.27108413e-01, -1.91015348e-01, -2.93777019e-01,
     2.54771662e+00,  4.20312047e-01, -2.08836287e-01, -6.87189639e-01, -2.54682064e-01,  4.08808023e-01, -6.29129231e-01, -6.42654657e-01},
   {-2.34788939e-01, -6.91356659e-01,  5.79838097e-01, -2.16041350e+00, -8.00236166e-01,  2.52973348e-01,  5.50212681e-01, -6.50617301e-01,
    -6.24156296e-01, -1.19856906e+00, -2.25207829e+00,  1.35767233e+00,  2.22699419e-02, -7.41001546e-01, -1.19219825e-01, -1.10522664e+00,
    -7.60862231e-01, -1.28324699e+00, -2.19229579e+00,  7.18323350e-01, -6.63126349e-01, -1.96052563e+00, -1.13768712e-01,  1.27002156e+00,
    -7.05665529e-01, -1.23855901e+00, -1.04269660e+00,  9.11715329e-01,  6.77831113e-01,  4.68391150e-01,  1.44354427e+00, -1.33860528e+00,
    -2.79420197e-01, -2.59884071e+00, -8.55699420e-01,  4.79472309e-01,  1.12636015e-01, -8.20269287e-01, -9.16022658e-01,  4.89420414e-01,
     2.80248821e-01, -1.35180354e-01,  4.58084375e-01, -1.72995552e-01, -9.24339056e-01,  1.27094649e-02,  1.61401093e-01, -2.54167867e+00,
     9.46284592e-01,  7.06078827e-01,  7.66135335e-01,  5.37194252e-01, -3.17195028e-01, -9.84268904e-01, -2.01657295e-01,  1.18312979e+00,
     9.31611419e-01,  1.82288513e-02, -2.05517578e+00, -4.11709929e+00, -2.08408713e+00,  1.11667323e+00, -1.38252735e+00, -1.02135086e+00},
   {-5.54175138e-01,  1.28722370e-01,  4.26502496e-01,  1.52593832e-02, -1.54846925e-02, -1.15364037e-01,  1.18462980e+00,  3.12514007e-01,
    -3.27697486e-01, -8.05800617e-01, -6.25630915e-01,  2.34517641e-02,  3.87452543e-01,  1.05804777e+00, -2.85792351e-01, -9.67587382e-02,
    -1.02647817e+00,  3.71326655e-01, -7.21361697e-01,  3.64590973e-01,  1.27594069e-01,  1.62595224e+00, -3.74970585e-02,  8.69921863e-01,
     1.26900792e+00, -6.86936378e-01,  3.00787091e-01,  2.42960274e-01,  1.66237080e+00,  6.44516826e-01,  7.46959448e-01,  4.42268461e-01,
     7.03970015e-01, -5.01390755e-01, -5.51632583e-01,  3.43161613e-01, -5.40963888e-01,  2.29739141e+00,  3.40302080e-01,  1.71942070e-01,
     8.12314332e-01, -9.47941616e-02, -8.13090086e-01,  6.87256217e-01, -2.82634318e-01,  1.79369226e-02, -8.37977707e-01,  4.85318214e-01,
     5.56703925e-01,  1.21381991e-01, -2.48665780e-01,  8.25047433e-01, -4.70198721e-01, -6.61980569e-01,  1.26404956e-01, -2.30323538e-01,
     1.62551010e+00,  4.50562060e-01, -6.46448433e-01, -7.80259073e-02,  5.49852729e-01, -1.23660505e+00,  4.37348604e-01, -4.34601828e-02},
   { 4.52918947e-01,  1.19123030e+00, -1.95510066e+00,  1.50239277e+00,  6.42392576e-01,  1.46686375e+00,  3.88864100e-01,  4.67035115e-01,
     6.83593750e-01, -2.08166391e-01,  1.38010108e+00, -8.29360008e-01,  4.71110970e-01,  1.10972404e+00, -2.16018543e-01,  1.53607175e-01,
     6.45279109e-01, -2.15672832e-02, -9.48475063e-01,  9.22496617e-02, -6.37426496e-01, -7.73114800e-01,  9.53109086e-01, -4.75590736e-01,
    -1.67293355e-01, -2.35143408e-01,  6.44432962e-01,  9.71012771e-01,  9.75301981e-01,  1.90396551e-02, -9.23742950e-01,  8.31695497e-01,
     1.14926469e+00, -2.45606713e-02,  8.14631760e-01,  3.67803425e-01, -9.42120075e-01, -7.63145685e-02,  6.00456774e-01, -4.74370718e-01,
    -1.41727006e+00,  6.73779368e-01, -2.64837444e-01,  2.38147691e-01, -3.70387226e-01,  1.03357702e-01,  2.58274287e-01,  2.60364205e-01,
     1.43809915e+00,  1.01212215e+00, -2.39506274e-01, -6.32373542e-02, -1.73697412e+00, -9.56092775e-02, -1.97009861e-01, -3.61871064e-01,
    -2.21974730e+00,  5.24711490e-01, -7.04271615e-01,  1.99753512e-02, -2.87667941e-02, -6.33248091e-01, -6.48696899e-01,  4.97595489e-01},
   { 1.31612241e+00,  4.34606820e-02,  5.17940402e-01, -2.49409750e-01,  8.22636604e-01,  2.01222062e-01,  1.05986083e+00,  1.45372593e+00,
    -3.50143403e-01, -6.12415731e-01, -7.29234517e-01,  1.98218298e+00,  1.01312900e+00,  6.44666374e-01,  6.75359011e-01, -1.06145608e+00,
    -5.58376074e-01,  9.81527492e-02, -4.83536422e-01, -1.24618150e-01, -3.44536185e-01,  2.46745795e-01,  3.16100568e-01, -1.21464920e+00,
     1.39508754e-01,  1.68523505e-01, -1.68933964e+00, -2.27445483e+00, -1.39619279e+00,  6.36044204e-01,  1.46055770e+00, -6.25161171e-01,
     2.89130509e-01,  3.84084642e-01,  9.77704704e-01, -7.44095266e-01, -4.37573767e+00,  9.18125153e-01, -2.54984403e+00, -3.09476405e-01,
    -2.06294942e+00,  3.63939852e-01, -8.66103113e-01,  1.30718994e+00, -4.25557703e-01, -2.70071536e-01, -1.22774327e+00, -7.37353206e-01,
    -1.66793633e+00,  1.19204104e-01,  3.20069599e+00,  1.92913043e+00,  1.55459332e+00, -6.79698586e-02, -1.17487156e+00,  4.87858951e-01,
     8.79551828e-01, -3.13928932e-01, -1.63475049e+00, -1.34574997e+00, -5.41389167e-01,  9.42869365e-01, -3.68254870e-01,  8.00746024e-01},
   { 1.56298220e-01, -4.91828024e-02, -5.99323153e-01, -6.86953187e-01, -1.75377381e+00,  2.97196507e-01,  2.05997795e-01, -4.08697248e-01,
     8.93547535e-01,  1.17246306e+00,  5.61800972e-02, -5.28295338e-01, -5.37037134e-01,  9.34756458e-01, -2.23014742e-01,  1.31348705e+00,
    -1.10943913e+00,  1.70796722e-01, -1.56289279e+00,  7.04242110e-01,  1.15762532e+00, -1.40326869e+00, -5.86179972e-01, -1.05760187e-01,
    -5.66278696e-02, -8.03168416e-01, -4.99787182e-02,  1.08154368e+00,  1.11861992e+00,  1.06090379e+00,  2.65905291e-01,  1.91097721e-01,
    -6.02399290e-01,  8.38593170e-02,  4.57873493e-01,  5.90735734e-01, -9.13121462e-01, -3.07982898e+00, -1.38243639e+00,  2.45196152e+00,
    -2.20299661e-01,  4.78882790e-01,  2.62698221e+00,  1.20595589e-01, -4.23334062e-01,  1.22088528e+00, -1.07553887e+00,  1.08320320e+00,
     8.38423908e-01,  4.36621197e-02, -3.24074805e-01,  1.28600717e+00, -5.18891633e-01,  2.82181072e+00, -6.02513492e-01, -1.05279112e+00,
    -1.00019358e-01, -8.99484992e-01, -7.98115075e-01, -6.67848170e-01,  1.73394471e-01,  1.59344900e+00,  1.37692630e+00, -1.24382079e+00},
   {-7.98944831e-01, -1.85599536e-01, -1.23788841e-01, -5.78330010e-02,  2.38705587e+00,  3.38301152e-01, -1.82611442e+00,  7.42963329e-02,
    -1.03311360e+00,  1.89730912e-01,  2.15499192e-01, -4.82936829e-01,  4.09081578e-01,  1.88182756e-01,  1.37503877e-01, -2.25059986e+00,
    -2.83717364e-02,  2.36722994e+00,  3.35922360e+00,  2.02963829e+00, -3.46506655e-01,  2.74630398e-01, -1.93943441e-01,  1.71231198e+00,
     1.21293151e+00, -1.59010792e+00,  1.54345083e+00,  5.55159211e-01, -1.74251318e-01,  2.42867827e-01,  2.61671096e-01, -1.87633955e+00,
     1.14399648e+00, -2.31749463e+00,  2.67353237e-01,  6.99026465e-01, -1.18905878e+00,  2.72625059e-01, -1.33857834e+00, -7.59661376e-01,
    -1.68747044e+00,  1.44084394e-01,  1.93367267e+00, -1.00128007e+00, -1.02576661e+00, -8.17206781e-03,  3.20738554e-01, -2.28550887e+00,
    -2.88888574e-01, -8.50781441e-01, -3.70081401e+00, -1.61626565e+00, -6.17708266e-01,  7.63892889e-01,  1.88491151e-01, -1.10672688e+00,
    -1.04368317e+00, -5.14284611e-01, -4.94494528e-01,  1.28333080e+00, -4.71670836e-01,  6.25430822e-01, -1.01897931e+00,  1.18856966e+00},
   { 1.46868944e+00, -5.39930165e-01,  1.41211319e+00, -7.09750414e-01, -4.46362048e-01, -2.64335036e-01, -8.57910275e-01,  1.94632041e+00,
     1.25403380e+00, -1.67310345e+00,  3.32494760e+00, -1.66705728e-01,  5.05609810e-01,  2.50161320e-01, -5.16615033e-01,  3.19826573e-01,
     4.56887066e-01,  8.89173388e-01, -2.10638031e-01,  1.97168782e-01, -3.00424937e-02,  7.26572454e-01,  2.08980516e-01,  3.15751374e-01,
     3.17259461e-01, -1.13224946e-02,  4.43137050e-01, -1.96164280e-01, -3.77789527e-01,  1.54730749e+00,  1.81767479e-01, -2.52476645e+00,
    -8.57229054e-01, -1.52586234e+00,  1.76376868e-02,  1.68743789e+00, -2.01471433e-01,  1.44379306e+00, -4.01308447e-01, -3.81645775e+00,
    -1.84745276e+00,  2.31074288e-01,  1.91983712e+00, -6.10524058e-01, -9.71575081e-01, -6.24937177e-01, -7.34157205e-01, -8.58119965e-01,
    -7.00896740e-01,  2.24052280e-01,  1.60805964e+00, -1.36031508e-01, -2.62857676e-01,  1.78274763e+00, -1.47841287e+00, -2.31062278e-01,
     1.35993731e+00,  1.01920569e+00, -1.05559409e+00, -1.46752405e+00,  1.91714868e-01,  1.47507203e+00,  2.72035193e+00,  2.94769108e-01},
   {-5.10683715e-01,  8.52105394e-02, -5.90625763e-01,  7.41210356e-02, -6.09534800e-01,  8.38790953e-01, -9.28316414e-01, -4.48814005e-01,
     2.99618554e+00,  7.79598117e-01, -5.46419740e-01,  5.84033787e-01,  1.44488072e+00, -9.62662995e-02,  6.72452211e-01, -1.46868438e-01,
    -6.49592638e-01, -5.45898557e-01, -4.50976551e-01, -1.92615330e+00,  1.63365602e+00,  2.66151190e+00,  4.89598274e-01, -7.35024989e-01,
    -5.75484872e-01, -4.24433738e-01,  5.28540611e-01, -7.12937564e-02,  2.02956676e+00, -5.08141965e-02, -1.52411687e+00,  7.76827097e-01,
    -2.29436612e+00, -1.34110200e+00, -7.57278800e-02, -2.56632358e-01, -1.29837000e+00,  1.59343868e-01,  9.42473471e-01,  4.26321954e-01,
    -2.16761446e+00, -8.99171159e-02, -6.08345151e-01, -2.22254246e-01, -6.58484757e-01, -8.26704875e-02,  6.88157558e-01,  2.46277273e-01,
     1.12936461e+00,  1.95177853e-01,  5.19323468e-01,  1.17582738e+00,  9.86641824e-01, -2.29702878e+00,  1.33168662e+00, -4.78743732e-01,
     1.90439570e+00,  5.78299105e-01,  1.15653360e+00,  5.71146309e-01,  9.78809536e-01, -1.49606431e+00, -1.20833755e+00,  3.42804641e-02},
   { 2.67744571e-01,  1.53345346e-01, -3.29854041e-01, -1.71726322e+00,  3.17781083e-02,  3.65728885e-01, -3.19075942e-01,  1.73765063e+00,
     4.26284194e-01, -3.84065127e+00,  5.82659841e-01, -2.37846017e+00,  1.52766192e+00, -3.64374429e-01,  1.23649049e+00, -1.56950974e+00,
     2.64529556e-01, -4.54243273e-01, -1.36993933e+00,  1.25613362e-01, -1.25657618e+00,  3.57437462e-01,  4.94833559e-01,  2.74114043e-01,
     6.97334945e-01,  6.78141952e-01,  9.59363997e-01,  4.60206628e-01,  1.35272598e+00,  7.23755240e-01, -5.74006677e-01, -1.23745382e+00,
     2.51004696e-01, -3.86440843e-01,  1.66786563e+00,  2.21252322e+00, -6.40532076e-01, -7.51026273e-01, -1.53307045e+00, -2.05204868e+00,
     4.67231572e-01,  1.96986699e+00,  1.65359402e+00,  5.42675972e-01, -8.69288266e-01, -6.70374215e-01, -8.17231089e-02,  5.80763459e-01,
    -8.63671303e-01,  2.97213286e-01, -1.78203523e+00,  1.39005065e-01, -8.49083900e-01,  9.27573323e-01, -6.11146629e-01, -4.90415961e-01,
    -3.03786904e-01,  6.75138593e-01,  6.05071962e-01, -2.17855287e+00, -3.00423235e-01, -7.64736712e-01,  5.97966552e-01,  9.21986699e-01},
   { 3.72505546e-01,  2.54957938e+00, -1.02033064e-01, -1.82193482e+00,  9.92552862e-02,  2.18407393e-01, -4.70462233e-01,  3.82220410e-02,
     2.15225244e+00, -1.71862766e-01,  1.43094146e+00, -1.27313781e+00,  9.02248025e-02,  2.68726885e-01, -7.92074800e-01,  1.79763481e-01,
     7.63576150e-01,  9.48029041e-01,  2.22364515e-02,  1.57030746e-01, -4.39429671e-01,  7.28748202e-01, -1.40775120e+00,  6.28237724e-02,
    -8.09192002e-01, -1.53424859e-01, -3.40399921e-01, -1.69380772e+00,  1.09376895e+00, -3.70289497e-02, -3.82527933e-02, -1.58303034e+00,
    -1.06846344e+00, -8.96235704e-01, -5.29280543e-01, -1.93959832e+00, -6.04452044e-02,  1.28772473e+00, -6.50610268e-01, -1.32587218e+00,
     4.26257730e-01, -3.78765911e-01, -3.69044518e+00,  3.81732798e+00, -8.68505001e-01,  1.71440884e-01,  1.59849629e-01,  1.00423956e+00,
     7.08151639e-01,  5.60185552e-01, -5.30114770e-02,  1.10943723e+00, -1.99690235e+00,  8.32017183e-01,  5.27577877e-01, -2.56227292e-02,
     7.15343416e-01, -4.76499230e-01,  4.00965273e-01,  3.46133821e-02,  4.52697933e-01, -6.92169592e-02, -3.36581737e-01,  3.68020922e-01},
   {-5.31723201e-01,  5.04238427e-01,  2.26844415e-01,  3.95377398e-01,  6.10422909e-01, -9.39635217e-01, -9.17388558e-01,  1.34864879e+00,
     1.36656058e+00, -1.80919242e+00, -4.34275061e-01,  5.29653192e-01,  1.33175468e+00, -5.36627531e-01, -4.91405636e-01, -3.06572437e-01,
     2.21635506e-01,  2.06894442e-01, -2.21207216e-01,  1.85794234e+00, -1.04396725e+00,  8.13949704e-02, -2.17298105e-01,  6.61884964e-01,
    -1.24393150e-01, -5.40285945e-01,  8.88259411e-01, -1.27751064e+00,  9.44430530e-01,  1.88269109e-01, -6.14454746e-01, -9.00232375e-01,
     1.12108612e+00, -7.89839864e-01,  2.80797303e-01, -3.56287509e-01, -9.79000330e-01,  5.12703359e-01, -1.41469526e+00,  4.29757088e-01,
    -8.84055853e-01,  2.14060140e+00,  9.68201399e-01, -3.43471766e+00, -1.07614529e+00, -3.59054893e-01, -1.79463553e+00, -1.81492884e-02,
     2.22165406e-01,  2.03440452e+00, -1.62043726e+00,  1.04673982e+00, -1.14786696e+00,  3.81610245e-01, -4.49775726e-01,  2.52649099e-01,
     3.94082278e-01,  1.31197464e+00, -1.03331554e+00, -9.56673801e-01,  6.11957490e-01, -1.45859504e-03, -5.45580208e-01, -9.66112435e-01},
   { 3.47275317e-01, -1.04181416e-01,  1.21380948e-01,  4.20705587e-01, -1.91580147e-01, -1.54453143e-01,  8.88162613e-01, -1.34593710e-01,
     1.25765234e-01, -8.53390872e-01, -2.16065243e-01,  1.88716793e+00,  5.54053903e-01, -1.01959682e+00, -1.87825784e-01,  3.36156875e-01,
    -2.91626692e-01,  2.46889129e-01, -1.39277542e+00,  8.34573627e-01, -3.33874613e-01, -2.70794541e-01, -6.72155440e-01,  1.65970099e+00,
     5.24451077e-01,  8.35489571e-01, -3.73062164e-01, -5.19452244e-02,  9.31592762e-01, -2.06535912e+00, -1.07280397e+00, -1.37121725e+00,
    -1.23777187e+00,  1.59693217e+00, -3.41917157e-01, -9.68516290e-01, -1.86836928e-01,  1.32549429e+00, -5.89787483e-01,  2.41817415e-01,
     1.16468275e+00,  1.28942162e-01, -4.64151084e-01,  6.82986736e-01, -2.74948812e+00, -4.73209918e-01, -3.73504341e-01, -3.22147250e-01,
    -4.97548003e-03,  1.49930036e+00,  1.61691201e+00,  1.31914604e+00,  6.81949198e-01,  1.22958064e-01,  1.19763218e-01,  8.23517144e-02,
    -1.73414934e+00, -6.06983840e-01,  6.65783346e-01, -2.45921803e+00,  5.37948489e-01, -4.03427601e-01,  5.30433133e-02,  6.77644014e-01},
   { 2.37466335e-01,  1.70748615e+00, -1.65479386e+00, -9.61784899e-01, -1.93622756e+00,  1.76722169e-01, -1.08853698e-01, -2.84291804e-01,
    -1.33706701e+00, -5.98785162e-01, -1.41880512e-01,  2.18289599e-01,  5.43929935e-01, -1.10862839e+00, -1.87070668e-01, -6.21992528e-01,
     5.08659601e-01, -9.61130202e-01, -1.25668898e-01, -8.72222126e-01, -3.81445616e-01,  1.60008621e+00,  1.20602989e+00, -2.13731289e+00,
     9.75196183e-01, -1.87146991e-01, -7.07268491e-02,  3.45546365e-01,  1.32241488e+00,  1.08703947e+00,  3.70071046e-02, -5.66819727e-01,
    -1.87349653e+00,  1.34209424e-01,  3.78894597e-01, -6.03987277e-01,  7.11721182e-01, -1.60306227e+00, -1.73221004e+00,  4.22598541e-01,
     4.16417629e-01, -2.24332251e-02, -2.56581485e-01,  4.02248192e+00, -2.00677299e+00, -4.10490847e+00,  1.67289078e+00, -3.01988482e-01,
     1.27562553e-01,  5.84705949e-01,  1.47374249e+00,  2.19494566e-01,  6.13267779e-01, -1.90104985e+00, -5.08460581e-01, -1.20377041e-01,
     1.31370258e+00,  1.13818634e+00, -5.82798481e-01,  5.45985103e-01, -1.81052697e+00, -2.70416999e+00, -1.56258488e+00, -2.88077974e+00},
   { 5.37038624e-01,  6.52013540e-01, -9.75057483e-02, -2.99243003e-01,  2.94324338e-01,  6.61341846e-01, -4.83585566e-01,  1.96635389e+00,
    -8.16611290e-01,  1.07499099e+00, -1.59421706e+00,  1.59262323e+00,  9.72821712e-01,  1.07756078e+00, -8.74228477e-02,  2.64666658e-02,
     5.55132441e-02,  7.07591295e-01,  1.16650820e+00, -1.08498096e+00, -2.29408234e-01,  3.31709886e+00, -1.71839029e-01, -6.93203986e-01,
    -1.35931420e+00, -2.84942389e-01, -1.70777246e-01,  4.88173485e-01, -3.05905908e-01, -4.21369672e-01, -1.03704202e+00,  1.60330033e+00,
    -1.97365060e-01, -7.19845533e-01, -2.57030964e-01, -2.52513230e-01,  5.61745204e-02, -1.83888304e+00, -1.39790380e+00,  4.16719019e-02,
    -1.69727349e+00, -4.99424368e-01, -1.75046623e+00,  3.81036782e+00, -1.40090895e+00,  8.64988506e-01, -3.44956493e+00, -2.05807543e+00,
    -5.06393790e-01, -1.16558170e+00,  1.30493593e+00,  1.17080891e+00,  1.59621179e+00, -1.68389606e+00, -1.62632674e-01,  2.70493954e-01,
     4.49251771e-01,  4.60138679e-01, -5.68463326e-01,  2.67098367e-01, -3.64249945e-01,  2.42980385e+00, -6.95874810e-01,  8.47348213e-01},
   { 6.60246372e-01,  9.86816466e-01,  1.92381191e+00, -3.27084750e-01,  1.50497985e+00, -3.77360620e-02,  1.51941454e+00, -6.24305308e-01,
     5.50938904e-01, -1.05294657e+00, -1.01621449e+00, -1.99033570e+00, -9.70514655e-01,  1.24355763e-01,  1.08252990e+00, -1.65634727e+00,
     9.40314829e-01, -1.65729487e+00,  6.13440931e-01,  5.67397237e-01, -3.74318242e-01, -2.77475595e-01,  1.78231493e-01, -1.11587834e+00,
     1.16522737e-01, -6.15807712e-01, -6.71610653e-01, -1.99308050e+00, -3.57347101e-01,  8.08306277e-01,  6.24511540e-01,  4.72090125e-01,
     3.28552961e-01,  1.46022749e+00,  1.45130849e+00,  6.09501779e-01, -7.87215889e-01, -4.45449859e-01,  2.89078772e-01, -1.17729247e+00,
    -2.96115232e+00,  6.71525121e-01,  8.33960325e-02, -1.25203383e+00,  1.72066677e+00,  6.70850217e-01, -7.49086559e-01, -3.32948017e+00,
    -3.88963781e-02, -4.11596090e-01, -2.06749058e+00, -7.46706367e-01, -1.60176682e+00,  6.06777728e-01, -1.75728709e-01,  1.29283714e+00,
    -5.96455820e-02,  9.15347457e-01, -1.25018477e-01, -4.13950443e-01,  1.32573485e+00, -9.47669297e-02, -3.93449008e-01, -9.11524713e-01},
   {-1.23227918e+00, -6.35369182e-01, -3.26598704e-01, -5.15470281e-02,  2.67716098e+00,  1.67624271e+00, -1.38808990e+00, -8.35713446e-01,
    -5.50174639e-02,  1.35431290e-02, -1.83927447e-01,  1.81920564e+00,  1.41124308e-01,  5.93228221e-01, -7.99865663e-01, -8.32435846e-01,
    -3.65038931e-01,  3.35598797e-01, -1.18372560e+00,  4.30468559e-01, -9.38138366e-01,  6.01965375e-02, -1.73868573e+00, -1.51908481e+00,
    -3.03884715e-01, -5.65855324e-01, -1.23063719e+00,  1.78053081e-01,  1.44432813e-01,  1.28514659e+00, -1.22318959e+00, -1.27229404e+00,
     9.43621695e-01,  9.29825544e-01, -5.79435289e-01, -9.97821218e-04, -4.11438286e-01,  7.58691877e-02, -4.43779022e-01, -1.73811102e+00,
    -1.88231254e+00,  3.17756474e-01,  6.03617728e-01,  2.11691332e+00,  4.00072396e-01, -1.01566665e-01,  5.61047852e-01,  1.32084465e+00,
    -1.53828669e+00, -1.52421916e+00, -3.71171832e+00, -1.10069656e+00, -2.69846725e+00,  1.27466035e+00, -1.28432059e+00,  7.49375641e-01,
    -1.58707047e+00, -6.43199742e-01,  8.53856564e-01, -1.41903126e+00,  2.28597358e-01,  1.30345690e+00,  1.26047766e+00, -6.20432198e-01},
   { 2.06940222e+00, -4.00704712e-01,  2.61941582e-01,  1.35156071e+00, -5.39793307e-03,  3.06431293e-01,  1.83910877e-01,  1.25797904e+00,
     1.95537269e+00, -8.46981883e-01,  4.36892748e-01, -6.99156344e-01,  6.94991529e-01,  3.27290326e-01,  1.00570333e+00, -9.96054530e-01,
    -4.14106905e-01,  3.75906289e-01, -2.01738548e+00,  8.42562392e-02, -1.02352574e-02,  3.75321776e-01,  1.26024044e+00, -4.98088598e-02,
    -1.29636848e+00, -1.19837546e+00,  8.85946572e-01,  1.02389777e+00, -7.06166744e-01,  8.02845880e-02,  9.81284212e-03, -1.47260451e+00,
     2.62456149e-01, -6.16668880e-01,  8.92824769e-01,  2.44422603e+00, -1.37045920e-01,  1.44930601e+00, -5.00380099e-01, -3.45274568e-01,
     6.05778515e-01,  6.89738452e-01,  1.09702492e+00, -3.31257969e-01, -4.16849881e-01,  1.19623625e+00,  4.18642849e-01,  7.02120960e-01,
     6.29953027e-01,  6.52656138e-01, -1.35980502e-01,  6.17470026e-01,  8.73940766e-01,  4.84745651e-01,  3.72754484e-01, -3.12695682e-01,
     1.21870923e+00,  5.14892161e-01, -1.70821324e-01,  3.65683109e-01, -1.55238789e-02, -8.25999260e-01, -9.72546637e-02, -4.67488527e-01},
   { 1.05974770e+00,  2.02865148e+00, -4.49103594e-01, -1.34097171e+00,  2.36200497e-01,  1.22381739e-01, -3.67745340e-01,  1.09065509e+00,
     2.86350995e-01, -2.60642743e+00,  7.66262412e-01, -2.27212596e+00, -9.29355502e-01, -1.00284994e+00, -8.50943923e-01, -1.41200852e+00,
     1.66162670e-01, -5.24873912e-01, -3.15200359e-01,  1.69405568e+00, -1.05051792e+00,  1.30647138e-01, -3.05917233e-01, -6.24960661e-01,
    -7.24977136e-01, -1.80977568e-01, -3.30753177e-01, -1.51876724e+00,  3.86780381e-01,  1.30381036e+00, -2.74210960e-01, -1.49814188e+00,
     1.57890504e-03,  2.98048556e-01, -1.18819140e-01,  3.17655444e-01,  7.12583184e-01,  1.25088108e+00, -6.00376248e-01, -2.09138680e+00,
    -2.71299839e+00,  8.05315793e-01,  1.23953152e+00,  1.66543484e+00, -6.95556998e-01, -1.23138309e+00,  5.96899331e-01, -5.67427576e-01,
    -9.87093925e-01, -5.98155797e-01, -4.59345961e+00, -2.71195561e-01, -6.06003165e-01,  8.73359680e-01,  7.99953103e-01,  6.59118295e-01,
    -3.70329320e-01, -6.94282493e-03,  3.68604623e-02, -1.64691210e+00,  1.89682141e-01, -8.17433357e-01,  4.17432368e-01,  2.06474021e-01},
   { 1.02157283e+00, -1.03281029e-01,  9.69294608e-01, -1.64606452e+00,  1.45573568e+00,  1.33650708e+00, -4.67044890e-01, -8.00071299e-01,
     1.73718333e+00, -1.57470894e+00,  1.83664560e+00, -1.74659956e+00, -4.40620512e-01,  1.08217180e+00,  3.56053501e-01, -1.23969674e+00,
    -1.42793500e+00,  8.81714344e-01, -1.51451826e+00, -1.34971106e+00, -4.69018131e-01,  6.97212398e-01, -1.07418823e+00,  3.05878371e-01,
     3.09722871e-02, -5.89495122e-01,  2.28798151e+00, -6.65344477e-01,  1.06913829e+00,  2.49194932e+00, -8.62693965e-01,  1.17606091e+00,
     3.62053439e-02, -8.63194704e-01,  1.49932897e+00, -2.31054831e+00,  3.80141800e-03, -1.75269037e-01, -1.25063717e+00, -1.19715609e-01,
    -7.15684146e-02,  3.09026718e+00,  3.67402494e-01, -2.03639463e-01,  2.44746581e-01, -1.14890623e+00,  4.00737703e-01,  1.25575221e+00,
     9.11642388e-02,  3.36435288e-01,  8.65407381e-03, -9.66281414e-01, -1.27204609e+00,  1.31169784e+00, -1.36054695e-01, -1.51639700e+00,
     2.26111794e+00, -3.77173752e-01, -1.52439570e+00,  1.87985730e+00,  5.08156359e-01,  3.01686078e-01,  1.83387220e+00, -6.30666673e-01},
   {-1.21590447e+00,  7.93636262e-01,  6.24205656e-02,  6.10502779e-01, -6.90359771e-01,  8.69380236e-01,  2.53353775e-01,  6.00562453e-01,
    -2.09588632e-01, -2.09800586e-01, -4.00074758e-03,  9.57584500e-01, -1.46898210e-01,  9.04821903e-02, -9.00978267e-01, -2.57143915e-01,
    -8.03812981e-01,  1.40915883e+00, -1.10375501e-01, -9.10770237e-01,  9.38100755e-01,  1.17384243e+00,  3.59655201e-01,  4.12863165e-01,
    -7.79433642e-03, -1.67193990e-02, -8.40435922e-02,  2.70890564e-01,  4.18408841e-01,  9.08371508e-01,  1.04177368e+00, -7.48894155e-01,
    -7.47700572e-01,  1.01050329e+00, -3.34873617e-01,  8.46105456e-01,  4.17149723e-01,  1.16071129e+00, -3.18993658e-01,  4.18353349e-01,
     3.14351559e-01,  3.75576764e-01,  9.86769438e-01,  1.85397482e+00, -1.16574252e+00,  2.41990447e-01, -1.20468080e+00, -7.31376708e-01,
     1.16156685e+00,  3.35699059e-02, -4.93550062e-01, -1.17485535e+00, -2.06245875e+00, -2.20177278e-01, -9.59577560e-01,  3.22140217e-01,
     7.12346315e-01,  5.86921632e-01, -4.18813169e-01, -1.67531180e+00,  1.25157368e+00,  1.02622104e+00, -1.28914940e+00, -1.20196080e+00},
   { 4.94384050e-01, -1.25072157e+00,  1.75020015e+00,  7.02783167e-02, -3.79181623e-01, -6.35223091e-01, -4.86674190e-01,  7.36318171e-01,
     1.15193653e+00, -8.00468624e-01,  2.22794652e+00, -2.36074090e+00,  2.83670425e-01, -5.43267369e-01,  7.75100350e-01, -8.55250239e-01,
     1.45506427e-01,  4.47763681e-01, -1.96049738e+00,  1.10535896e+00, -9.91996229e-02, -2.37862036e-01, -2.82107413e-01, -7.54507959e-01,
     2.13727519e-01,  1.09204221e+00, -3.38263772e-02, -6.03218198e-01,  6.87397838e-01, -1.22041500e+00, -5.72779655e-01, -3.00475574e+00,
     1.28839821e-01, -1.36473048e+00, -1.40896714e+00,  5.76341808e-01,  1.88106790e-01,  6.51594162e-01, -3.03069174e-01, -6.99058473e-01,
     1.59616458e+00,  1.02258301e+00,  1.55109763e+00,  3.27168584e+00,  1.14069872e-01, -1.76509365e-01, -4.35040265e-01,  1.60751927e+00,
    -6.83179498e-01,  1.99310517e+00, -7.87971139e-01,  5.64836204e-01, -6.26990974e-01, -2.63407063e+00, -3.06397229e-01, -1.99548528e-01,
    -3.87065887e-01, -1.51870713e-01,  5.82315922e-01, -6.57899737e-01,  5.33653080e-01, -8.89725797e-03, -3.63585919e-01, -1.90270483e-01},
   {-1.72873998e+00, -2.19611979e+00, -6.17176354e-01,  8.30885589e-01,  9.04678181e-02,  8.96593332e-01,  8.25593114e-01,  1.30915657e-01,
     5.42101622e-01,  5.63124001e-01,  1.85457408e+00,  1.84147394e+00, -1.14060074e-01,  5.89882098e-02, -1.73026659e-02, -2.79832482e+00,
    -8.67102623e-01,  5.25267780e-01, -2.71772242e+00,  4.56970274e-01, -1.02126098e+00, -5.30292869e-01,  8.23234096e-02,  6.23348951e-01,
     1.43676162e+00,  1.01870317e-02, -7.70799458e-01,  1.47134304e+00,  7.68203080e-01, -7.18117654e-01,  1.00960708e+00, -2.20405173e+00,
    -2.09249720e-01,  1.04345715e+00,  4.08351421e-01,  5.59443951e-01,  2.69236088e-01,  1.44985378e+00, -2.01021329e-01, -4.26708192e-01,
    -5.15902042e-01, -6.66532993e-01, -1.88839746e+00, -8.15662801e-01,  1.25620294e+00,  2.01816127e-01,  1.66844085e-01, -9.93839860e-01,
