#ifndef __FASTGRNN_GRNN1_PARAMS__
#define __FASTGRNN_GRNN1_PARAMS__

#define GRNN1_HIDD_DIM0 (64)
#define GRNN1_HIDD_DIM1 (32)

// clang-format off

const float GRNN1_ZETA = (1.289360e+00);
const float GRNN1_NU = (-1.411844e+01);

const float GRNN1_BIAS_UPDATE[32] = 
   { 7.10803688e-01,  9.14750576e-01,  9.44583356e-01,  9.46254921e+00,  2.12085813e-01,  1.11442938e+01,  1.31848454e+00,  3.39477390e-01,
     8.72477818e+00,  1.20161867e+00,  1.13007936e+01,  2.83510298e-01,  7.18186736e-01,  5.84576190e-01,  6.31074160e-02,  1.16213523e-02,
     8.32557106e+00, -4.16469648e-02, -7.17195794e-02,  3.85600567e-01,  6.90458000e-01,  7.16881752e-01, -1.89057052e-01,  1.27387238e+01,
     1.07055759e+01,  6.26149237e-01,  3.59807670e-01,  7.27740049e-01,  6.85447454e-01,  7.82685205e-02,  5.88126183e+00,  9.01332474e+00};

const float GRNN1_BIAS_GATE[32] = 
   { 1.48305762e+00,  2.72996926e+00,  2.21597648e+00,  3.13349271e+00,  5.40198207e-01,  4.11517000e+00,  2.73192739e+00,  8.27055395e-01,
     2.67656946e+00,  2.98793840e+00,  4.04760885e+00,  1.54339015e+00,  1.51663589e+00, -1.07170904e+00,  8.16578031e-01, -1.99794173e+00,
     2.86509943e+00,  1.52247345e+00, -1.66506898e+00,  1.34699214e+00,  3.45770693e+00,  6.56903088e-01,  2.00435662e+00,  3.67514133e+00,
     3.13388371e+00,  2.28769708e+00,  2.86274362e+00,  1.86245739e-01,  2.36803889e+00, -2.27271724e+00,  2.17310834e+00,  3.72870111e+00};

const float GRNN1_W[32][64] = {
   { 1.29009694e-01, -1.12240002e-01, -2.35552624e-01,  6.99103773e-02, -5.86434662e-01, -1.36570884e-02, -2.22782090e-01,  3.31767768e-01,
     2.91427463e-01,  1.78501651e-01,  4.58454788e-02, -1.91451520e-01,  4.42944355e-02, -2.22050741e-01,  3.11068315e-02, -2.90244892e-02,
     2.88487792e-01, -5.99347800e-02,  4.34471443e-02, -1.94222108e-01, -2.85056293e-01, -2.06054095e-02, -1.14972822e-01, -1.90524518e-01,
     1.48200661e-01, -1.74526170e-01,  1.40410051e-01,  4.58167672e-01,  3.38245690e-01, -1.21913083e-01, -6.63605213e-01,  7.50618801e-02,
     1.45206481e-01,  3.87688018e-02,  1.65051296e-01, -7.09124357e-02,  5.46650052e-01, -5.59662640e-01, -2.16709703e-01, -3.16182673e-01,
     2.40096465e-01, -9.85659286e-02,  4.32123601e-01, -5.25791883e-01, -2.73886714e-02, -2.52916992e-01,  1.34767190e-01,  1.45065980e-02,
    -2.54032403e-01, -1.24865882e-01, -8.48712493e-03, -1.12787880e-01, -1.88260078e-01,  3.15823406e-01, -3.70706022e-01,  2.48603344e-01,
     9.43477359e-03,  3.06336805e-02,  7.65336901e-02, -7.52019659e-02, -4.02890891e-01, -8.12544748e-02, -1.33788809e-01, -4.05147299e-02},
   {-1.76344663e-01, -3.00855953e-02, -3.67185384e-01, -1.63414910e-01, -5.67687690e-01,  5.59601486e-01,  4.74729985e-02, -1.49791449e-01,
    -6.80641115e-01, -1.98208969e-02, -2.06569344e-01,  1.76926613e-01, -2.06405953e-01,  1.83415920e-01, -2.27316111e-01, -1.15738153e-01,
    -8.85169432e-02, -5.40055931e-01, -3.43293309e-01,  2.33185545e-01, -3.40605319e-01, -6.94253743e-01, -3.18985194e-01, -9.08412337e-01,
     3.13557178e-01,  4.20248747e-01, -3.71376514e-01, -6.39192343e-01, -5.65363187e-03,  9.34616998e-02, -4.62029874e-03,  2.66469628e-01,
    -1.20015973e-02, -1.77339375e-01,  3.79269719e-02, -3.54466103e-02, -6.10697389e-01, -1.07708968e-01, -1.17220087e-02, -9.44165707e-01,
    -7.86330104e-01,  7.43801668e-02, -5.27198732e-01,  5.70891500e-01,  2.05239713e-01,  4.65835305e-03, -1.66220725e-01, -3.72125357e-01,
     4.18648086e-02,  1.14988245e-01,  1.49451762e-01,  2.39262611e-01, -1.15997398e+00,  2.01251600e-02,  1.58987865e-01, -1.98512286e-01,
    -1.11454546e-01,  3.49185526e-01, -9.14053842e-02,  1.76868781e-01,  2.59939581e-01, -3.71140510e-01,  5.80343187e-01,  2.92516083e-01},
   { 1.41193017e-01,  8.40969905e-02,  5.46495497e-01, -2.44739145e-01, -1.65545255e-01, -2.16584101e-01,  4.92488360e-03,  5.63847840e-01,
     1.26612827e-01,  4.06816937e-02, -3.02609444e-01, -4.52979356e-02, -1.07903376e-01, -2.15704069e-01,  1.73184812e-01,  9.04480740e-02,
     1.77819967e-01, -3.03875595e-01,  2.57861406e-01,  1.48584843e-01, -1.66811168e-01,  3.46340835e-01, -1.06313266e-01, -1.19009301e-01,
    -4.19523712e-04,  3.30625512e-02, -1.86545566e-01, -2.87319481e-01,  4.22726780e-01, -1.34930745e-01,  1.50274232e-01, -5.40989578e-01,
    -8.49406570e-02, -5.61880693e-02,  4.73958999e-02, -1.56562924e-01,  4.12037402e-01, -8.08349252e-01, -8.61400902e-01, -4.59955931e-02,
    -2.52306074e-01, -4.71731275e-02, -4.54453267e-02,  1.78622469e-01,  7.79482648e-02,  9.24152136e-02,  3.88292998e-01, -4.22198847e-02,
    -5.68509817e-01, -2.20290527e-01,  8.44480157e-01, -7.78772384e-02, -2.20656782e-01, -2.55316854e-01,  1.17609292e-01,  1.93717763e-01,
    -1.59928992e-01,  1.03270046e-01, -1.55625418e-01, -4.23262924e-01, -8.91889453e-01,  4.59726490e-02, -1.55745849e-01,  2.09822431e-02},
   { 8.91072392e-01, -1.63779163e+00, -6.42760620e-02,  2.62065887e-01,  1.23265433e+00,  4.40005213e-01,  5.95828891e-03,  4.20929015e-01,
     2.11827308e-01,  3.99522215e-01,  8.22006643e-01,  2.18769476e-01,  1.53779685e-01,  6.90196991e-01,  2.59722412e-01,  8.45187306e-01,
    -8.71203601e-01,  3.00436288e-01, -6.32282794e-02,  1.76058483e+00, -1.15066624e+00, -1.37228954e+00, -4.94202882e-01,  3.17474842e-01,
    -2.41280630e-01,  1.73219919e-01,  3.64718437e-01, -5.34534454e-01,  1.98002174e-01, -2.04615161e-01,  6.75498664e-01,  3.22275519e-01,
     8.20379198e-01, -3.07006091e-01,  5.26157580e-03, -1.86916873e-01, -1.64193168e-01,  7.49073774e-02,  8.16020668e-01,  7.28074491e-01,
    -1.12191188e+00,  3.72188866e-01,  8.15365911e-02, -1.66657245e+00,  8.50027502e-01, -6.15001060e-02,  9.87541154e-02,  1.38129103e+00,
     8.64269555e-01,  8.38194788e-01, -2.48889789e-01,  4.72108424e-02, -1.34436214e+00,  1.02619374e+00, -9.78158712e-01, -6.39061749e-01,
     3.01077306e-01, -9.18966711e-01,  7.63540804e-01,  8.83951724e-01,  8.92204046e-01,  1.24918723e+00,  7.70765960e-01,  4.96862680e-01},
   {-3.32254261e-01, -1.38986167e-02, -2.30112836e-01,  2.02647462e-01,  1.03522595e-02, -2.00726852e-01, -1.22742385e-01, -3.44059318e-01,
    -4.29747939e-01, -6.17242977e-02, -2.48877168e-01,  5.34787238e-01,  3.30150425e-01,  3.94302964e-01, -2.12798685e-01, -1.49975896e-01,
     1.88767031e-01,  4.18865860e-01, -1.75724357e-01,  2.80519933e-01, -5.40156476e-02,  2.85986543e-01, -2.85710424e-01,  4.77798641e-01,
     4.85510081e-02,  9.43161398e-02,  2.54602879e-01,  1.05766618e+00, -1.27303749e-01, -3.11133653e-01,  3.51689368e-01, -1.09133340e-01,
    -1.23511389e-01, -4.32351232e-01, -2.14797750e-01,  5.32486029e-02, -1.70372307e-01,  6.11685455e-01,  3.12034279e-01,  1.29475462e+00,
    -2.68532991e-01, -2.12658709e-03,  7.80403554e-01, -3.40917222e-02, -1.03416257e-01, -3.10587943e-01,  3.12849507e-03, -1.04437947e+00,
    -1.47797346e-01,  1.04744881e-01,  9.08718944e-01, -1.46057099e-01,  5.19544721e-01,  1.36264756e-01, -1.67282879e-01, -3.33366662e-01,
    -9.41603109e-02, -4.12357710e-02, -1.45130515e-01,  1.02532767e-01,  2.74155326e-02,  1.06915975e+00,  3.62448275e-01,  1.84203297e-01},
   { 3.51461023e-01, -1.07372820e+00,  9.02631938e-01, -3.34205091e-01,  3.02256018e-01, -7.38413215e-01,  5.62078297e-01, -8.62473622e-02,
    -3.40550840e-01, -2.61098295e-01,  1.79391575e+00, -2.45554477e-01,  6.02126837e-01,  8.38978142e-02, -1.11566924e-01,  8.95032957e-02,
    -1.57691193e+00,  6.95885122e-01, -1.42012906e+00, -4.30120528e-01, -9.24209118e-01,  2.92701293e-02, -1.20436408e-01, -4.33048129e-01,
    -4.48645413e-01, -1.15152562e+00, -7.63215959e-01,  7.23905683e-01,  2.84869611e-01,  3.00148547e-01, -9.96321321e-01, -3.37694496e-01,
    -5.80027521e-01, -2.01624155e-01,  3.06640446e-01,  6.84914291e-01, -1.74218738e+00,  1.74502826e+00,  9.58522037e-02,  6.37408197e-01,
     9.69061196e-01,  8.05217385e-01,  1.60323274e+00,  1.41175914e+00,  1.34347546e+00, -1.01227236e+00, -7.56139278e-01,  6.04474425e-01,
    -1.91711769e-01,  1.17195845e+00,  2.45600775e-01,  8.01276863e-01, -2.65183896e-01,  1.94528294e+00,  5.12779877e-03,  1.04977719e-01,
    -5.88940233e-02, -3.93731147e-01, -1.74566948e+00, -1.06407332e+00,  1.28201592e+00,  1.35376596e+00,  1.27375984e+00, -4.29922849e-01},
   {-4.35466468e-01,  2.03795284e-01,  3.52843553e-01, -5.29563427e-01, -4.73955929e-01, -7.58140147e-01,  1.98259681e-01,  1.74179971e-01,
     1.02708328e+00, -1.49015812e-02,  1.64568499e-01, -8.39005232e-01,  3.30145508e-01, -3.27167422e-01, -3.37578207e-01,  3.58016044e-01,
     2.48572618e-01, -1.10759959e-01,  6.37808889e-02,  5.19550264e-01, -5.63468859e-02, -2.43490025e-01, -1.33054405e-01,  2.77141869e-01,
    -2.13412449e-01, -4.00239259e-01, -2.49688312e-01, -9.59298834e-02,  6.82111502e-01, -1.50476053e-01,  6.63764119e-01, -1.52200982e-01,
    -3.46924275e-01, -1.94035303e-02, -1.21419460e-01, -6.92034066e-02,  7.87001848e-02,  3.29580568e-02, -2.88073093e-01, -9.31954086e-02,
     2.14947406e-02,  6.79149404e-02,  7.87880003e-01,  1.28492460e-01,  2.64626183e-02, -3.01635146e-01,  1.45184338e-01,  2.19698608e-01,
    -8.13312083e-02,  1.49310246e-01,  8.05638075e-01, -1.80453852e-01, -1.95032433e-01, -2.34510213e-01,  3.01501274e-01,  1.32074103e-01,
     5.66617809e-02, -3.07395250e-01,  3.72490734e-01,  4.38442171e-01, -4.52999592e-01, -1.05254576e-01, -1.18220426e-01, -2.85610884e-01},
   { 1.09765872e-01, -7.31836557e-02, -1.81840971e-01,  5.99861324e-01, -8.99568975e-01,  2.07785174e-01, -1.49044007e-01, -2.26515412e-01,
     5.18006444e-01,  3.76088113e-01,  2.22428799e-01, -8.42389241e-02, -3.29226851e-01, -1.71514810e-03,  2.80552536e-01,  4.66368347e-01,
    -4.69691932e-01, -1.65521547e-01, -1.21424638e-01, -7.96940103e-02,  3.27610046e-01, -1.00730263e-01,  3.02561641e-01, -2.55471051e-01,
     9.32217240e-01, -3.88910055e-01,  1.79639444e-01, -1.94784418e-01,  4.01185036e-01, -1.15165234e-01,  5.00961803e-02,  4.08681452e-01,
     3.73727560e-01, -1.78623319e-01,  1.96819052e-01, -5.75450473e-02,  6.32277906e-01,  3.89474481e-01,  2.62871802e-01,  9.18738246e-02,
     3.31675857e-01,  1.13461867e-01,  3.28845918e-01, -4.62368369e-01, -3.21177840e-01, -3.00180942e-01, -5.89499295e-01,  3.36359054e-01,
    -1.98462322e-01,  1.88776240e-01,  7.53854930e-01, -1.97043996e-02,  2.34786376e-01, -1.88399598e-01,  1.00294918e-01, -2.33382449e-01,
     4.52718645e-01, -3.60396266e-01,  4.59351152e-01,  4.05445427e-01,  7.27552548e-02, -1.04959059e+00,  1.33949131e-01,  3.30423675e-02},
   {-5.76651730e-02,  1.91508159e-01,  1.26250577e+00, -1.98842752e+00,  8.86559606e-01, -1.51863861e+00, -6.32796824e-01,  3.40116113e-01,
     1.13706470e+00,  2.24784523e-01,  6.68507695e-01, -3.86119747e+00,  1.13493669e+00,  6.19117737e-01,  2.43427828e-01,  2.67299414e-01,
    -8.64999890e-01,  3.18797171e-01, -7.34728873e-01,  6.97964489e-01,  6.64997399e-01, -4.85284537e-01, -1.92365497e-02,  7.05367267e-01,
    -4.76347536e-01,  1.22910053e-01,  6.71690106e-01,  2.28479430e-01,  1.17487693e+00,  2.34380364e-01,  3.01719338e-01,  2.16394171e-01,
    -5.93820930e-01, -8.40544701e-01,  7.50372037e-02,  4.04505730e-02,  4.84346062e-01,  4.60289210e-01,  3.00709963e-01,  6.59419537e-01,
     2.66838551e-01,  5.23906171e-01,  4.29670125e-01, -4.89076912e-01, -1.06810665e+00, -4.43780959e-01,  7.77499735e-01, -1.44134784e+00,
    -1.33256733e-01,  1.10945892e+00,  1.38540196e+00,  1.37754470e-01,  5.62358022e-01,  7.84385622e-01,  5.07152498e-01, -1.19284391e+00,
     5.96623540e-01, -1.45607321e-02, -1.57806233e-01,  2.44860098e-01, -4.36699152e-01, -7.01784432e-01, -8.81078392e-02,  3.28746229e-01},
   {-4.38560724e-01, -1.27758924e-02, -4.17381078e-02, -5.19938022e-02,  3.73473644e-01, -1.95028782e-01,  3.07747722e-01, -2.09397405e-01,
     4.76327181e-01, -1.14893971e-03,  3.03305596e-01,  2.39366397e-01,  2.15577379e-01, -8.15025810e-03, -4.18852657e-01,  2.80140072e-01,
    -8.80039692e-01,  8.37990735e-03, -4.91931856e-01,  1.86431035e-01, -1.29333794e-01, -5.09679914e-01, -2.03742638e-01, -1.18099369e-01,
    -1.67138785e-01, -3.42920005e-01, -4.06364083e-01,  2.11842209e-01, -2.11363863e-02,  1.13325134e-01,  2.87721474e-02, -1.00972958e-01,
    -2.92025775e-01,  7.17800707e-02, -9.93683413e-02,  3.63624364e-01, -6.93758652e-02,  5.98407328e-01, -2.57410944e-01,  5.88748217e-01,
    -1.96977019e-01,  2.52315432e-01,  5.50474226e-01, -6.22844994e-01,  3.83247286e-01, -6.55924320e-01, -4.98322874e-01, -5.98842919e-01,
     5.67399263e-01,  1.47714347e-01,  2.95114666e-02,  1.79131776e-01, -2.82936394e-01,  6.06789947e-01,  4.92596745e-01, -6.24994300e-02,
     5.21912687e-02, -2.98285663e-01,  1.13816984e-01, -3.71098638e-01,  6.54596090e-01,  3.82078409e-01,  7.88127959e-01,  2.11517572e-01},
   { 6.08960800e-02, -9.75157022e-02,  5.33833504e-01, -5.55811599e-02, -7.20392689e-02,  3.11237901e-01, -2.31542736e-01,  5.86576164e-01,
    -1.06252921e+00,  2.27082551e-01,  9.92208421e-01,  9.32197690e-01, -3.89339298e-01,  5.86197853e-01,  9.11984801e-01,  4.21328545e-01,
    -1.89291537e+00,  8.91809523e-01, -2.98119068e+00, -4.43101734e-01, -1.65841210e+00,  1.52976334e-01, -1.47637114e-01, -2.32053638e-01,
    -5.89080811e-01, -4.19089258e-01, -1.55318752e-01,  8.13933492e-01,  5.14394104e-01,  1.67574823e-01,  1.11269720e-01, -7.62184858e-02,
     4.34222072e-01, -6.54320180e-01,  4.22914058e-01,  2.28192806e-01, -5.97655058e-01,  1.39067852e+00,  1.35829538e-01,  3.24380666e-01,
     1.59024522e-02,  8.77508342e-01, -3.41008782e-01,  2.11875558e+00,  1.21179178e-01,  4.39197779e-01, -1.15251683e-01, -1.89057899e+00,
    -1.81250259e-01,  8.65482271e-01,  2.38080204e-01,  6.76540911e-01, -3.27488840e-01,  1.55726898e+00,  1.07494734e-01, -1.17770720e+00,
     2.07852591e-02, -8.63388598e-01, -4.75068063e-01, -6.61512256e-01,  8.74140918e-01,  9.63794470e-01,  3.78166974e-01,  3.31520498e-01},
   {-6.77035823e-02, -7.87176490e-02,  4.01012450e-01, -1.60973355e-01,  2.31881484e-01, -2.20984027e-01,  6.17162138e-02,  3.33266050e-01,
     7.56201074e-02,  1.24027863e-01,  6.39387742e-02,  1.98923256e-02,  3.43839735e-01,  1.90068111e-01, -6.82368651e-02,  3.96304309e-01,
    -7.30241239e-01,  7.16209114e-01, -4.46597449e-02, -6.70317590e-01,  4.06583875e-01,  5.35201728e-01,  1.28264621e-01, -3.53997320e-01,
    -4.21269357e-01, -3.74972910e-01,  4.25568908e-01,  1.29471958e-01,  1.76038772e-01, -8.13685134e-02, -3.34837377e-01,  2.89413720e-01,
    -3.24161470e-01, -3.70466202e-01, -2.09912226e-01, -1.43572196e-01, -7.88663030e-01, -5.23450315e-01,  2.27323622e-01,  2.19524458e-01,
     3.64253223e-01,  8.25959444e-02, -1.34651721e-01, -2.17863545e-01, -2.60148913e-01, -6.00995831e-02,  8.22044015e-01, -3.34876806e-01,
    -1.93487275e-02,  4.04448271e-01,  2.30752334e-01,  1.79730237e-01,  5.80113351e-01, -3.93928774e-02, -1.84649870e-01, -4.82504338e-01,
    -1.43956810e-01,  6.59446279e-03, -2.01676533e-01,  3.97295624e-01, -3.02186370e-01,  4.85958308e-01, -6.89652264e-02, -5.57025373e-01},
   { 3.34106624e-01,  8.96319449e-02,  5.59382550e-02, -1.76301003e-02,  3.01647455e-01, -5.37810661e-02, -5.65194525e-02,  2.67606229e-01,
     2.65891105e-01,  8.35454389e-02,  2.53705233e-01, -3.53947192e-01, -1.57996282e-01,  1.79933697e-01,  1.00810699e-01,  4.01181072e-01,
     1.76838651e-01,  1.06341198e-01, -9.67101455e-02, -2.95951903e-01, -1.38629332e-01,  2.07712650e-01,  1.07467949e-01, -3.38326357e-02,
    -3.76655124e-02,  2.22708121e-01,  1.76252774e-03,  5.18814139e-02,  2.06150636e-01,  7.91157689e-03, -4.27233011e-01,  1.35983482e-01,
     2.18349881e-02, -9.29939300e-02,  2.25509610e-02, -1.12071358e-01,  8.16987529e-02,  6.87701851e-02,  1.93418220e-01,  3.02162245e-02,
     7.72584304e-02, -9.16031897e-02,  1.92271382e-01,  2.58433986e-02, -1.80408582e-01,  2.17583790e-01,  2.10266218e-01,  1.90096304e-01,
    -1.04384301e-02,  5.86226434e-02,  9.93279144e-02,  9.96895693e-03, -4.45633680e-01,  3.69701296e-01,  3.18651080e-01,  2.28271689e-02,
    -5.15566468e-01,  8.36967304e-02, -1.66387260e-01,  3.88341546e-02, -1.71566121e-02,  6.88014925e-02, -2.47291192e-01,  3.69264632e-01},
   {-2.17365380e-02, -1.55601785e-01, -1.72252372e-01,  1.54356837e-01, -1.25464708e-01,  3.66340399e-01,  1.13000728e-01, -4.88920994e-02,
    -6.94901168e-01,  1.65336043e-01, -1.64136793e-02,  2.84248978e-01, -1.87101498e-01,  2.44141713e-01, -1.13005541e-01, -6.86239749e-02,
     1.33819669e-01, -7.27386102e-02,  6.75622374e-02, -7.90173709e-02, -4.52184305e-02, -5.42598888e-02,  9.88424644e-02, -2.20647931e-01,
     3.02271277e-01, -1.33077636e-01,  1.75887734e-01,  2.77620196e-01, -1.35873884e-01,  3.89257353e-03, -7.37993792e-02,  9.29965544e-03,
     6.82869181e-02,  1.31851569e-01, -1.19990716e-02, -3.97913903e-02, -3.88202965e-01,  1.43955320e-01,  3.02303165e-01, -2.41596982e-01,
    -2.94849515e-01, -1.58530816e-01, -3.97673190e-01,  5.42483270e-01,  2.16366444e-02, -2.63580885e-02,  9.74637568e-02,  7.78708458e-02,
     1.46428987e-01, -3.96221988e-02, -1.46826386e-01,  9.54653546e-02, -2.08011623e-02, -1.21931568e-01, -1.35950163e-01,  1.36860073e-01,
    -2.96715617e-01, -8.90792012e-02,  1.37985528e-01, -5.97061701e-02,  1.63356707e-01,  2.04189554e-01, -2.84404099e-01,  1.02607004e-01},
   {-3.06794167e-01,  1.98162682e-02, -6.47435524e-03,  1.00886151e-01, -3.98362696e-01,  2.64483780e-01, -2.16970310e-01,  9.56584588e-02,
     2.15448886e-01,  3.11441690e-01, -1.07390776e-01,  3.03259760e-01,  3.96633260e-02, -2.79095888e-01,  8.97598341e-02,  8.92251581e-02,
    -5.44630401e-02,  2.19278038e-02,  1.91373497e-01, -2.29752082e-02, -7.47785866e-02,  5.13682067e-02, -1.68408871e-01, -7.15568900e-01,
    -2.86452681e-01, -1.27006561e-01, -1.27694592e-01,  9.54426378e-02,  2.82832593e-01,  1.97213113e-01, -7.37019256e-02, -3.30612510e-02,
     2.03340992e-01,  6.03058375e-02,  4.43162359e-02,  6.17809035e-02, -5.94734438e-02, -1.38931004e-02,  3.97665724e-02, -1.48581123e+00,
     9.04437304e-02, -1.68236658e-01, -2.40017071e-01,  1.94784391e+00, -1.97447270e-01,  2.75962483e-02,  4.27124172e-01, -6.90752566e-02,
     3.14705014e-01,  1.09119318e-01, -1.15107514e-01,  6.13293536e-02,  1.79138333e-01,  2.93937791e-02,  2.31627319e-02,  1.02627538e-01,
     3.65412682e-02, -7.80046061e-02,  4.74414527e-02,  2.88987368e-01,  3.14567178e-01,  2.20950797e-01, -4.27997917e-01,  3.72146331e-02},
   { 2.26708889e-01,  1.88025907e-01, -1.41175494e-01, -3.75236541e-01, -2.27715209e-01, -1.46827931e-02, -5.72207104e-03,  2.12773800e-01,
    -6.57848597e-01, -2.29303211e-01,  2.69308928e-02, -4.93953019e-01, -5.51383942e-02, -1.94691315e-01,  1.47578761e-01, -4.99374658e-01,
     5.02448007e-02, -3.48347306e-01,  1.12125106e-01, -3.96593660e-02, -2.86325395e-01,  1.04838058e-01, -3.88655649e-03,  1.00381412e-01,
     5.81375621e-02,  1.93403840e-01, -1.43022552e-01, -4.06170160e-01, -4.06521261e-01, -4.67771180e-02, -3.55916061e-02, -6.82752609e-01,
     9.01725069e-02,  1.24262497e-01,  8.45030546e-02,  1.92585879e-03,  4.40692991e-01,  5.66718638e-01, -4.65689689e-01, -1.68175295e-01,
    -9.35595214e-01,  6.87724203e-02, -2.85621256e-01, -1.82769805e-01,  1.96295474e-02,  1.22429118e-01,  1.48316035e-02, -1.04641922e-01,
    -2.45168712e-02,  3.36000398e-02, -3.73145312e-01,  5.25389016e-02, -1.41406924e-01, -7.76150227e-02, -1.50238737e-01,  7.17215613e-02,
     6.75234944e-02,  1.30456850e-01, -2.59904593e-01, -1.91950932e-01, -1.85339376e-01,  1.07559852e-01,  2.32541516e-01,  1.68907464e-01},
   { 5.37856638e-01, -1.14867151e+00,  1.77085400e-01,  3.59216750e-01, -2.59202808e-01, -4.08400267e-01,  7.52368942e-02,  5.24549603e-01,
     2.41005969e+00,  2.27304965e-01,  1.04332939e-01,  1.16583213e-01, -6.30849063e-01, -1.10812438e+00,  1.32885695e+00,  7.39513099e-01,
    -1.04326725e+00, -6.03690334e-02, -1.01525748e+00, -1.79254979e-01, -1.19771391e-01, -1.58394217e-01,  1.07946761e-01, -2.40255475e+00,
     1.11786854e+00, -1.09394050e+00, -5.18459380e-01, -9.73212659e-01,  9.97829020e-01,  1.91785425e-01, -8.40748668e-01,  4.91151363e-01,
     2.90373266e-02, -4.90580499e-01,  9.10272062e-01, -2.36710891e-01,  8.64620268e-01, -9.77473035e-02, -1.00904703e-01,  1.44692808e-01,
     1.54487789e+00,  1.15002882e+00, -8.17174554e-01, -1.07281613e+00, -3.45919609e-01, -9.33582067e-01, -5.98536313e-01,  9.73832130e-01,
    -5.47909066e-02,  1.55029571e+00,  8.32998574e-01,  1.47785985e+00,  5.55190146e-01,  6.24395967e-01,  2.12610647e-01,  9.06871632e-02,
     6.23194218e-01, -1.06581068e+00,  5.57587147e-01, -1.08943021e+00,  5.77421427e-01,  1.28953308e-01,  1.11019433e+00,  5.61490834e-01},
   { 9.53098983e-02,  7.83174038e-02, -2.01440364e-01,  6.02654228e-03, -4.86260593e-01, -1.58122256e-01,  1.22615313e-02,  1.54711798e-01,
    -1.77229643e-01, -1.24058072e-02, -5.75837672e-01,  3.15417677e-01, -5.05043417e-02, -1.79227844e-01,  3.14443886e-01, -2.72238310e-02,
    -3.14304888e-01, -8.10211897e-02,  1.60341978e-01, -4.76439416e-01,  9.03422415e-01,  8.10776770e-01, -2.38227218e-01, -3.42393607e-01,
     2.69760787e-01, -4.89960015e-01, -3.09735741e-02,  1.62620991e-02, -3.99968445e-01, -3.24099362e-02, -3.55292350e-01,  3.23353142e-01,
     9.81820449e-02, -1.87439591e-01,  1.12948686e-01, -1.90419570e-01, -3.05774864e-02,  2.40897149e-01,  1.46332020e-02,  6.32521510e-02,
     4.67448860e-01,  2.98416734e-01, -1.82693288e-01,  1.75020263e-01, -1.62849650e-01,  1.02528863e-01,  3.60335499e-01, -7.27257967e-01,
    -1.68484062e-01,  6.48842826e-02, -8.73607025e-02,  5.08984625e-02,  4.94111776e-01, -1.13089986e-01, -3.37287277e-01,  3.34403701e-02,
     2.08988160e-01, -3.52394372e-01,  9.94335040e-02,  2.82598972e-01,  2.15058029e-01,  1.40714809e-01,  3.53202581e-01,  1.27559140e-01},
   { 3.64766717e-01, -4.73496675e-01, -1.50372475e-01,  2.82008618e-01,  5.71681082e-01,  4.48371410e-01,  1.12848226e-02,  2.40639076e-01,
     1.15720369e-01, -2.00094789e-01,  1.29637383e-02,  8.68095398e-01, -3.61745328e-01,  8.47897306e-02,  9.12453234e-02, -1.51209440e-02,
    -3.09769716e-03, -4.90062684e-02, -8.49127546e-02, -3.69819760e-01, -6.42757192e-02,  2.90889770e-01,  3.02134193e-02, -5.53657293e-01,
     6.42638728e-02, -1.99159294e-01, -1.77375630e-01,  8.07221532e-02, -5.38585335e-03,  4.30465378e-02, -1.16299219e-01, -2.72753220e-02,
     4.21502203e-01, -6.23818263e-02,  2.39521284e-02, -1.88978821e-01, -2.40406856e-01, -3.05397987e-01, -5.61099760e-02,  3.78657252e-01,
    -1.61345422e-01, -6.80404082e-02, -3.53971690e-01, -1.94778338e-01,  7.14262351e-02, -2.22171191e-02, -2.19090998e-01, -1.85176417e-01,
     1.02027990e-01, -6.33906946e-02, -5.89291573e-01,  1.02193810e-01, -3.85784328e-01,  1.28717214e-01, -1.77445784e-01,  4.75311615e-02,
     6.16429783e-02,  9.06303599e-02, -1.47550404e-01, -5.43689251e-01,  3.77697110e-01,  3.14147145e-01,  5.65281212e-01,  5.18790856e-02},
   {-2.92847157e-01,  1.84343413e-01,  5.33434808e-01,  5.33921979e-02, -3.00866604e-01, -5.99420965e-01, -2.21645653e-01,  6.76808786e-03,
    -7.30756819e-02, -3.59600991e-01,  1.81358948e-01, -4.82388198e-01,  4.53102261e-01, -4.65641856e-01,  1.20813936e-01, -6.06694758e-01,
    -3.26955050e-01, -2.83223033e-01,  7.77497143e-02,  2.99463809e-01, -3.14798579e-02, -1.95596516e-01,  2.27132082e-01,  9.43189710e-02,
    -2.59802401e-01,  5.28705120e-03, -1.16164200e-01, -7.30995774e-01, -1.99419156e-01,  2.82270759e-01,  4.31707948e-01, -6.78151488e-01,
     5.10587767e-02,  2.84629971e-01,  7.01056197e-02,  1.82643518e-01,  4.69812542e-01,  1.16715324e+00, -2.13901982e-01,  6.23522758e-01,
    -3.60597104e-01,  2.04622969e-01,  2.69379526e-01,  2.17282385e-01, -3.64474773e-01,  2.15850875e-01, -3.33380461e-01, -8.05311427e-02,
     1.00041360e-01,  3.32047455e-02, -4.81054299e-02, -1.00257412e-01,  7.16930151e-01,  2.10322082e-01, -5.97036779e-01, -4.47151884e-02,
     3.21141690e-01, -3.10148388e-01, -8.25775191e-02, -6.63454235e-01, -1.16051622e-01, -3.23364660e-02, -2.06509903e-01, -4.97900277e-01},
   {-1.43187717e-01, -6.99686229e-01,  2.76418805e-01, -1.75419360e-01,  1.00720383e-01,  1.49714261e-01, -9.61462379e-01, -4.72401649e-01,
     2.33891889e-01, -2.38265991e-01,  2.97847360e-01,  9.20590758e-02,  2.83778638e-01, -2.51892358e-02,  2.20745042e-01, -8.27844024e-01,
    -8.16535056e-02, -3.27194959e-01,  2.15585336e-01, -4.38399836e-02,  6.00865126e-01,  3.81362319e-01, -3.24558839e-02, -2.62069464e-01,
     1.94006097e-02, -7.49404550e-01,  4.01520401e-01,  2.37743687e-02,  4.91676748e-01,  2.70757139e-01, -5.10503232e-01, -8.53668600e-02,
     4.75531481e-02, -6.44606352e-01,  1.64165735e-01,  3.43442969e-02, -1.72857583e-01, -2.82964800e-02,  7.18179792e-02,  4.01367486e-01,
     4.24320549e-02,  6.26293600e-01, -1.77423164e-01, -6.38856113e-01, -6.55830085e-01, -3.12674642e-01, -9.20779929e-02, -3.95658821e-01,
    -2.23647416e-01, -2.64636487e-01, -1.41905463e+00, -6.03033006e-01, -7.22315013e-01, -3.10665637e-01, -6.29981995e-01, -2.65993983e-01,
     1.55803585e+00, -2.99033195e-01, -2.70927958e-02, -7.76114762e-02, -2.11541831e-01, -5.32569468e-01, -5.99980168e-02, -4.79149669e-01},
   {-1.14624426e-01,  4.30941015e-01,  3.41464728e-01,  1.46183474e-02, -5.05556986e-02, -2.05147773e-01,  5.57759479e-02, -1.69377089e-01,
    -1.04486525e-01, -2.93801337e-01, -7.65104219e-02, -1.60748333e-01,  4.55327816e-02, -3.55563425e-02,  1.09507255e-01, -2.46837854e-01,
     2.03269079e-01, -1.55611619e-01,  1.07715569e-01, -1.42535344e-01,  2.55536139e-01,  2.74221838e-01,  3.60101797e-02,  1.04364075e-01,
    -1.55669495e-01, -2.21635103e-01,  1.04843058e-01, -1.49062321e-01,  4.34634984e-02, -3.48164022e-01,  2.69680083e-01, -1.86083958e-01,
    -1.34554759e-01,  1.99399397e-01, -7.91669935e-02, -7.68298283e-02,  1.62315264e-01,  4.22069281e-01,  3.06517072e-02,  7.78145418e-02,
    -3.17801237e-01,  3.00149731e-02,  6.31448105e-02,  2.86468933e-03,  1.91305682e-01, -3.54342461e-01, -7.84004480e-02,  2.83335149e-01,
     2.52984017e-02, -1.05505720e-01,  2.80085150e-02, -1.03231721e-01, -3.46281901e-02,  4.86611649e-02,  2.64332980e-01,  9.60717499e-02,
     1.87349826e-01,  1.60887867e-01,  2.06660144e-02, -3.38116646e-01, -2.18256965e-01, -4.60708477e-02, -4.91623551e-01, -2.09086657e-01},
   {-1.06316350e-01, -1.82986394e-01, -5.31080186e-01, -6.18339889e-02, -5.61058462e-01, -3.37418765e-01,  1.44447371e-01,  3.98775846e-01,
    -5.36047637e-01,  2.07578376e-01,  1.48941025e-01,  6.16517603e-01, -1.89184882e-02, -2.18548313e-01,  1.64838269e-01,  1.47563040e-01,
     5.15613519e-02, -1.60640981e-02,  2.74959326e-01,  3.91872853e-01,  9.37709987e-01, -6.81372404e-01, -1.20747805e-01,  5.16987205e-01,
     4.10297006e-01, -6.08767927e-01,  1.05401084e-01, -6.32028222e-01, -5.27120471e-01, -1.15783185e-01,  5.95595181e-01, -7.84493759e-02,
     2.30394498e-01,  1.31311223e-01, -7.89607614e-02,  2.71447182e-01,  1.16680026e-01,  7.31331587e-01, -5.54563142e-02, -3.03322315e-01,
    -2.71500915e-01, -2.27970347e-01, -7.06969723e-02, -2.04999819e-01,  1.91889167e-01, -4.28761989e-01, -1.37377009e-01, -5.73488355e-01,
    -3.35893542e-01, -1.04056895e-01,  4.81160462e-01,  1.54120374e+00, -7.41552889e-01, -1.94211662e-01,  3.60673785e-01,  1.27814293e-01,
     2.15786844e-01,  4.50899988e-01,  6.84338093e-01, -2.33227804e-01, -8.46436024e-02, -3.39219600e-01, -5.12928069e-01,  1.19130945e+00},
   {-4.71504688e-01, -2.82070097e-02,  4.77678150e-01, -1.03636086e+00, -7.52562225e-01, -6.38619900e-01, -4.99118399e-03, -3.34940851e-01,
     9.32409048e-01, -2.74019569e-01,  3.61151189e-01, -6.11873209e-01,  2.31158406e-01, -1.01823962e+00, -1.40908752e-02,  3.26837450e-01,
    -4.38869327e-01,  8.05089176e-01, -3.20093179e+00, -6.29814982e-01,  1.08179167e-01, -1.89032257e-02, -6.98331058e-01,  5.43635249e-01,
    -8.21016252e-01, -2.87847519e-01, -8.31303596e-01,  5.04258811e-01,  3.37060714e+00,  4.80085611e-01, -2.00040936e+00, -3.53435099e-01,
     1.12135015e-01,  4.78777289e-01,  3.71634722e-01,  1.06573083e-01, -1.12257147e+00,  1.72071564e+00, -5.56978762e-01,  2.39738628e-01,
     4.83338714e-01,  1.12308276e+00,  1.64491510e+00,  2.24712658e+00,  1.02398992e+00, -9.54875886e-01, -3.17646742e-01,  6.23174310e-01,
     6.12497747e-01,  1.03279579e+00,  1.23542160e-01,  1.32268384e-01, -2.88376249e-02,  1.93024504e+00,  4.72391218e-01,  4.14543778e-01,
    -9.40134283e-03, -9.47458982e-01,  2.37901986e-01, -1.72427580e-01,  8.89578104e-01,  9.87892687e-01,  9.16320503e-01, -5.25954545e-01},
   { 9.62529719e-01,  1.39802709e-01, -1.47947252e+00,  6.80862427e-01,  3.95938993e-01,  1.00331962e+00, -4.14584696e-01,  1.00325668e+00,
    -7.73966193e-01, -7.16984421e-02,  1.16834080e+00,  4.36947554e-01, -1.05185962e+00, -7.98730087e-03,  5.90228319e-01,  8.70047092e-01,
    -5.07362008e-01, -1.25519013e+00, -6.87483847e-01,  2.99614489e-01, -6.42239094e-01, -2.79164553e-01, -2.66048342e-01, -1.08517921e+00,
    -7.43290335e-02, -4.32371534e-02,  1.55073509e-01, -4.76451695e-01,  1.87324810e+00,  5.37934840e-01,  5.26721656e-01,  3.77602696e-01,
     9.57849443e-01, -3.36474955e-01,  5.71598887e-01, -1.78997561e-01,  5.56625962e-01,  2.29460057e-02, -8.03494360e-03,  2.89690703e-01,
    -4.31192398e-01,  7.08094716e-01,  1.10682714e+00,  2.66284466e-01, -3.42393816e-01,  4.94389273e-02,  1.14106238e+00, -8.38276148e-01,
    -2.79173583e-01,  8.77501428e-01,  3.22578639e-01,  1.16219163e+00, -8.60003531e-01,  6.14780784e-01,  2.01286554e-01, -6.15483940e-01,
    -8.23397279e-01, -6.15937531e-01,  6.80982888e-01,  8.71068120e-01, -5.65311432e-01,  4.90002900e-01, -6.27622530e-02,  7.58278191e-01},
   { 2.11901948e-01, -9.69316512e-02, -2.28508517e-01, -1.95989683e-01,  2.86586970e-01,  2.70799901e-02, -1.72934487e-01, -4.74760175e-01,
     3.50698292e-01,  1.57071605e-01,  9.98476595e-02,  2.75726080e-01, -3.12162898e-02,  1.64883301e-01, -3.02361250e-02,  1.83019727e-01,
    -9.39954743e-02,  1.66211240e-02, -2.17623547e-01,  4.48569655e-01, -2.40835771e-01, -2.49884754e-01, -2.57529616e-01, -9.64225456e-02,
    -2.30685398e-01,  1.51906490e-01, -3.51880550e-01,  3.27222914e-01, -1.42947048e-01, -2.04520270e-01, -4.88973081e-01, -1.64674401e-01,
    -1.27442807e-01, -1.52902026e-02, -8.02112967e-02,  1.06056407e-02, -3.22351366e-01, -8.97100493e-02, -2.53791779e-01,  1.96453065e-01,
    -3.30568068e-02,  1.16584986e-01,  6.18085802e-01,  3.57521951e-01,  3.54317307e-01, -4.77811396e-01, -3.04376543e-01, -1.50005549e-01,
     3.55005562e-01, -1.15242586e-01,  6.15981281e-01, -6.52458817e-02, -5.07873416e-01,  7.64275193e-01,  3.69796455e-01,  2.11276352e-01,
    -1.67198598e-01, -2.42424458e-02, -2.45645002e-01, -2.53098905e-01, -1.16472691e-02,  5.00269115e-01,  4.76695269e-01,  2.76010066e-01},
   {-4.81442809e-01, -4.11437333e-01, -7.49108434e-01,  1.43368661e-01, -4.80887592e-01,  2.85591394e-01, -5.40849626e-01,  4.71892161e-03,
    -9.59767580e-01,  2.79410005e-01, -7.78022259e-02,  3.19911353e-02, -5.02077164e-03,  1.26638934e-01, -1.52037680e-01, -3.65236908e-01,
    -1.88967213e-01,  1.92194328e-01,  1.67488039e-01,  4.44656610e-02,  5.17994583e-01,  1.85480602e-02, -3.97544265e-01, -1.94963366e-01,
     3.24920475e-01, -4.52764779e-01,  6.90343082e-01, -4.19181921e-02,  7.36529678e-02,  5.18415384e-02,  9.67244208e-02,  1.17324861e-02,
     5.39177001e-01, -9.29039121e-01, -3.92208397e-02, -2.17028320e-01, -3.59312981e-01,  6.76049173e-01, -8.02775323e-02, -8.50323975e-01,
     2.87359804e-02,  7.75748573e-04, -2.72644579e-01,  8.60417008e-01, -4.44111317e-01, -6.67551756e-01,  1.38894364e-01, -1.16157103e+00,
    -4.37019579e-02,  2.65600145e-01, -5.98254323e-01, -2.44888872e-01,  5.37925176e-02, -3.32087666e-01, -8.13152254e-01, -3.75412434e-01,
     1.46437809e-01,  7.96125680e-02, -7.00794339e-01,  8.70764926e-02, -1.25006989e-01, -1.74236849e-01, -3.94809425e-01, -1.29352599e-01},
   { 3.80640663e-02,  3.13146472e-01,  5.62189296e-02, -2.24604800e-01,  1.37336686e-01, -3.13294947e-01, -8.56011510e-02,  1.63610339e-01,
     1.93257213e-01,  1.68733582e-01, -1.85297489e-01, -3.37274730e-01,  1.46187142e-01,  2.52461471e-02, -1.58252180e-01,  1.23091951e-01,
     9.88918245e-02,  2.44034857e-01, -5.36751822e-02,  2.65141726e-01,  1.29517883e-01,  2.17942819e-01,  6.38790429e-02,  1.92871824e-01,
     1.66080929e-02,  1.89512312e-01,  1.88899532e-01,  1.91430554e-01, -1.54877186e-01, -1.45729080e-01,  4.38111722e-01, -1.87184606e-02,
    -6.72255084e-02, -1.35393113e-01, -1.29225820e-01, -2.48440094e-02,  2.97221243e-01, -3.27321142e-01, -1.41428456e-01,  3.43961328e-01,
     2.57733054e-02, -7.14544430e-02, -1.38793336e-02, -3.43621492e-01, -1.60530955e-01,  1.70842379e-01,  3.79046589e-01, -1.08657721e-02,
    -4.18476872e-02, -1.91934574e-02,  3.46697181e-01, -9.46747512e-02, -2.62949169e-01,  8.25662632e-04,  9.39880610e-02, -3.93832289e-02,
     8.93313363e-02, -1.96358353e-01, -1.18580133e-01, -3.93006504e-01, -3.44121784e-01, -1.35093048e-01, -9.80360135e-02, -3.07544500e-01},
   { 1.37231097e-01, -1.45096660e-01, -9.50229838e-02,  5.20555139e-01,  7.63524175e-01,  3.57304484e-01, -1.38718769e-01, -5.46629466e-02,
    -6.72947824e-01, -5.68832457e-02,  5.55417895e-01,  4.41805035e-01, -3.96866947e-01,  1.28114268e-01,  6.38062805e-02,  1.29465759e-01,
    -6.62684143e-01,  4.42543030e-02, -3.11076283e-01,  3.49134266e-01, -3.42059225e-01, -3.60634714e-01, -1.88220814e-01, -4.78969604e-01,
     2.33879372e-01, -2.43481368e-01, -1.91854700e-01, -3.18695813e-01,  2.91897297e-01,  7.49325529e-02, -7.81634033e-01, -2.89431006e-01,
     1.79095879e-01, -4.68870997e-01, -1.55276060e-03,  1.42272294e-01, -5.88605285e-01, -1.87904015e-01,  1.94038883e-01, -9.46528256e-01,
    -2.18396157e-01, -8.25167671e-02, -5.32806933e-01,  5.42711139e-01,  1.36029348e-01, -6.37410045e-01, -1.72793195e-01, -2.13053972e-01,
     2.28971932e-02,  4.24330175e-01,  3.44792783e-01,  3.68123889e-01, -1.55270636e-01, -3.57774496e-01,  4.76681054e-01, -8.69721115e-01,
    -1.35438040e-01,  3.87352146e-02,  3.57226253e-01,  2.09160268e-01, -6.30241260e-02, -6.05889320e-01, -4.41201359e-01,  6.79348290e-01},
   {-3.05038780e-01,  8.51507038e-02, -6.29605651e-01, -4.33733128e-02,  4.15288508e-01,  2.67334670e-01, -2.52272278e-01, -8.58637094e-02,
     4.89004761e-01, -2.12250277e-01, -1.98705181e-01, -2.27857575e-01, -2.52511054e-01,  7.26283714e-02, -7.30760694e-02, -3.83261859e-01,
     3.56672525e-01, -1.77709684e-01,  3.24845225e-01, -4.39506888e-01,  3.42035860e-01,  4.29594629e-02,  5.63531034e-02, -8.80559906e-02,
    -5.87321632e-03,  8.61016214e-02,  2.95564204e-01, -1.34183109e-01, -7.83029616e-01, -6.08353093e-02, -2.51313299e-02,  7.84419701e-02,
    -2.04500750e-01,  1.03156172e-01,  6.48527592e-02, -6.34157360e-02,  1.14840567e-02,  2.75970787e-01,  2.14060366e-01, -1.28182203e-01,
    -1.48629308e-01, -2.52147559e-02, -1.84119307e-02, -3.16544682e-01,  7.96139389e-02, -3.36793102e-02, -9.77431014e-02,  2.88285851e-01,
     2.70254791e-01, -1.68097198e-01, -6.54091597e-01, -3.01178657e-02, -2.48094201e-02, -3.28132510e-01, -1.41257122e-01,  5.57861030e-01,
     4.75721434e-02,  5.80413878e-01, -1.40846685e-01,  1.86867695e-02,  4.92461212e-02, -1.23270126e-02,  3.85160029e-01,  2.28358656e-02},
   {-8.23084295e-01,  3.11894566e-01,  3.57392609e-01, -8.65097344e-01, -9.97722626e-01, -7.63716758e-04, -1.45319402e-01,  3.55525494e-01,
    -1.40663588e+00,  1.62335426e-01, -3.22563022e-01, -1.82530675e-02,  5.31358778e-01,  8.44912827e-01, -2.39268675e-01,  3.64773035e-01,
    -1.02561259e+00,  2.38957211e-01, -2.07338500e+00,  4.30676132e-01, -1.34100854e-01, -3.06837022e-01,  5.28737493e-02, -1.55933574e-01,
    -6.60722733e-01,  5.83435558e-02, -4.79629129e-01, -1.95488900e-01,  5.12966037e-01,  1.88754007e-01,  1.12753963e+00,  2.94731349e-01,
    -4.86380160e-01, -1.53578827e-02,  9.93937403e-02,  4.09984976e-01, -6.23007640e-02, -1.74294010e-01, -3.63467127e-01,  2.01034263e-01,
    -6.22641388e-03,  6.02797866e-01, -7.06403852e-01, -7.28934288e-01,  1.79804504e-01,  2.50953380e-02,  3.26462924e-01, -2.87871122e-01,
    -1.29148781e-01,  7.49286175e-01,  5.61444402e-01,  6.75150871e-01, -3.29299718e-01, -3.99244815e-01,  1.96692720e-01, -1.56744957e+00,
     6.74371183e-01, -5.16715407e-01, -2.15877250e-01, -1.54090747e-01,  6.41923845e-02,  4.34011787e-01,  1.52865660e+00, -2.90730208e-01},
   { 7.34106958e-01,  9.03162956e-01,  7.22966254e-01,  1.09191525e+00,  1.51110637e+00, -6.84985161e-01,  3.05378437e-01,  8.30604494e-01,
    -6.30815744e-01, -3.51606101e-01,  1.10883152e+00,  1.16921747e+00,  2.00212508e-01,  6.79995239e-01,  4.60347176e-01, -1.59715623e-01,
    -1.49128985e+00,  3.84013802e-01, -2.26893020e+00,  8.88736665e-01, -1.61159372e+00,  1.70502245e-01,  6.75234973e-01,  1.16583541e-01,
    -1.41136599e+00, -1.09987271e+00, -2.75761992e-01,  8.44571710e-01,  8.94808054e-01,  4.75992769e-01,  1.71061218e+00, -7.35201061e-01,
     9.19955134e-01,  2.52592683e-01,  2.65759349e-01,  2.34117374e-01,  1.25555730e+00,  7.27467954e-01, -3.13080966e-01,  3.03037107e-01,
    -1.63163453e-01,  3.51752549e-01,  1.47947162e-01,  1.13718593e+00, -1.74628571e-01,  8.17054510e-01,  6.29857838e-01, -1.07315421e-01,
     1.18645325e-01,  6.18644595e-01, -2.66469885e-02,  3.04535717e-01,  4.47343200e-01,  1.45280564e+00,  1.15224700e-02, -7.65670478e-01,
     5.13849795e-01, -1.16509473e+00, -6.25511110e-01, -1.13501024e+00, -1.07551925e-01,  1.28519487e+00, -1.02707148e+00,  4.81599569e-01},
};

const float GRNN1_U[32][32] = {
   {-1.80321383e+00, -1.88965216e-01,  1.23827016e+00,  5.86078227e-01, -1.00613751e-01,  1.40446699e+00, -1.35982883e+00,  9.72657681e-01,
    -5.98015040e-02, -1.68809700e+00, -6.04805350e-01, -1.90782130e+00,  4.87106174e-01, -1.83547631e-01,  2.80549198e-01,  1.80051878e-01,
    -6.46672130e-01,  4.77243870e-01, -7.75202513e-02,  7.47033477e-01, -3.37140292e-01, -3.13132077e-01,  6.56560898e-01, -1.38113129e+00,
    -1.29691041e+00,  8.80206347e-01, -3.52534294e-01,  1.32533759e-01, -7.52210140e-01, -1.07680839e-02,  4.71063793e-01,  1.10186732e+00},
   {-5.16035035e-03, -1.64677888e-01, -1.05006352e-01,  7.55864978e-01,  2.81338692e-01,  1.37244654e+00, -1.05584836e+00,  6.84905946e-01,
    -8.41470599e-01,  8.64465952e-01,  8.78367543e-01,  5.33721507e-01,  8.67852032e-01,  1.65166274e-01, -7.33266413e-01, -8.06026980e-02,
     2.88721621e-01, -2.33186662e-01, -1.50025889e-01, -5.16997278e-01,  8.98400307e-01,  2.50383168e-01,  6.98422417e-02, -4.22363460e-01,
    -1.23024166e+00, -4.77368176e-01,  1.30698964e-01, -1.10935584e-01,  3.27379256e-01, -1.09489000e+00,  8.70720804e-01,  9.33544710e-02},
   { 4.81086314e-01,  4.80962217e-01, -1.52703941e-01,  2.01092549e-02, -1.97839454e-01, -2.42584974e-01,  7.58023858e-01,  5.83500803e-01,
     4.59414423e-01, -2.32288814e+00,  1.28898593e-02,  2.86969543e-01,  3.57963324e-01, -3.82739663e-01,  7.35984975e-03, -1.08527541e+00,
    -6.99016929e-01,  1.00985110e+00,  6.70495331e-01,  7.25205660e-01, -5.09504855e-01, -7.94777989e-01,  3.92040551e-01,  1.83301032e+00,
    -1.81263435e+00, -6.32990420e-01, -8.13580096e-01,  6.27273202e-01, -1.27717292e+00,  8.62382576e-02, -4.16736126e-01,  1.00157928e+00},
   {-6.21940672e-01, -9.72883463e-01, -6.97345793e-01,  1.09853983e+00, -2.24673778e-01,  1.42231417e+00,  4.99981970e-01, -3.30700964e-01,
     1.08122826e+00,  3.65270764e-01,  4.79058361e+00, -2.29080176e+00, -9.35976729e-02, -5.79964221e-01, -2.41874620e-01, -8.97519365e-02,
     1.18704271e+00, -2.07146794e-01,  1.14979297e-01,  1.88018292e-01, -3.56660938e+00, -5.88931322e-01, -3.00230384e+00,  6.70866389e-03,
     1.30108511e+00,  7.04212161e-03, -2.94876814e+00,  1.11637926e+00, -9.73371089e-01,  6.12182975e-01,  1.80118251e+00,  1.13856423e+00},
   {-9.19656307e-02, -8.84144902e-02, -1.03115976e+00,  2.41771773e-01, -9.43869352e-01, -5.31135440e-01,  1.07907915e+00, -2.38117382e-01,
    -5.36997437e-01,  5.59444308e-01,  1.94813639e-01, -6.60516202e-01, -1.18761647e+00, -5.09853661e-01,  1.19421072e-01,  4.04716581e-01,
     5.80889702e-01, -5.55359840e-01, -6.22394443e-01,  8.44099283e-01, -1.04402624e-01, -5.00987053e-01, -8.35324645e-01, -2.42712903e+00,
     3.16018939e+00,  6.00163162e-01,  1.51435718e-01, -2.13461593e-01, -1.29881755e-01, -7.85191655e-02,  6.86218977e-01,  5.11018634e-01},
   { 1.10116228e-01, -2.36286116e+00, -1.95961666e+00, -5.40221095e-01, -6.46107376e-01,  2.29235458e+00,  1.50508630e+00,  1.51385158e-01,
     3.26776594e-01,  4.30672705e-01, -1.48468840e+00, -8.54014218e-01,  3.66783410e-01,  6.85099602e-01,  3.11997509e+00, -4.93174165e-01,
     7.39947140e-01,  6.86443269e-01, -3.29079479e-01,  2.37491608e+00, -1.93060172e+00, -9.98263538e-01, -2.10351896e+00, -7.95226932e-01,
     1.33069679e-01, -7.10492194e-01,  6.87132120e-01, -3.10119510e-01, -1.55430961e+00, -2.23056889e+00,  2.50717902e+00, -3.80802155e-01},
   {-6.43908083e-01, -9.94738877e-01,  7.30417728e-01,  8.90661031e-02,  4.10149068e-01,  8.74714693e-04, -3.90675843e-01, -4.72881682e-02,
     1.58872783e+00,  2.10343413e-02,  7.16768742e-01,  1.39123523e+00,  1.16349444e-01,  7.19264090e-01,  1.04108679e+00, -3.83630902e-01,
    -4.15224105e-01,  8.83896112e-01, -7.50756860e-02,  2.49890432e-01,  1.35650754e-01,  4.70846921e-01, -3.31053793e-01, -3.62487704e-01,
    -2.35423163e-01, -5.21276236e-01,  1.21555150e+00,  2.63005588e-02, -2.81149656e-01, -1.07310258e-01, -4.35640901e-01,  5.15657663e-01},
   {-4.21622843e-01, -1.30624735e+00, -1.15272665e+00,  1.17494047e+00,  1.65745854e-01,  6.46420270e-02,  2.68734425e-01, -6.51415586e-02,
    -8.44850719e-01,  4.35415447e-01,  9.75601137e-01, -1.64384648e-01,  7.10760057e-01, -7.54285753e-01, -5.51143646e-01, -6.78705168e-04,
     1.34790492e+00, -8.90844584e-01, -6.80829167e-01,  1.95835426e-01,  5.92184544e-01,  1.13792000e-02, -1.56831920e-01,  5.65348983e-01,
     1.23186028e+00,  1.88279271e-01, -6.16508603e-01,  3.38184148e-01,  1.29139483e-01,  3.78852576e-01,  2.95409143e-01, -1.07066679e+00},
   {-3.86566579e-01, -4.03461635e-01, -5.82561791e-01, -3.23869765e-01, -8.88571322e-01,  2.22600222e+00, -7.12629139e-01, -1.10596359e+00,
     3.39864224e-01, -2.37754643e-01,  4.02098322e+00, -2.31034541e+00,  7.25076020e-01, -1.40252322e-01, -1.23380139e-01,  4.15728956e-01,
     2.06169248e+00,  1.59417123e-01, -5.67727014e-02,  8.99853110e-01,  1.20000434e+00, -1.33522034e-01, -1.65757442e+00,  2.39499950e+00,
     2.99285680e-01,  1.89431977e+00, -2.14032698e+00,  1.81757534e+00, -1.10035133e+00, -1.66033387e-01,  1.71401644e+00, -1.82131636e+00},
   { 3.72991785e-02,  1.36661917e-01, -7.89656520e-01, -1.47868216e+00, -8.03164840e-01,  2.38159150e-01,  5.39742172e-01,  6.40963078e-01,
    -3.97935450e-01, -1.04484725e+00,  8.68508995e-01,  5.99114478e-01,  2.11204425e-01, -4.27315105e-03,  9.28350091e-01, -5.14469087e-01,
    -8.05351555e-01,  2.44577229e-01, -7.94534087e-02, -6.59159243e-01, -5.31228602e-01, -6.51147962e-01,  3.25532913e-01, -1.70841515e+00,
     7.53658831e-01, -7.98713088e-01,  5.84209740e-01, -3.16349715e-01,  1.40179980e+00, -8.42150807e-01,  3.79940361e-01, -3.37352365e-01},
   { 5.83714604e-01, -2.26170039e+00, -2.53627348e+00, -2.52910614e-01,  1.10731626e+00, -1.73273563e-01,  1.95371699e+00,  3.21212828e-01,
     1.01174212e+00,  1.83980393e+00,  3.41874504e+00, -1.30616832e+00, -5.34509599e-01,  6.43269956e-01,  8.02033186e-01,  3.67684335e-01,
    -1.08157866e-01, -1.48232803e-01, -5.44355154e-01,  4.19531584e+00, -1.26006877e+00,  7.77625322e-01, -7.21574903e-01, -6.78016961e-01,
    -9.18699801e-01,  8.50512087e-01,  1.57713509e+00,  7.26673722e-01, -2.06704950e+00, -2.41821003e+00,  1.15258420e+00, -1.85823113e-01},
   { 2.19284445e-01, -5.67984402e-01, -1.61321774e-01,  2.66347766e-01,  6.34167910e-01, -3.60192925e-01, -3.12269300e-01, -8.07264090e-01,
    -4.33219641e-01, -3.11982065e-01, -6.88170135e-01, -3.96224380e-01,  2.69328833e-01, -4.33310598e-01, -2.52707124e-01, -2.20116332e-01,
     9.06979978e-01, -4.11438882e-01,  1.10303664e+00,  9.82464924e-02, -2.01765284e-01, -4.97661531e-01, -3.91900390e-01,  2.39012766e+00,
    -5.45408428e-02, -3.75324517e-01,  3.44340414e-01,  9.58609879e-02,  4.15571071e-02,  6.28522158e-01,  1.73130369e+00,  4.56387907e-01},
   { 1.59519240e-02, -1.45274138e+00, -1.24991283e-01, -1.65469095e-01,  4.97891486e-01, -1.75598696e-01, -1.53380263e+00, -7.77000859e-02,
     2.83868521e-01, -3.58343720e-02, -5.48528433e-01, -1.06117904e+00, -1.78058708e+00,  5.15457749e-01,  4.32501920e-02,  1.68717787e-01,
     5.61789721e-02,  1.51752541e-02,  2.00834960e-01,  8.24039340e-01, -2.85127670e-01,  7.16234446e-01, -4.14139450e-01,  5.14908195e-01,
    -2.22310185e+00,  1.39538884e-01, -3.04120928e-02,  1.39025254e-02, -2.41023060e-02, -5.58910668e-01, -3.66927654e-01, -6.41573191e-01},
   {-6.94615245e-01,  1.39624929e+00, -7.26658940e-01, -4.50539321e-01,  4.61096406e-01, -3.32370669e-01, -1.74339032e+00, -1.83886781e-01,
    -7.10015297e-01,  5.92888117e-01, -1.00024033e+00, -4.08961147e-01, -1.82731852e-01, -5.39846003e-01, -6.90692246e-01,  3.21049809e-01,
     5.85211635e-01, -3.91495317e-01,  9.36541036e-02,  5.30746400e-01,  2.12585092e-01, -1.64852843e-01, -2.77100146e-01,  1.10750139e+00,
    -1.26058340e+00,  8.27939995e-03,  2.22017914e-01, -1.00829393e-01,  1.32499337e+00, -5.37864447e-01, -6.48855567e-01, -8.68281722e-01},
   { 5.46936095e-01, -5.91304362e-01,  1.41015494e+00,  2.25731954e-01, -2.04523668e-01,  2.85858363e-01, -6.30356014e-01,  2.11273327e-01,
    -3.14766705e-01, -4.97936547e-01, -6.28438950e-01, -5.55470049e-01,  1.15339130e-01,  7.41216898e-01, -9.15335774e-01, -1.23179555e-01,
    -1.33616030e-01,  2.50733867e-02,  2.19015211e-01, -1.33186514e-02, -6.11719608e-01, -4.09122467e-01,  2.82896906e-01,  1.19510818e+00,
    -1.21824121e+00, -3.17692965e-01,  5.62212765e-01,  1.13569967e-01, -1.00046647e+00,  3.58534664e-01,  4.09526110e-01,  1.10988009e+00},
   { 1.25824833e+00,  7.30439425e-01, -3.70174572e-02, -8.67448211e-01, -4.86631036e-01, -8.30516443e-02, -2.03115702e+00,  4.84226257e-01,
    -3.71918708e-01, -3.66689324e-01, -1.22867644e+00, -7.26123333e-01, -9.75175276e-02, -8.77796635e-02,  2.72409081e-01,  4.56415489e-02,
     4.01011139e-01, -1.44290656e-01,  2.06375405e-01, -1.85270861e-01, -3.64871800e-01, -2.73353606e-01,  6.03073895e-01,  1.14166474e+00,
     3.65593314e-01,  1.45927131e+00, -4.11682911e-02,  9.00022984e-02,  1.06111729e+00,  1.37903215e-02, -1.65268421e-01, -7.64145374e-01},
   { 3.71914566e-01, -1.08063996e+00, -2.09181046e+00,  7.70227373e-01, -1.36530542e+00, -2.22042418e+00, -1.03905492e-01, -4.91627663e-01,
     2.42342520e+00,  2.26695955e-01,  2.16927958e+00,  3.90476137e-01, -3.56306672e-01,  1.16378117e+00, -9.54546109e-02, -1.00677609e+00,
     1.87955081e+00, -3.81734520e-01,  8.62614214e-01, -1.46906590e+00, -3.98204327e-01, -7.51604974e-01, -1.47245848e+00,  2.11999035e+00,
     4.94011116e+00, -7.06246495e-01, -1.28075552e+00, -3.19252193e-01, -1.19389117e+00,  1.16305578e+00,  1.42459631e+00, -6.31924450e-01},
   {-2.02437118e-01,  2.21140122e+00, -1.30114567e+00,  9.68907535e-01, -7.85094053e-02,  4.37351674e-01, -3.80320042e-01,  3.87079954e-01,
    -6.14046335e-01,  8.38845491e-01,  8.13216805e-01, -2.68269837e-01, -6.27268612e-01,  5.60239017e-01, -8.79693627e-02, -3.65031213e-01,
     6.29682243e-02, -2.42098260e+00,  2.56784894e-02,  3.81237358e-01,  3.03846407e+00,  6.12721682e-01,  2.97174215e-01,  3.32104832e-01,
    -3.72583479e-01,  1.93209544e-01,  2.17674279e+00, -3.34681988e-01, -4.06128109e-01,  3.92934442e-01,  7.89868534e-01,  7.46821463e-02},
   { 7.63218522e-01, -3.23096365e-01, -9.91092250e-02, -6.28033936e-01, -4.84488428e-01, -3.14891994e-01, -1.54733253e+00,  9.62116420e-01,
    -7.16306210e-01, -2.33959675e-01, -1.10309672e+00, -1.02769482e+00, -1.87420826e-02,  1.43813685e-01, -2.88923115e-01,  1.26515269e-01,
    -7.20471919e-01, -7.67215788e-02, -5.31762540e-01, -1.41092122e-01, -2.69163270e-02,  2.98715532e-01, -2.31688678e-01,  7.88049877e-01,
    -7.83928096e-01,  8.60445261e-01, -1.32027239e-01,  6.37837276e-02,  1.22714770e+00, -1.45771861e-01, -2.56318469e-02, -3.22793275e-01},
   {-8.49616647e-01, -1.89238966e+00, -1.13847315e+00, -6.91476762e-01, -1.37792721e-01, -7.45795786e-01,  1.64407825e+00, -6.57322526e-01,
     1.03789282e+00,  2.25007176e-01,  1.44827127e+00,  1.43441606e+00,  4.44567859e-01, -2.28148639e-01,  7.48388529e-01, -2.34578565e-01,
     1.23686209e-01, -2.38015071e-01,  1.85623616e-01, -1.48058701e+00, -1.45150935e-02, -7.97839642e-01, -1.99420109e-01, -3.34809512e-01,
     4.16578531e-01, -1.19107872e-01,  3.12339842e-01,  4.18583959e-01, -8.79015550e-02,  3.07009131e-01, -6.97884500e-01, -2.45315045e-01},
   { 1.83411181e-01, -2.15817499e+00, -1.26664197e+00,  1.92381039e-01, -1.66676298e-01, -2.29183182e-01,  3.40907186e-01, -7.58913100e-01,
    -5.07377312e-02,  1.61153987e-01, -9.17362571e-02, -1.98750496e-01, -1.06588590e+00,  5.96828535e-02,  4.31088269e-01, -3.10109496e-01,
    -1.28001556e-01,  6.26773715e-01, -5.02936356e-02,  1.81071132e-01,  7.02939093e-01,  1.27775982e-01,  3.58054519e+00, -6.80696905e-01,
     4.80067581e-01, -9.61467087e-01,  1.08303523e+00,  4.35258597e-01, -8.35439563e-01,  2.73670435e-01,  3.28783572e-01, -8.04109126e-02},
   {-8.14537466e-01, -1.41791785e+00, -7.04631567e-01, -7.56848991e-01,  1.54652804e-01, -1.58452725e+00,  1.82877672e+00, -5.92369735e-01,
     3.34581822e-01,  6.41413480e-02,  1.15626685e-01,  3.85253668e-01,  3.87449235e-01, -2.65598804e-01,  7.13787735e-01,  7.18616769e-02,
    -9.29023102e-02, -1.29105002e-01, -1.22902974e-01,  5.53499579e-01, -4.12463248e-01, -1.10791004e+00,  7.46154904e-01, -9.47690845e-01,
     1.00014722e+00, -2.86892727e-02,  1.17863804e-01,  2.96710044e-01, -1.49687529e-01, -3.19692820e-01, -1.17106068e+00, -1.27672482e+00},
   {-2.53392309e-02,  1.63760793e+00,  1.74358392e+00,  6.36097670e-01,  2.09223539e-01,  3.12409133e-01,  1.70958960e+00,  1.15288842e+00,
     9.49371099e-01,  2.06566289e-01,  1.29864323e+00,  3.60902607e-01,  2.08292103e+00,  7.10804403e-01,  4.60912257e-01, -1.03118396e+00,
     7.97535256e-02,  7.26250827e-01, -1.72141999e-01,  1.39724791e+00,  1.75724328e+00,  1.01830435e+00, -1.45121956e+00, -3.45079660e-01,
    -5.76446354e-01, -3.59173492e-02,  5.13248205e-01,  4.78425205e-01, -6.60833478e-01,  1.60943136e-01,  4.65816498e-01,  1.71283209e+00},
   {-2.43828580e-01, -2.63321900e+00, -1.80194211e+00,  1.15594161e+00, -2.23226354e-01,  2.53306341e+00,  1.67959201e+00,  2.47841123e-02,
     1.24921119e+00,  1.18976188e+00, -7.56564140e-01, -5.83610415e-01,  5.58971107e-01,  1.35926294e+00,  3.51139617e+00, -8.30490112e-01,
     2.17798305e+00,  7.82807291e-01, -5.14779806e-01,  1.69126660e-01, -8.19850564e-01, -5.15193462e-01, -9.40802217e-01,  1.32705939e+00,
     9.96261120e-01,  9.31144282e-02,  1.87172115e+00, -2.14233086e-03, -2.66496992e+00, -1.08338189e+00,  1.26866055e+00, -1.41303182e+00},
   { 1.24435091e+00,  8.10404480e-01,  1.03976023e+00,  1.48020184e+00,  2.00843978e+00,  1.27879179e+00,  2.36882553e-01,  6.51487231e-01,
     9.05211091e-01,  2.03934729e-01,  1.90118885e+00, -3.02581334e+00,  9.66188729e-01,  9.54694152e-01, -4.65512902e-01,  1.57763556e-01,
     1.93029737e+00,  2.13737398e-01, -2.44598120e-01,  2.37173295e+00,  2.48594545e-02,  3.45158219e+00, -1.07147360e+00,  6.66719615e-01,
     4.08739746e-01,  9.22106355e-02,  1.21506655e+00, -8.04806575e-02, -8.26193511e-01, -1.16070819e+00,  1.35446596e+00,  1.39372802e+00},
   {-7.92346179e-01, -4.48224358e-02, -4.65791002e-02, -1.25212148e-01, -3.87678653e-01, -1.05444312e+00,  1.74776658e-01,  5.41223735e-02,
    -1.00435829e+00,  9.68201458e-01, -2.78386414e-01, -4.99342941e-02, -4.00690258e-01, -1.34886831e-01,  5.64437151e-01, -5.25844395e-01,
    -4.84367430e-01, -7.76076317e-01, -6.45090044e-02, -3.95187885e-01, -2.33071670e-01, -7.76626050e-01, -4.77143228e-01, -2.07174969e+00,
     1.60440636e+00, -2.57878757e+00,  1.22421455e+00, -6.15942359e-01,  1.57227659e+00, -4.02861029e-01,  3.38171810e-01,  6.76801324e-01},
   { 6.15272343e-01, -2.99005657e-01, -9.17586327e-01,  8.01028073e-01, -4.60873187e-01, -2.40994468e-01, -1.28368497e+00,  4.08152968e-01,
    -1.29944205e+00,  2.90612668e-01,  9.00184691e-01,  6.81400374e-02,  1.14319183e-01, -1.68256506e-01, -1.05726814e+00,  1.10888176e-01,
     3.57396528e-02, -1.26170361e+00,  7.04827532e-02, -6.19460583e-01,  1.63440156e+00,  7.25995123e-01,  1.52078056e+00, -5.63908041e-01,
     4.17032421e-01, -8.58164012e-01, -2.54125142e+00, -2.83405811e-01,  6.24463379e-01, -1.17119610e-01, -1.89238071e-01,  5.61237514e-01},
   {-2.27328122e-01, -1.83955133e+00,  8.45887363e-01, -1.33241713e+00, -4.48521733e-01, -1.33526170e+00,  1.34027794e-01, -1.10062644e-01,
     2.97632813e-01, -9.89113688e-01, -1.46034688e-01,  4.29527611e-01, -4.04542722e-02, -2.68837869e-01, -9.57184374e-01,  5.43332472e-02,
    -9.67255890e-01,  1.13586515e-01,  9.02552068e-01, -8.22668612e-01, -2.21457127e-02,  4.10810620e-01,  1.80151641e-01,  1.43967986e+00,
     2.14986348e+00, -4.26396251e-01, -2.25732699e-02, -8.46886814e-01, -4.52650398e-01, -1.94426030e-01, -4.50996846e-01, -1.33628869e+00},
   {-8.71188939e-02,  9.21736062e-02, -1.01438451e+00, -2.25420833e-01,  1.09573352e+00,  1.69439301e-01, -2.87377179e-01,  3.35088521e-01,
    -9.52102721e-01,  8.36913998e-04, -3.50547791e-01,  7.75449336e-01,  2.82612801e-01, -7.75144458e-01, -7.41774261e-01, -4.89186883e-01,
     1.22098409e-01,  1.08208172e-01, -3.92311633e-01,  8.43749121e-02, -4.90377396e-01, -3.70087743e-01,  1.13961041e-01,  4.66964006e-01,
    -1.64436948e+00, -2.03625500e-01, -1.81867480e-01,  8.04976881e-01,  6.77861452e-01, -5.89326441e-01,  1.44733942e+00,  4.99830306e-01},
   { 5.93793631e-01, -5.55666566e-01, -7.08239615e-01,  3.75154555e-01, -3.49572510e-01,  1.31343529e-01,  2.13000663e-02, -4.13197875e-01,
     5.91343224e-01,  1.62356019e+00,  6.20570004e-01, -1.07669318e+00,  4.37929302e-01,  1.48027807e-01, -2.19208762e-01,  4.93814200e-01,
     2.06140988e-02,  2.12044511e-02,  4.54314351e-02, -3.91582251e-01,  1.38065815e-01,  6.02859497e-01,  8.61325115e-02, -2.37685251e+00,
     2.10242081e+00,  8.66701901e-01,  1.51096776e-01,  2.07306251e-01, -7.56914765e-02, -1.15692705e-01, -7.77414858e-01, -4.86778855e-01},
   {-6.52576268e-01,  1.70270061e+00, -3.96756321e-01, -1.08873570e+00,  9.75374699e-01, -1.16377294e+00,  1.20092309e+00,  9.45086122e-01,
    -4.10879478e-02,  3.85346338e-02, -4.16424155e-01,  1.72754061e+00,  1.54275551e-01, -3.96629930e-01, -8.23813975e-01, -1.07086897e+00,
     1.02825081e+00, -9.28043544e-01,  1.18998790e+00, -1.94913459e+00, -3.29335749e-01, -9.13256332e-02, -9.97652560e-02,  2.14732766e+00,
     1.59997475e+00,  6.80582821e-01, -1.22057927e+00,  2.68884897e-01,  2.08752728e+00, -1.77408755e+00,  1.33340895e+00, -8.26022867e-03},
   {-5.79658210e-01, -5.04336178e-01,  3.62767518e-01, -5.92150748e-01,  2.01775178e-01,  8.73635352e-01, -4.28039700e-01,  1.38876271e+00,
    -2.37880331e-02, -1.37246549e+00, -5.23363687e-02, -1.41184413e+00, -8.97461697e-02,  4.96341772e-02,  7.85113513e-01, -4.48318452e-01,
     1.94863528e-01, -8.11942756e-01,  1.20277464e+00,  2.08730626e+00, -3.83528543e+00, -4.41782773e-01,  1.68861836e-01,  3.39282751e+00,
    -2.20904365e-01,  6.00697577e-01, -9.09361124e-01,  1.01725328e+00, -6.75802648e-01, -2.05082250e+00,  3.69656026e-01,  6.97134733e-01},
};

// clang-format on


#endif // __FASTGRNN_GRNN1_PARAMS__

